[]float64{0, -20.063605059374137, -38.40724439784404, -81.04865482763256, -155.93079444027765, -289.23796777428583, -614.5346962394407, -100000, -0.33198173490170363, 32.30082505350642, 45.12214408862102, 63.65228958095145, 156.60239035239982, 413.263468400728, 10000, 20000, 593.1800727247695, 506.1123687112676, 345.0440848316308, 194.76452676703917, 0, 19.236612098404986, 96.97850246009392, 220.72635150428636, 622.7686106201883, -9.802272592441636, -36.140661287621214, 0.0026062298923618093, 5.384702776327652, 72.91389999925025}

1 / 2

[]float64{-0.42555665064884257, -19.678199639252426, -38.40724439784404, -81.04865482763256, -155.93079444027765, -289.23796777428583, -614.5346962394407, -100000, -0.33198173490170363, 32.30082505350642, 45.12214408862102, 65.99397434475458, 156.60239035239982, 403.9753079761095, 10000, 20000, 593.1800727247695, 516.6182843713618, 349.6424743360949, 192.38888218977047, 0, 19.263295823620517, 96.97850246009392, 220.72635150428636, 622.7686106201883, -9.802272592441636, -36.88469161565256, 0.0026062298923618093, 5.384702776327652, 72.91389999925025}

2 / 3

[]float64{0.762674967346308, -19.468164676609703, -37.74233810049685, -79.46760187722802, -157.29711530357508, -285.6450867311287, -614.5346962394407, -100000, 0.6673989880414037, 32.30082505350642, 45.623097566126106, 67.05315816330992, 156.1549477925128, 403.9753079761095, 10000, 20000, 608.0892074048087, 516.6182843713618, 349.6424743360949, 192.38888218977047, 0, 19.399590821704138, 94.74430588184279, 220.72635150428636, 622.7686106201883, -9.802272592441636, -36.88469161565256, 0.0026062298923618093, 5.367383171216825, 72.91389999925025}

3 / 4

[]float64{0.762674967346308, -20.190974513076625, -37.74233810049685, -78.43570487726863, -157.29711530357508, -290.79917989381283, -614.5346962394407, -100000, 0.4842624242002319, 32.30082505350642, 45.79006883583082, 67.05315816330992, 156.1549477925128, 403.9753079761095, 10000, 20000, 608.0892074048087, 509.8108596885108, 348.04417335754874, 192.38888218977047, 0, 19.399590821704138, 93.75159880917002, 221.1261720227813, 622.7686106201883, -9.802272592441636, -36.66531843118749, 0.002589226558823442, 5.314203238381387, 72.91389999925025}

4 / 6

[]float64{1.9731310439477245, -20.05923639377972, -38.63536332739738, -78.43570487726863, -157.29711530357508, -290.79917989381283, -614.5346962394407, -100000, 0.4842624242002319, 32.30082505350642, 45.79006883583082, 67.05315816330992, 155.4503516107702, 403.9753079761095, 10000, 20000, 608.0892074048087, 509.8108596885108, 355.47093890775795, 189.11846287800205, 0, 19.232670028657076, 93.75159880917002, 218.85573273115438, 622.7686106201883, -9.802272592441636, -36.66531843118749, 0.002589226558823442, 5.420489806726458, 72.91389999925025}

5 / 7

[]float64{2.067964122638071, -19.103051635479538, -39.17898143940219, -78.43570487726863, -157.29711530357508, -291.67950799861535, -614.5346962394407, -100000, 0.4842624242002319, 31.925297068158038, 45.62138174748466, 67.05315816330992, 155.4503516107702, 403.9753079761095, 10000, 20000, 618.7997731142309, 501.9074881795864, 358.277516635089, 189.9416286304223, 0, 19.07754409106021, 93.75159880917002, 222.2634954286454, 639.31125965503, -9.868431043010064, -36.92500277619975, 0.0025891636822306, 5.408453584614631, 72.91389999925025}

6 / 12

[]float64{2.067964122638071, -19.103051635479538, -39.577263362930125, -77.89946950495948, -157.29711530357508, -293.56050687591596, -614.5346962394407, -100000, 0.21888763991649823, 32.479575205113875, 45.62138174748466, 65.6132785884634, 155.4503516107702, 403.9753079761095, 10000, 20000, 623.1738080304802, 501.9074881795864, 358.9117851946678, 189.9416286304223, 0, 18.989865824736114, 94.5878312609919, 222.2634954286454, 639.31125965503, -9.812687542779145, -36.99457551396759, 0.0025891636822306, 5.408453584614631, 72.91389999925025}

7 / 13

[]float64{1.8383036445504493, -18.044417562130327, -39.57671295832537, -77.89946950495948, -157.4469183229391, -293.56050687591596, -609.4682811424948, -100000, 0.21888763991649823, 32.479575205113875, 46.697489957450784, 63.51120111230413, 155.4503516107702, 398.88408819031304, 10000, 20000, 623.1738080304802, 495.87535493385553, 358.9117851946678, 191.48615033050152, 0, 18.787190362138666, 94.5878312609919, 220.75827077145902, 648.0133042686274, -9.812687542779145, -36.99457551396759, 0.002557183716680387, 5.408453584614631, 74.09597080542635}

8 / 14

[]float64{1.8286796461800086, -18.044417562130327, -38.60041220731364, -77.89946950495948, -158.6481970656307, -293.56050687591596, -609.4682811424948, -100000, -1.0253849117690292, 32.479575205113875, 47.62809897652839, 61.21333526749481, 160.36695680324988, 389.2023484376173, 10000, 20000, 623.1738080304802, 490.4205877790521, 357.948508247456, 191.48615033050152, 0, 18.787190362138666, 94.5878312609919, 220.75827077145902, 657.7161012438858, -9.806765176098565, -36.99457551396759, 0.002557183716680387, 5.514037099195518, 73.11924034029965}

9 / 15

[]float64{1.8286796461800086, -18.044417562130327, -38.60041220731364, -77.89946950495948, -157.14833160894833, -293.56050687591596, -609.4682811424948, -100000, -1.0253849117690292, 32.479575205113875, 47.62809897652839, 59.47230974011424, 162.0135283675664, 389.2023484376173, 10000, 20000, 623.1738080304802, 490.4205877790521, 357.948508247456, 191.48615033050152, 0, 18.787190362138666, 94.5878312609919, 221.86104343699304, 657.7161012438858, -9.616648545018116, -36.9579386462684, 0.002534382146122626, 5.4134695395945185, 71.97881476213749}

10 / 18

[]float64{1.778126938529943, -18.851932041987993, -38.706788030975794, -77.89946950495948, -157.14833160894833, -293.56050687591596, -609.4682811424948, -100000, -1.0253849117690292, 33.01082063992922, 46.648731413647816, 59.47230974011424, 162.0135283675664, 382.6313414643104, 10000, 20000, 623.1738080304802, 492.75234169366, 361.2488271843239, 191.48615033050152, 0, 19.184702417608218, 94.5878312609919, 216.91622022849043, 657.7161012438858, -9.844898037614307, -36.47484159606753, 0.002518026854095269, 5.464889926372457, 70.9541559212238}

11 / 28

[]float64{2.1383945001571174, -18.3759729670138, -38.706788030975794, -77.89946950495948, -155.4254469815449, -301.10406977388857, -598.6101525754314, -100000, -1.0253849117690292, 33.01082063992922, 46.07374002152088, 61.260147178432945, 158.75761149979593, 382.6313414643104, 10000, 20000, 623.1738080304802, 492.75234169366, 361.2488271843239, 191.8404319125048, 0, 19.184702417608218, 93.36605990120194, 216.91622022849043, 657.7161012438858, -9.844898037614307, -36.47484159606753, 0.0025331876693980146, 5.464889926372457, 70.9541559212238}

12 / 30

[]float64{3.324695514272636, -17.445832744683916, -38.706788030975794, -77.89946950495948, -155.4254469815449, -301.10406977388857, -598.6101525754314, -100000, -0.2975995550600894, 33.01082063992922, 46.07868576206991, 63.36464547441042, 153.93158953446067, 376.5281460357638, 10000, 20000, 614.1431847671847, 494.6848826580483, 361.2488271843239, 191.77030671447335, 0, 19.184702417608218, 93.36605990120194, 216.91622022849043, 657.7161012438858, -9.972664788599502, -36.47484159606753, 0.0025331876693980146, 5.356103302770034, 70.9541559212238}

13 / 31

[]float64{3.049591741916227, -17.445832744683916, -38.706788030975794, -77.89946950495948, -154.36688403582508, -301.10406977388857, -598.6101525754314, -100000, -0.2975995550600894, 32.84743110071321, 46.86766034575386, 61.58651529827037, 153.93158953446067, 369.8727842531617, 10000, 20000, 614.1431847671847, 494.6848826580483, 354.98089723143477, 191.87380452409667, 0, 19.184702417608218, 94.96715158198994, 218.01378106241035, 662.7933650821114, -9.929795484781645, -36.47484159606753, 0.0025331876693980146, 5.356103302770034, 70.9541559212238}

14 / 32

[]float64{4.1335431861698035, -17.98006729957109, -37.901489561359, -77.89946950495948, -150.46813363797463, -301.10406977388857, -592.7439825083495, -100000, -0.24938203563610212, 32.84743110071321, 46.383605593618796, 62.34320936093361, 154.00158858695136, 362.5396029851024, 10000, 20000, 605.7251465139752, 505.5570233752595, 361.56600609655095, 191.87380452409667, 0, 19.184702417608218, 94.96715158198994, 218.01378106241035, 674.1305944116656, -9.753589836914443, -36.40923613501579, 0.002588304201207337, 5.356103302770034, 70.9541559212238}

15 / 37

[]float64{3.8486742806667906, -17.98006729957109, -37.901489561359, -77.89946950495948, -150.46813363797463, -301.10406977388857, -579.7088564178882, -100000, -0.8147339876190272, 32.045163750285646, 47.55379686882677, 64.43813752767345, 154.00158858695136, 362.5396029851024, 10000, 20000, 605.7251465139752, 505.5570233752595, 367.6896288321973, 191.87380452409667, 0, 19.184702417608218, 94.96715158198994, 218.01378106241035, 657.9504432608135, -9.753589836914443, -36.40923613501579, 0.0025392680134428375, 5.356103302770034, 70.9541559212238}

16 / 39

[]float64{4.76317658493333, -17.87416478557884, -37.901489561359, -77.44957884555551, -152.36951499837573, -301.10406977388857, -579.7088564178882, -100000, -1.219126375691741, 32.045163750285646, 47.04679889480316, 66.37530128470641, 154.00158858695136, 362.5396029851024, 10000, 20000, 612.1158032235674, 506.7695847548464, 370.6856816741392, 194.87255929080442, 0, 19.184702417608218, 93.75113846555175, 219.98370611567464, 675.615385502033, -9.753589836914443, -36.40923613501579, 0.0025392680134428375, 5.356103302770034, 72.40825456996177}

17 / 44

[]float64{4.7545108611319655, -18.04944347404696, -37.901489561359, -77.44957884555551, -152.36951499837573, -301.10406977388857, -579.7088564178882, -100000, -1.219126375691741, 32.80487300333096, 47.04679889480316, 66.37530128470641, 153.6354936290379, 365.7693567454529, 10000, 20000, 619.755568346259, 506.7695847548464, 366.6532898215979, 194.41677631387188, 0, 19.297895958752463, 96.09472466595903, 222.33354363343818, 688.8303287540914, -9.753589836914443, -36.40923613501579, 0.0025496946042726154, 5.2321353338542265, 71.33717110889253}

18 / 49

[]float64{4.7545108611319655, -18.353307755531734, -39.03517065809491, -76.32684315581314, -150.10158158851613, -301.10406977388857, -575.0358961244995, -100000, -0.5431881535019643, 31.70075759203926, 47.04679889480316, 66.37530128470641, 158.5005374894561, 365.7693567454529, 10000, 20000, 619.755568346259, 506.7695847548464, 366.6532898215979, 196.3594025066024, 0, 19.51028901515062, 97.45841766875127, 219.5148676804356, 703.2401266898853, -9.753589836914443, -36.40923613501579, 0.0025163110881093894, 5.2321353338542265, 71.33717110889253}

19 / 50

[]float64{5.210348961240555, -17.216229278354895, -39.03517065809491, -76.2287126579713, -153.48670872158579, -299.0716977442826, -575.0358961244995, -100000, -0.5431881535019643, 31.70075759203926, 48.181377950335694, 68.35478460706989, 158.59408172961906, 359.24729934825183, 10000, 20000, 619.755568346259, 496.33447674358433, 366.6532898215979, 196.3594025066024, 0, 19.51028901515062, 98.83661919562375, 222.61567094078868, 703.2401266898853, -9.627468034198397, -36.96603782232819, 0.0025163110881093894, 5.233205868865516, 71.64066355102646}

20 / 52

[]float64{5.210348961240555, -17.216229278354895, -38.741296206755706, -76.2287126579713, -153.48670872158579, -299.0716977442826, -560.4160251672698, -100000, -0.29422722743189245, 31.913503259774167, 47.31720865045662, 68.35478460706989, 158.59408172961906, 359.24729934825183, 10000, 20000, 625.5257152516565, 496.33447674358433, 366.6532898215979, 196.3594025066024, 0, 19.01841437182146, 98.83661919562375, 218.2177158284208, 703.2401266898853, -9.557022373258983, -36.96603782232819, 0.0024883773821424674, 5.233205868865516, 71.64066355102646}

21 / 53

[]float64{5.268859365636532, -16.033061015338724, -38.741296206755706, -76.2287126579713, -150.95720844249615, -299.0716977442826, -565.671470544381, -100000, -0.29422722743189245, 31.913503259774167, 46.07490103373536, 68.35478460706989, 161.8749152461882, 363.2787983207671, 10000, 20000, 625.5257152516565, 496.33447674358433, 366.6532898215979, 196.3594025066024, 0, 19.142121462899844, 98.83661919562375, 222.88347280841558, 701.1474931093085, -9.557022373258983, -36.96603782232819, 0.0025624053605140043, 5.233205868865516, 72.72524646714287}

22 / 58

[]float64{4.04439052400505, -16.033061015338724, -39.53987166009935, -74.84749131623187, -150.95720844249615, -305.9439496319356, -565.671470544381, -100000, 0.7371984266397373, 31.885794548130256, 46.07490103373536, 69.22095546322481, 164.31299015011206, 363.2787983207671, 10000, 20000, 625.5257152516565, 496.33447674358433, 366.6532898215979, 196.3594025066024, 0, 19.142121462899844, 98.74129655525323, 221.63760574302393, 701.1474931093085, -9.557022373258983, -36.71503179260348, 0.0025624053605140043, 5.16678576284164, 72.87880997664499}

23 / 60

[]float64{4.04439052400505, -14.991358758897668, -39.527627547333, -75.89690145561624, -150.95720844249615, -305.9439496319356, -565.671470544381, -100000, 0.7371984266397373, 30.981172226931864, 45.088466214706095, 69.22095546322481, 164.31299015011206, 363.2787983207671, 10000, 20000, 625.5257152516565, 496.33447674358433, 368.10705525952847, 195.60615668865194, 0, 19.152594006633343, 101.05334334059553, 221.63760574302393, 691.6000737045231, -9.557022373258983, -36.71503179260348, 0.002619904964849762, 5.287217978523261, 72.98984509212926}

24 / 62

[]float64{4.04439052400505, -14.756522671776382, -39.527627547333, -74.76134257178865, -150.95720844249615, -305.9439496319356, -565.671470544381, -100000, 0.06318790482720482, 32.13658835843752, 45.088466214706095, 69.27199183954099, 164.31299015011206, 363.34960542894396, 10000, 20000, 618.7701982069036, 496.33447674358433, 370.1924021676199, 192.49717919542547, 0, 19.64612283860903, 102.0488713179426, 221.3758905372415, 691.6000737045231, -9.557022373258983, -36.71503179260348, 0.002551736073110394, 5.380082525625209, 73.94309576323877}

25 / 65

[]float64{3.1345667561730646, -14.756522671776382, -38.4001963884124, -73.95784948841195, -147.27250428357488, -299.5854638781616, -565.671470544381, -100000, 0.9202321197837687, 32.13658835843752, 45.088466214706095, 69.27199183954099, 164.31299015011206, 363.34960542894396, 10000, 20000, 618.7701982069036, 496.33447674358433, 370.1924021676199, 192.49717919542547, 0, 19.66410212251344, 103.10351418464815, 221.3758905372415, 686.6514349986496, -9.557022373258983, -36.71503179260348, 0.0026095463300684525, 5.418654080412628, 73.94309576323877}

26 / 66

[]float64{3.1345667561730646, -14.756522671776382, -38.34640107215063, -73.95784948841195, -148.14446811996757, -303.0872697283221, -579.7129496819648, -100000, 0.9202321197837687, 32.13658835843752, 45.417629401431896, 67.65015012283459, 168.44919882182813, 370.3470357035467, 10000, 20000, 618.7701982069036, 489.7313024811469, 376.768808147119, 190.88516538935153, 0, 19.66410212251344, 103.04477403749655, 220.4488386115119, 686.6514349986496, -9.688587928234853, -36.57139655523113, 0.002630839138473863, 5.298917225245928, 73.94309576323877}

27 / 67

[]float64{3.1345667561730646, -14.756522671776382, -38.34640107215063, -73.95784948841195, -148.14446811996757, -303.0872697283221, -579.7129496819648, -100000, -0.11024987786842105, 31.838139938112278, 45.417629401431896, 67.65015012283459, 168.44919882182813, 370.3470357035467, 10000, 20000, 618.7701982069036, 489.7313024811469, 376.768808147119, 187.33042541665566, 0, 19.33482092589746, 103.04477403749655, 220.4488386115119, 684.6115430908328, -9.709328995115687, -36.57139655523113, 0.002630839138473863, 5.34107873554087, 73.84086186795423}

28 / 69

[]float64{3.1345667561730646, -15.53437873517128, -38.61249908014418, -73.95784948841195, -149.83813003495953, -303.0872697283221, -579.7129496819648, -100000, 0.9049974134418655, 31.52517604271806, 45.417629401431896, 67.65015012283459, 171.13560919739746, 370.3470357035467, 10000, 20000, 618.7701982069036, 489.6476079135223, 376.768808147119, 187.33042541665566, 0, 19.33482092589746, 101.38887132311498, 219.59352997638592, 684.6115430908328, -9.709328995115687, -36.9176486762605, 0.002630839138473863, 5.34107873554087, 73.84086186795423}

29 / 72

[]float64{3.1345667561730646, -16.185982153377395, -38.61249908014418, -73.9238667215915, -149.83813003495953, -303.0872697283221, -594.2164657198266, -100000, 0.9049974134418655, 31.70944848154158, 45.417629401431896, 67.17858425199931, 171.13560919739746, 367.49009709203386, 10000, 20000, 623.1293369862394, 489.6476079135223, 381.5394047843428, 187.33042541665566, 0, 19.33482092589746, 101.38887132311498, 215.09881241912774, 675.7314272954214, -9.709328995115687, -36.24311013670049, 0.0026617848792789937, 5.242474952094042, 73.73766790416076}

30 / 76

[]float64{3.1356019934882617, -16.793995889033482, -38.61249908014418, -73.75542067145501, -149.83813003495953, -295.87393330187865, -594.2164657198266, -100000, 0.9049974134418655, 32.343803896341015, 45.417629401431896, 65.97686108712207, 171.13560919739746, 358.3136637203704, 10000, 20000, 636.1837741366077, 489.6476079135223, 381.5394047843428, 184.99580287990452, 0, 19.582883689102474, 103.33060917097156, 218.33855553974172, 675.7314272954214, -9.698552998745598, -36.7867568759459, 0.0027311720531708198, 5.3241796128755485, 73.73766790416076}

31 / 80

[]float64{2.940380924258856, -16.657330597104398, -39.55715791061739, -73.75542067145501, -149.83813003495953, -288.28021463119774, -597.242285285768, -100000, 0.9049974134418655, 32.343803896341015, 44.19319229962075, 67.41285508294138, 175.88982556038212, 358.3136637203704, 10000, 20000, 636.1837741366077, 489.6476079135223, 387.5794027822867, 184.99580287990452, 0, 19.582883689102474, 102.40804746805586, 219.57022986903223, 675.7314272954214, -9.598696942505114, -37.357094071339105, 0.0027134750221486535, 5.3241796128755485, 73.73766790416076}

32 / 85

[]float64{2.940380924258856, -16.657330597104398, -39.55715791061739, -73.75542067145501, -150.64960607182596, -288.28021463119774, -597.242285285768, -100000, 0.9049974134418655, 32.26082548867866, 44.19319229962075, 67.41285508294138, 175.88982556038212, 367.00874748837305, 10000, 20000, 636.1837741366077, 489.6476079135223, 384.4737460528704, 184.99580287990452, 0, 19.582883689102474, 101.00401600048792, 223.8833626853474, 664.7365281234528, -9.644803444188668, -36.81778726528563, 0.0027134750221486535, 5.40682331922266, 73.73766790416076}

33 / 87

[]float64{3.8854904306669757, -16.657330597104398, -39.33037036936131, -73.7792958894496, -150.64960607182596, -280.43546124679665, -597.242285285768, -100000, -0.027741997875831093, 32.26082548867866, 44.19319229962075, 69.45964180501159, 175.88982556038212, 367.00874748837305, 10000, 20000, 639.0742438723821, 485.68275059448763, 386.1280109186448, 182.28450097357404, 0, 20.0344591149485, 101.06369328786238, 219.1385004501942, 681.7521757863119, -9.644803444188668, -37.17568225105289, 0.002733321598955671, 5.40682331922266, 73.73766790416076}

34 / 88

[]float64{3.8854904306669757, -16.657330597104398, -39.33037036936131, -72.17090902333538, -151.10306104790686, -277.4561362497366, -589.5269765608182, -100000, -1.047696942212627, 32.402530184193964, 44.19319229962075, 68.82911788125091, 178.769877456552, 367.00874748837305, 10000, 20000, 646.1345394173748, 485.68275059448763, 386.1280109186448, 182.28450097357404, 0, 20.0344591149485, 101.06369328786238, 219.1385004501942, 665.0639662395731, -9.489264120384405, -36.749866729311435, 0.002733321598955671, 5.489300288097542, 73.5258439835914}

35 / 89

[]float64{3.0058195046878327, -16.657330597104398, -39.33037036936131, -72.17090902333538, -153.30464384954314, -277.4561362497366, -589.5269765608182, -100000, -0.5094776976695647, 32.402530184193964, 44.19319229962075, 66.82786779238242, 178.769877456552, 364.51419854484135, 10000, 20000, 646.9743164110669, 493.3603996384029, 386.1280109186448, 180.01094284550567, 0, 20.0344591149485, 101.06369328786238, 215.61197212735794, 665.0639662395731, -9.489264120384405, -36.35211097708462, 0.002733321598955671, 5.408508557760731, 73.433687130061}

36 / 94

[]float64{3.0058195046878327, -17.57485735988345, -39.01229211303834, -70.86106849241035, -149.7595825542187, -283.9124815099722, -580.0148200037604, -100000, -0.2944506025386198, 32.969969002990254, 44.38180551173636, 64.69041939034105, 175.3290422758479, 364.51419854484135, 10000, 20000, 646.9743164110669, 493.3603996384029, 386.1280109186448, 179.6566884008602, 0, 20.0344591149485, 101.06369328786238, 211.13443968155389, 675.6226307901468, -9.489264120384405, -36.29454110660329, 0.0027328235952703986, 5.355468456951341, 73.433687130061}

37 / 96

[]float64{3.0058195046878327, -17.587841017257198, -39.01229211303834, -70.86106849241035, -151.2405292353755, -283.9124815099722, -580.4888167540757, -100000, -1.1213012173981258, 32.969969002990254, 45.22713743640177, 64.69041939034105, 174.409852504882, 372.24776446200354, 10000, 20000, 657.2109859865634, 493.3603996384029, 384.9939360563876, 179.6566884008602, 0, 20.0344591149485, 99.79049617279742, 213.92538661992802, 689.7109664327504, -9.489264120384405, -36.59721386859336, 0.0027328235952703986, 5.355468456951341, 74.5908996074861}

38 / 98

[]float64{3.620343353599874, -17.635658927623084, -39.01229211303834, -70.86106849241035, -148.15585883801197, -289.23088974624966, -580.4888167540757, -100000, -1.1213012173981258, 32.79105767165869, 45.22713743640177, 64.69041939034105, 177.10698861105573, 372.24776446200354, 10000, 20000, 657.2109859865634, 494.5984174135475, 384.9939360563876, 177.48341366297407, 0, 20.0344591149485, 99.79049617279742, 213.92538661992802, 689.7109664327504, -9.285804043550922, -36.59721386859336, 0.0027328235952703986, 5.4589895693063095, 74.5908996074861}

39 / 101

[]float64{4.702217711683137, -17.635658927623084, -39.01229211303834, -70.3674554859097, -148.15585883801197, -285.07641454304337, -566.7582037287991, -100000, -1.1213012173981258, 32.79105767165869, 45.22713743640177, 63.2085074007224, 177.10698861105573, 372.24776446200354, 10000, 20000, 657.2109859865634, 494.5984174135475, 384.9939360563876, 177.48341366297407, 0, 20.0344591149485, 99.79049617279742, 213.92538661992802, 689.7109664327504, -9.285804043550922, -36.59721386859336, 0.0027328235952703986, 5.5284083080494355, 74.48475601837205}

40 / 103

[]float64{4.702217711683137, -17.635658927623084, -39.01229211303834, -69.64990761141209, -148.15585883801197, -285.07641454304337, -560.707496730608, -100000, -1.1213012173981258, 31.911370266650202, 45.18489391530606, 62.513033294915004, 179.5183925411382, 378.12968424713733, 10000, 20000, 654.0310139256792, 494.5984174135475, 383.7486962522603, 179.5565387313957, 0, 20.0344591149485, 97.37312691232034, 213.92538661992802, 675.778688215363, -9.285804043550922, -36.59721386859336, 0.0027824721088748933, 5.409900309468586, 74.14293995849738}

41 / 108

[]float64{4.702217711683137, -17.7785770605267, -39.01229211303834, -69.64990761141209, -145.29682965644542, -292.2972858649609, -562.6783340819514, -100000, -0.6793088886237781, 31.911370266650202, 45.18489391530606, 62.513033294915004, 179.5183925411382, 381.1119152656395, 10000, 20000, 663.2919974270271, 498.5064561167078, 383.7486962522603, 182.79707081743658, 0, 20.0344591149485, 97.37312691232034, 213.92538661992802, 691.9848574312111, -9.285804043550922, -36.46780160109023, 0.002713906323311195, 5.42031865192893, 73.6207658178679}

42 / 109

[]float64{4.702217711683137, -17.7785770605267, -38.0713176814588, -69.64990761141209, -145.29682965644542, -286.08202612076514, -558.382322463325, -100000, -1.4021365095312204, 31.911370266650202, 44.03427421206451, 60.2110036230547, 179.5183925411382, 375.50388994105873, 10000, 20000, 674.5431199722316, 499.5231790746165, 390.7539149158858, 184.5907848715816, 0, 20.0344591149485, 97.37312691232034, 209.922970513179, 691.9848574312111, -9.285804043550922, -36.46780160109023, 0.002734424828972393, 5.314019190107785, 73.6207658178679}

43 / 111

[]float64{4.702217711683137, -18.566902162796683, -38.86403733061458, -69.64990761141209, -145.29682965644542, -280.83361686038734, -558.382322463325, -100000, -1.8064248467948942, 30.694599393634135, 44.03427421206451, 62.43531509220924, 176.20304806388776, 381.06024686189903, 10000, 20000, 685.4875664504912, 499.5231790746165, 390.7539149158858, 181.57456160476767, 0, 20.114379031767065, 97.28671639246468, 214.564054496977, 691.9848574312111, -9.285804043550922, -36.15822644331406, 0.002734424828972393, 5.2970476610657045, 73.6207658178679}

44 / 116

[]float64{4.702217711683137, -18.566902162796683, -38.514053731010804, -69.64990761141209, -145.29682965644542, -280.83361686038734, -558.382322463325, -100000, -1.8064248467948942, 30.856080430031184, 44.58399032652679, 62.43531509220924, 171.92707350065848, 381.06024686189903, 10000, 20000, 685.4875664504912, 503.45035638978413, 390.7539149158858, 181.57456160476767, 0, 20.114379031767065, 97.28671639246468, 214.564054496977, 691.9848574312111, -9.285804043550922, -35.658101726904334, 0.0026636236445541496, 5.2900355494160785, 73.6207658178679}

45 / 118

[]float64{5.242765871451237, -19.022487201127493, -38.99747493362571, -69.63394558864164, -145.29682965644542, -280.83361686038734, -558.382322463325, -100000, -1.4205733667347062, 30.856080430031184, 45.12389726082011, 62.43531509220924, 171.92707350065848, 381.06024686189903, 10000, 20000, 690.5327143345294, 503.45035638978413, 390.7539149158858, 181.57456160476767, 0, 20.114379031767065, 98.37990209421872, 216.84418361133277, 698.5208381144821, -9.285804043550922, -35.85051821542546, 0.0026636236445541496, 5.2900355494160785, 73.6207658178679}

46 / 120

[]float64{4.041913849623759, -19.022487201127493, -38.65155785015119, -70.07912510752317, -141.29795619612685, -286.9767163278395, -558.382322463325, -100000, -0.9289713887275364, 29.909967848893434, 45.12389726082011, 64.16188715085522, 169.74722668957673, 381.06024686189903, 10000, 20000, 697.5298366150361, 503.45035638978413, 384.42798246748987, 181.57456160476767, 0, 20.550267092182793, 97.70303530482282, 216.84418361133277, 698.5208381144821, -9.285804043550922, -35.85051821542546, 0.0026213017050928144, 5.316001286941691, 73.6207658178679}

47 / 121

[]float64{2.799582462700943, -19.022487201127493, -38.82704012399498, -70.07912510752317, -141.29795619612685, -286.9767163278395, -559.7918759200492, -100000, -1.0712870490412711, 29.613455922156568, 45.12389726082011, 64.16188715085522, 169.74722668957673, 386.40705405808336, 10000, 20000, 688.934627183713, 514.1358160921902, 389.39947314408005, 181.57456160476767, 0, 20.19518162010081, 97.15962387088493, 216.84418361133277, 706.0149032608033, -9.285804043550922, -36.02408603795574, 0.002613013810251612, 5.270621712674181, 73.6207658178679}

48 / 124

[]float64{3.0502828690543553, -19.022487201127493, -38.82704012399498, -68.64292919156455, -139.73360155614162, -286.9767163278395, -555.3958626666479, -100000, -1.502642703638113, 29.191917293761442, 45.12389726082011, 63.18881160434883, 169.74722668957673, 386.40705405808336, 10000, 20000, 688.934627183713, 514.1358160921902, 391.07904069464234, 182.12648876888088, 0, 20.19518162010081, 94.7860228424523, 221.83449757408852, 706.0149032608033, -9.285804043550922, -36.02408603795574, 0.0026140645225005863, 5.324799647987401, 74.94636119962192}

49 / 125

[]float64{3.0502828690543553, -19.022487201127493, -39.93937879845531, -68.64292919156455, -139.33572493559612, -286.9767163278395, -571.2646524282695, -100000, -1.502642703638113, 29.191917293761442, 45.12389726082011, 63.18881160434883, 169.74722668957673, 377.662789212756, 10000, 20000, 677.927962457786, 514.1358160921902, 394.0745350896765, 182.12648876888088, 0, 20.576479428068126, 93.94467751134684, 221.83449757408852, 706.0149032608033, -9.285804043550922, -36.506201161353495, 0.0026140645225005863, 5.41227840082102, 73.87974455929873}

50 / 127

[]float64{4.143684562785075, -19.022487201127493, -38.98259373686156, -67.97471044217438, -143.1494576501745, -289.32908952584205, -571.2646524282695, -100000, -1.1008607046849095, 29.191917293761442, 45.38992299808275, 63.18881160434883, 169.74722668957673, 377.662789212756, 10000, 20000, 677.927962457786, 518.9650321499271, 394.0745350896765, 182.12648876888088, 0, 20.542089655175655, 95.7375549463515, 221.83449757408852, 706.0149032608033, -9.249326266319432, -36.506201161353495, 0.0025606058090710676, 5.41227840082102, 72.5485433907913}

51 / 131

[]float64{4.987925951072585, -19.022487201127493, -38.98259373686156, -68.91019669752154, -139.76455463502487, -285.8386380084073, -558.0563533211161, -100000, -0.7094419647182906, 28.012278999731613, 45.38992299808275, 63.18881160434883, 169.74722668957673, 371.33329684185253, 10000, 20000, 677.927962457786, 519.2082577977035, 392.308548681928, 180.93253221589953, 0, 20.58461173727224, 95.7375549463515, 221.83449757408852, 706.0149032608033, -9.00980759694685, -37.06796598631708, 0.0025641391301614233, 5.291050414310329, 73.5455993853242}

52 / 135

[]float64{4.402248709170092, -19.960641365981523, -38.30605600697107, -68.91019669752154, -139.76455463502487, -291.42082907142526, -558.0563533211161, -100000, 0.2914019480490213, 28.012278999731613, 45.38992299808275, 63.18881160434883, 166.0862905909313, 363.50516471818827, 10000, 20000, 677.927962457786, 519.2082577977035, 397.13723349535627, 180.93253221589953, 0, 20.58461173727224, 95.7375549463515, 221.83449757408852, 706.0149032608033, -9.00980759694685, -36.63869892782033, 0.002566723382659784, 5.291050414310329, 73.5455993853242}

53 / 137

[]float64{4.402248709170092, -19.960641365981523, -38.96021092582468, -68.91019669752154, -139.76455463502487, -291.42082907142526, -547.2485912996626, -100000, 0.2914019480490213, 28.012278999731613, 45.38992299808275, 64.0406948614923, 166.0862905909313, 370.87663122883123, 10000, 20000, 677.927962457786, 530.1744389921644, 397.13723349535627, 180.84906967445136, 0, 20.58461173727224, 93.81082433160898, 221.83449757408852, 706.0149032608033, -9.00220486357151, -36.63869892782033, 0.0025367825274826483, 5.180980215589393, 73.36459653785121}

54 / 140

[]float64{4.402248709170092, -21.048160627956932, -38.96021092582468, -69.1470835700127, -139.76455463502487, -291.42082907142526, -537.613734734656, -100000, -0.7651198821563423, 28.012278999731613, 46.62246466649447, 65.49683845865101, 164.7021707322004, 370.1379199494411, 10000, 20000, 677.927962457786, 533.6680398375167, 402.1759384203034, 183.55818560508314, 0, 20.58461173727224, 95.6264541273059, 221.83449757408852, 711.3287800290982, -8.822892927250557, -36.63869892782033, 0.002593235582133321, 5.180980215589393, 73.36459653785121}

55 / 141

[]float64{4.969430444192075, -21.048160627956932, -38.96021092582468, -67.28235686643279, -139.76455463502487, -297.1956145383481, -522.5029074201799, -100000, -0.7651198821563423, 28.012278999731613, 46.61930238979369, 65.49683845865101, 164.7021707322004, 364.3279159728103, 10000, 20000, 685.2813982905157, 523.4038378053725, 402.1759384203034, 183.09710731748186, 0, 20.860019837335685, 93.68831539650148, 221.83449757408852, 708.1131038815076, -8.8078538051514, -36.31560092439712, 0.002530724646560137, 5.180980215589393, 74.64926171847972}

56 / 142

[]float64{5.550125901636406, -21.048160627956932, -39.178632428450285, -67.76991109921357, -142.88777634827795, -297.1956145383481, -522.5029074201799, -100000, -0.6344642930490104, 28.012278999731613, 46.266951351207766, 64.69394464461242, 164.7021707322004, 356.034209946111, 10000, 20000, 685.2813982905157, 522.7912911354981, 402.1759384203034, 183.09710731748186, 0, 20.91645414415337, 94.66789732327418, 218.7937992376414, 692.0496100846414, -8.8078538051514, -36.230555382608415, 0.002530724646560137, 5.180980215589393, 74.64926171847972}

57 / 143

[]float64{5.550125901636406, -21.481986043341102, -39.607827921082844, -69.14668373527877, -140.14373033117718, -297.1956145383481, -538.6245734421077, -100000, -1.6939934274903439, 28.040806881229486, 46.266951351207766, 64.82659608662921, 168.5442852279629, 346.24485865328734, 10000, 20000, 671.4454762787464, 528.1794320978836, 402.1759384203034, 183.9461238226246, 0, 21.382044539660363, 94.66789732327418, 221.92080612678154, 708.5730019265811, -8.69457238011768, -36.050711210022556, 0.002530724646560137, 5.1549356836764115, 74.64926171847972}

58 / 146

[]float64{5.550125901636406, -22.555478508005372, -39.607827921082844, -69.14668373527877, -141.99133290938155, -297.1956145383481, -538.6245734421077, -100000, -1.6939934274903439, 27.2367271710065, 46.266951351207766, 64.82659608662921, 168.8104656975385, 340.94210376807155, 10000, 20000, 671.4454762787464, 528.1794320978836, 402.1759384203034, 183.9461238226246, 0, 21.382044539660363, 94.66789732327418, 221.04744449960697, 708.5730019265811, -8.69457238011768, -36.144074768464975, 0.002530724646560137, 5.198769516715908, 74.64926171847972}

59 / 150

[]float64{5.223521101585274, -22.555478508005372, -39.607827921082844, -69.14668373527877, -144.38968350527853, -299.65512084579314, -520.7963705209668, -100000, -2.6862643624334464, 27.2367271710065, 46.266951351207766, 64.37943367927947, 168.8104656975385, 340.94210376807155, 10000, 20000, 671.4454762787464, 528.1794320978836, 400.62919307806885, 183.9461238226246, 0, 21.438609096835876, 92.62254842598452, 217.1676622931331, 708.5730019265811, -8.666250640754093, -36.37514508840442, 0.0026012670020832537, 5.30876292282978, 73.94605997809364}

60 / 154

[]float64{4.852089600445909, -22.08685753264975, -39.607827921082844, -69.14668373527877, -144.38968350527853, -299.65512084579314, -520.7963705209668, -100000, -2.6862643624334464, 26.76384763506657, 47.12103394531593, 64.37943367927947, 166.98887737443334, 344.33220505967813, 10000, 20000, 670.4888301485446, 519.9064504640597, 400.62919307806885, 183.9461238226246, 0, 21.438609096835876, 91.08603342592559, 217.1676622931331, 696.0031226744775, -8.669044748417802, -36.37514508840442, 0.0026012670020832537, 5.2935486714478275, 73.94605997809364}

61 / 155

[]float64{4.9992881397415285, -22.08685753264975, -38.95998870220603, -69.14668373527877, -144.38968350527853, -299.65512084579314, -520.7963705209668, -100000, -2.6862643624334464, 26.833125375374006, 47.12103394531593, 64.67544179033317, 163.7932079945088, 344.33220505967813, 10000, 20000, 684.9708939408573, 519.9064504640597, 400.62919307806885, 183.9461238226246, 0, 20.99563049176146, 91.08603342592559, 221.63406887035944, 711.1473547124729, -8.483688662881722, -36.463599909379596, 0.0026012670020832537, 5.2935486714478275, 73.93696033960029}

62 / 156

[]float64{5.188373397145567, -22.06548901113232, -38.38966536379, -69.90982204025481, -141.7707195646191, -291.93476038554707, -512.4195938398911, -100000, -1.4961006614016295, 26.833125375374006, 47.12103394531593, 64.67544179033317, 163.7932079945088, 344.33220505967813, 10000, 20000, 684.9708939408573, 529.5608655659939, 403.9571239584884, 181.69606149901477, 0, 21.020449262752184, 90.73589467875553, 221.63406887035944, 711.1473547124729, -8.483688662881722, -36.21751789654466, 0.0026669318491488736, 5.2935486714478275, 73.54730489464637}

63 / 159

[]float64{5.188373397145567, -22.06548901113232, -38.11943096622482, -69.90982204025481, -142.7251958823976, -291.93476038554707, -520.6619055330991, -100000, -2.6370069721281113, 26.189523660773126, 47.12103394531593, 64.67544179033317, 167.0713935974867, 336.6647720999953, 10000, 20000, 684.9708939408573, 524.7939117724143, 403.9571239584884, 181.96710128674732, 0, 21.020449262752184, 90.73589467875553, 221.63406887035944, 726.7960488192764, -8.721199723784451, -36.21751789654466, 0.0026669318491488736, 5.341980486461933, 73.54730489464637}

64 / 160

[]float64{5.188373397145567, -23.027548476154106, -39.329004428312246, -69.90982204025481, -145.10150913711746, -285.0882664680154, -520.6619055330991, -100000, -2.6370069721281113, 25.328376778611464, 47.12103394531593, 62.22456069497519, 169.71874186956367, 336.6647720999953, 10000, 20000, 684.9708939408573, 524.7939117724143, 403.9571239584884, 181.0512855606961, 0, 20.70191210774213, 90.73589467875553, 221.63406887035944, 717.3816724619767, -8.721199723784451, -36.21751789654466, 0.002726760778177199, 5.353577849251968, 74.79567519643402}

65 / 163

[]float64{5.069043944416782, -23.027548476154106, -39.329004428312246, -70.5188371028658, -145.10150913711746, -278.0602656086402, -520.6619055330991, -100000, -1.5673789086625491, 25.328376778611464, 47.13954419973774, 59.75186451904878, 169.71874186956367, 329.0572832505288, 10000, 20000, 684.9708939408573, 524.7939117724143, 404.52671340802226, 180.8347441025785, 0, 20.870853310950267, 89.01713760873614, 221.63406887035944, 728.0072465463401, -8.777262083860517, -36.21751789654466, 0.002671235733476664, 5.446553784093461, 74.79567519643402}

66 / 165

[]float64{5.942491771082191, -23.027548476154106, -39.329004428312246, -70.5188371028658, -145.10150913711746, -278.0602656086402, -520.6619055330991, -100000, -1.6682381839731728, 25.328376778611464, 46.110432603100485, 59.75186451904878, 173.949157174101, 319.92310624692607, 10000, 20000, 684.9708939408573, 530.5207689533472, 404.52671340802226, 180.8347441025785, 0, 20.471668216982508, 89.01713760873614, 221.63406887035944, 746.3864956338548, -8.807914626446216, -36.648253632448885, 0.002671235733476664, 5.446553784093461, 74.79567519643402}

67 / 166

[]float64{5.942491771082191, -23.027548476154106, -39.329004428312246, -70.63533674648139, -145.10150913711746, -278.0602656086402, -520.6619055330991, -100000, -1.9339334081484831, 25.328376778611464, 46.110432603100485, 59.94323744593993, 176.3541240693042, 319.92310624692607, 10000, 20000, 692.0033492724124, 530.5207689533472, 407.66096154186624, 180.8347441025785, 0, 20.78624461909428, 86.6716169892851, 221.63406887035944, 753.8549028486553, -8.807914626446216, -37.31501281355652, 0.002671235733476664, 5.446553784093461, 74.79567519643402}

68 / 170

[]float64{5.50946025550871, -22.46565137939021, -39.329004428312246, -71.49796012567296, -142.10693724483693, -278.0602656086402, -520.6619055330991, -100000, -3.0474819612395585, 25.576690951210963, 46.948244216600365, 59.94323744593993, 178.76928868329261, 319.92310624692607, 10000, 20000, 692.0033492724124, 530.5207689533472, 406.63179899709445, 180.8347441025785, 0, 20.78624461909428, 87.64880636967062, 224.51271852183288, 753.8549028486553, -8.837110033875703, -36.710215239646246, 0.002671235733476664, 5.36169683008077, 73.7605471119148}

69 / 172

[]float64{6.5358987259826495, -22.46565137939021, -39.329004428312246, -73.21698590750798, -142.10693724483693, -278.0602656086402, -520.6619055330991, -100000, -3.0474819612395585, 25.576690951210963, 46.948244216600365, 59.94323744593993, 174.4410095264359, 319.92310624692607, 10000, 20000, 692.0033492724124, 536.7039599201653, 406.63179899709445, 180.8347441025785, 0, 20.290285782467322, 87.64880636967062, 224.51271852183288, 753.8549028486553, -8.837110033875703, -36.710215239646246, 0.0026088381138150924, 5.370254122467791, 73.08321428797602}

70 / 174

[]float64{7.715812720954994, -22.46565137939021, -39.329004428312246, -73.21698590750798, -142.10693724483693, -277.81181590764146, -520.6619055330991, -100000, -2.4383490713421883, 24.388289054878356, 47.18372242305027, 59.94323744593993, 174.4410095264359, 319.92310624692607, 10000, 20000, 692.0033492724124, 536.7039599201653, 406.63179899709445, 178.43902208427846, 0, 20.23141786224538, 86.5114984144087, 224.51271852183288, 760.0419604262277, -8.882209106553272, -36.12816986184371, 0.0026088381138150924, 5.370254122467791, 71.88685903670131}

71 / 176

[]float64{7.729407796329122, -23.553442547582726, -39.329004428312246, -73.21698590750798, -142.53081011675388, -277.81181590764146, -523.1803055295827, -100000, -2.4383490713421883, 24.388289054878356, 47.18372242305027, 59.94323744593993, 174.4410095264359, 324.3079853877775, 10000, 20000, 692.0033492724124, 536.7039599201653, 407.1616866350406, 181.9920502910844, 0, 19.77610102736022, 85.38013682202764, 224.51271852183288, 776.2784211544262, -8.882209106553272, -35.75060949856096, 0.0025952161666203642, 5.370254122467791, 73.38024133967751}

72 / 178

[]float64{6.713358344466405, -23.306235794563474, -39.265385808839326, -71.60715230928011, -142.53081011675388, -277.36149886603437, -507.09070355769416, -100000, -1.7477874523152122, 24.388289054878356, 47.18372242305027, 59.530443481945596, 174.4410095264359, 317.9547395184428, 10000, 20000, 686.9965827953231, 536.7039599201653, 409.6308126693002, 181.9920502910844, 0, 19.77610102736022, 85.38013682202764, 224.51271852183288, 786.4442182062855, -8.882209106553272, -35.75060949856096, 0.0025952161666203642, 5.370254122467791, 73.38024133967751}

73 / 179

[]float64{-0.809308586412053, -20.80992860246264, -39.53973239686991, -81.50246863507586, -155.93079444027765, -289.23796777428583, -614.5346962394407, -100000, 0, 32.30082505350642, 45.12214408862102, 65.14518898379325, 153.47743985780994, 404.94547448990204, 10000, 20000, 593.2071579546782, 506.1123687112676, 344.8402195215042, 193.3146552434639, 0, 19.077561948722284, 98.2862020188589, 221.37865757089907, 612.5365342926455, -9.800679880630113, -36.56318419931988, 0.002582788992910993, 5.499683329184533, 72.91389999925025}

1 / 1

[]float64{-0.809308586412053, -20.80992860246264, -38.42843426872501, -81.50246863507586, -155.93079444027765, -289.23796777428583, -607.5142938700934, -100000, 0, 32.30082505350642, 44.38687384488199, 67.14428402533386, 150.59658443477403, 404.94547448990204, 10000, 20000, 593.2071579546782, 506.1123687112676, 344.8402195215042, 193.3146552434639, 0, 19.150807464030017, 98.2862020188589, 222.69084652992294, 612.5365342926455, -9.800679880630113, -36.56318419931988, 0.002582788992910993, 5.439791223160336, 73.14403920709682}

2 / 3

[]float64{7.894222221577839, -22.49317566510978, -39.265385808839326, -70.05241276225317, -142.95608677174482, -273.38293375919795, -521.5957444538801, -100000, -1.7088011571822397, 24.388289054878356, 47.18372242305027, 59.530443481945596, 178.2471417553583, 325.8515862405483, 10000, 20000, 679.3191925713244, 545.1512131323389, 409.6308126693002, 179.0490613815134, 0, 19.77610102736022, 85.38013682202764, 224.51271852183288, 783.6842378180404, -8.926141248188904, -36.194670573706176, 0.0025952161666203642, 5.3948469272545605, 72.8962061601777}

1 / 2

[]float64{7.6160871103532495, -22.49317566510978, -40.448249045562044, -69.89583401009733, -140.99255016166637, -273.38293375919795, -521.5957444538801, -100000, -1.2387063486426635, 24.388289054878356, 47.18372242305027, 57.94704094108981, 174.23785188028114, 316.4815616964564, 10000, 20000, 679.3191925713244, 545.1512131323389, 409.6308126693002, 176.80642780136364, 0, 19.77610102736022, 85.38013682202764, 224.51271852183288, 776.542630640096, -9.056758469225613, -36.194670573706176, 0.0025952161666203642, 5.38386340578564, 73.10584693211956}

2 / 4

[]float64{7.6160871103532495, -22.49317566510978, -40.28678965062352, -68.73261181043667, -138.13277695090437, -273.38293375919795, -521.5957444538801, -100000, -1.2387063486426635, 24.388289054878356, 46.01815951354616, 57.84174832596278, 174.23785188028114, 316.4082400697823, 10000, 20000, 693.560244560704, 540.1942776055578, 406.74673928625805, 176.80642780136364, 0, 19.77610102736022, 87.73110522138779, 228.62198032426375, 763.3132662442476, -9.056758469225613, -35.71465550885907, 0.0025952161666203642, 5.459344450839526, 72.61916765783526}

3 / 5

[]float64{8.331789815024392, -22.49317566510978, -40.28678965062352, -68.73261181043667, -138.13277695090437, -268.10992917083877, -521.5957444538801, -100000, -1.2387063486426635, 25.145303699514443, 45.234838589097556, 57.84174832596278, 174.23785188028114, 316.4082400697823, 10000, 20000, 704.4097568234326, 540.1942776055578, 413.23185997048506, 176.80642780136364, 0, 19.77610102736022, 86.5523629267878, 228.62198032426375, 763.7061402212717, -9.059108703183048, -35.71465550885907, 0.0026393814217415042, 5.405657708888449, 72.85855786284111}

4 / 8

[]float64{8.388394180730742, -21.536703538636573, -40.28678965062352, -68.73261181043667, -139.15988920781626, -268.10992917083877, -521.5957444538801, -100000, -1.2387063486426635, 25.145303699514443, 45.075457492185464, 57.84174832596278, 174.23785188028114, 307.60860477544577, 10000, 20000, 718.6035531353646, 545.9140906836053, 413.988065407125, 176.80642780136364, 0, 19.77610102736022, 88.28698269127287, 228.62198032426375, 747.0568104762826, -9.059108703183048, -35.822102725384, 0.00261409969587985, 5.377214509094578, 71.93141840595311}

5 / 9

[]float64{8.508486274791991, -21.536703538636573, -40.21416605588737, -70.28748456325764, -137.14677217140996, -262.1918295657512, -521.5957444538801, -100000, -1.2387063486426635, 25.145303699514443, 45.075457492185464, 59.00028256664551, 172.41725192531808, 300.9497579422693, 10000, 20000, 718.6035531353646, 542.5926252119298, 416.3737112291248, 178.09941987194676, 0, 19.934391004051704, 88.28698269127287, 232.8500165467051, 747.0568104762826, -8.994840435406065, -35.822102725384, 0.00261409969587985, 5.373580077095193, 72.98955434913393}

6 / 10

[]float64{9.288073906429268, -20.990237652717056, -40.21416605588737, -69.77519851390184, -137.14677217140996, -262.1918295657512, -521.5957444538801, -100000, -1.2387063486426635, 25.145303699514443, 44.90752720882841, 59.00028256664551, 172.41725192531808, 300.9497579422693, 10000, 20000, 718.6035531353646, 552.1044899216622, 413.39495947434966, 181.64514935019452, 0, 19.750842496308415, 88.28698269127287, 227.87517464467192, 747.0568104762826, -9.000974446881148, -35.822102725384, 0.002659979643640129, 5.373580077095193, 72.07116723472589}

7 / 13

[]float64{8.484636651285642, -20.990237652717056, -40.21416605588737, -69.77519851390184, -135.8428236452467, -262.1918295657512, -529.8105491541442, -100000, -1.2387063486426635, 25.145303699514443, 44.621730489381925, 59.00028256664551, 176.5693241488957, 300.9497579422693, 10000, 20000, 718.6035531353646, 562.6310542311251, 413.39495947434966, 181.64514935019452, 0, 19.59132216931058, 89.93605639291866, 224.4551276490178, 750.3384161885893, -9.000974446881148, -35.20353577372818, 0.002659979643640129, 5.373580077095193, 72.07116723472589}

8 / 14

[]float64{7.437505117940485, -20.990237652717056, -40.21416605588737, -69.77519851390184, -135.8428236452467, -267.480846416497, -545.6788077965512, -100000, -1.2387063486426635, 24.505546706897867, 44.621730489381925, 61.238736523986525, 176.71965134696987, 293.07840388341145, 10000, 20000, 718.6035531353646, 562.6310542311251, 408.56754451991355, 181.64514935019452, 0, 20.043226544666645, 89.93605639291866, 224.4551276490178, 738.2908060341631, -9.000974446881148, -35.20062404625786, 0.002659979643640129, 5.386034413033312, 72.07116723472589}

9 / 17

[]float64{7.437505117940485, -20.990237652717056, -40.21416605588737, -69.23610287307255, -132.8137329796886, -267.480846416497, -545.6788077965512, -100000, -1.0241569711070224, 24.20339532822756, 43.81120304645506, 61.238736523986525, 176.71965134696987, 293.07840388341145, 10000, 20000, 718.6035531353646, 562.6310542311251, 408.56754451991355, 184.44750278684563, 0, 20.535054366662216, 90.32041202022717, 224.4551276490178, 745.6194822367563, -8.819049893447499, -35.20062404625786, 0.002659979643640129, 5.27896878275812, 72.07116723472589}

10 / 18

[]float64{7.437505117940485, -19.765730569259482, -40.21416605588737, -68.35384288844463, -132.8137329796886, -267.480846416497, -545.6788077965512, -100000, -1.0241569711070224, 24.20339532822756, 42.636164551238565, 61.68110698513881, 177.4699864171845, 287.2860103049912, 10000, 20000, 706.9918701366087, 562.7681822086857, 408.56754451991355, 180.99748848381807, 0, 20.535054366662216, 90.32041202022717, 226.71499616943032, 745.6194822367563, -8.9385758323629, -34.78191409051006, 0.00267102548135123, 5.205710045949234, 72.07116723472589}

11 / 21

[]float64{6.9212573506400314, -18.556475044452576, -40.21416605588737, -67.90692634938509, -132.35980596496702, -263.012011190737, -545.6788077965512, -100000, -1.0241569711070224, 23.891376741310374, 43.180171705360614, 61.89657142989502, 177.4699864171845, 287.2860103049912, 10000, 20000, 714.1311782628159, 562.7681822086857, 415.14611366587053, 180.99748848381807, 0, 20.535054366662216, 90.32041202022717, 223.32549852736506, 744.2993251314164, -8.9385758323629, -34.78191409051006, 0.0026385777392411314, 5.205710045949234, 72.39351681816763}

12 / 26

[]float64{6.9212573506400314, -19.640538631657375, -39.74361912859111, -67.90692634938509, -130.4294183488666, -256.6390488314993, -545.1081050153252, -100000, -1.8482023900101334, 23.891376741310374, 44.0897379118686, 61.89657142989502, 179.6515530520884, 287.2860103049912, 10000, 20000, 714.1311782628159, 562.7681822086857, 420.80169514917714, 180.99748848381807, 0, 20.535054366662216, 90.32041202022717, 222.53501257427052, 726.9405717183308, -9.052869037982866, -34.78191409051006, 0.0026385777392411314, 5.205710045949234, 72.78514691135962}

13 / 30

[]float64{6.9212573506400314, -19.640538631657375, -40.79583317107962, -67.90692634938509, -130.4294183488666, -256.6390488314993, -544.5107231426256, -100000, -1.5518131368357069, 24.4879549767185, 45.10921130232255, 60.97511939220064, 179.6515530520884, 278.5783788844037, 10000, 20000, 714.1311782628159, 565.9537576953771, 415.8297845704974, 180.38069635829373, 0, 20.535054366662216, 92.40957304186722, 226.6430402908656, 737.8045735065615, -8.928817416604339, -34.92953837926039, 0.0026613742377307606, 5.316397336775606, 74.2200250137264}

14 / 34

[]float64{5.712312407818293, -19.640538631657375, -40.79583317107962, -67.90692634938509, -127.0753557503881, -256.55408201319347, -542.0146989935104, -100000, -0.8830360616352068, 24.4879549767185, 45.10921130232255, 58.57950605334561, 179.27660803285897, 278.5783788844037, 10000, 20000, 714.1311782628159, 565.3567582102855, 415.8297845704974, 177.62109816770254, 0, 20.793719705712043, 92.40957304186722, 228.51391984337965, 751.9837845611933, -8.850049556599336, -34.92953837926039, 0.002601704147811812, 5.239693553724573, 74.1489639710354}

15 / 37

[]float64{5.712312407818293, -19.640538631657375, -40.214753730838986, -67.90692634938509, -127.0753557503881, -256.55408201319347, -539.971529872, -100000, -0.8830360616352068, 24.38799921192183, 44.095048852473525, 58.57950605334561, 179.27660803285897, 278.15992667923194, 10000, 20000, 714.1311782628159, 569.2111133392864, 419.1257911641868, 177.62109816770254, 0, 20.43766297179057, 92.42934417584765, 228.51391984337965, 734.2805454204743, -8.979542073559593, -34.58620756426688, 0.002601704147811812, 5.307176811935095, 75.4743441421021}

16 / 46

[]float64{6.885079921694171, -20.76554643542935, -40.253938360747114, -67.90692634938509, -126.2708706455494, -256.55408201319347, -550.2051716960386, -100000, -0.8830360616352068, 24.38799921192183, 44.095048852473525, 57.722141699210056, 180.9738203898254, 284.9236942259929, 10000, 20000, 707.1014437343656, 560.4916363231496, 419.1257911641868, 177.62109816770254, 0, 20.43766297179057, 93.43757150487076, 228.51391984337965, 734.2805454204743, -8.979542073559593, -34.58620756426688, 0.0026734120168454894, 5.190049837179453, 74.05523861545439}

17 / 48

[]float64{8.058051380367125, -20.76554643542935, -40.253938360747114, -69.08027023439786, -125.82535326957759, -256.55408201319347, -550.2051716960386, -100000, -0.29862097151371303, 23.800069231068655, 44.095048852473525, 57.722141699210056, 181.60352331628383, 284.8361033680149, 10000, 20000, 707.1014437343656, 553.2923406040145, 414.8757130233921, 177.62109816770254, 0, 20.43766297179057, 95.7016905747992, 228.51391984337965, 734.2805454204743, -8.857150221813875, -34.58620756426688, 0.0026734120168454894, 5.190049837179453, 74.05523861545439}

18 / 49

[]float64{7.2549313887379725, -20.233304853848672, -40.253938360747114, -67.81286605048433, -125.82535326957759, -256.55408201319347, -551.7421014321105, -100000, -1.132279501377199, 23.800069231068655, 44.095048852473525, 55.42286612366006, 177.41508742123065, 284.94599162670863, 10000, 20000, 699.2991603011567, 553.2923406040145, 420.5356194875126, 180.18798927401417, 0, 20.543386239889323, 95.7016905747992, 226.08998876923948, 749.1578763635532, -9.030586603608793, -34.800041270372205, 0.0026803169671497235, 5.190049837179453, 74.05523861545439}

19 / 53

[]float64{7.2549313887379725, -19.393202592996772, -40.253938360747114, -67.81286605048433, -124.8196840960326, -256.55408201319347, -551.7421014321105, -100000, -1.3034029494448052, 24.776847784700227, 44.16719074615334, 57.711992299025084, 175.98831161630224, 279.52887138071884, 10000, 20000, 699.2991603011567, 553.2923406040145, 415.87649672359777, 179.31710728216382, 0, 20.738729258439022, 95.35851927346488, 227.94026632908995, 759.2454155085637, -9.030586603608793, -34.800041270372205, 0.0026803169671497235, 5.190049837179453, 72.95162084208864}

20 / 54

[]float64{7.2549313887379725, -18.22061944188383, -40.253938360747114, -67.81286605048433, -125.65536374280256, -262.91455747260784, -556.1176821898057, -100000, -1.3034029494448052, 24.776847784700227, 44.16719074615334, 57.401948249299, 175.98831161630224, 279.52887138071884, 10000, 20000, 699.2991603011567, 554.0787881049688, 415.87649672359777, 176.9483666338673, 0, 20.738729258439022, 95.35851927346488, 224.3714077959121, 748.7543749394604, -9.030586603608793, -34.800041270372205, 0.0026803169671497235, 5.132300086906795, 72.95162084208864}

21 / 60

[]float64{8.122525744139962, -19.237205814501326, -40.253938360747114, -68.64136337372713, -125.65536374280256, -265.6284886352239, -556.1176821898057, -100000, -1.3034029494448052, 25.796148647902506, 44.16719074615334, 57.99516360865114, 172.0024138985063, 285.83480006483796, 10000, 20000, 691.4904294990665, 554.0787881049688, 422.85730796328176, 173.28308580271943, 0, 20.804395711836897, 97.56368666910491, 227.7979889528021, 752.4155794231477, -9.030586603608793, -34.800041270372205, 0.0026803169671497235, 5.119472321408983, 73.7524450403912}

22 / 63

[]float64{8.122525744139962, -19.237205814501326, -40.481917931700714, -66.90384904042699, -127.98788667691716, -259.10479192014725, -556.1176821898057, -100000, -0.07139875621100833, 25.847719740814213, 44.7209656267857, 57.60846845541768, 172.0024138985063, 284.6013080900565, 10000, 20000, 698.5798978772766, 554.0787881049688, 422.85730796328176, 173.28308580271943, 0, 21.09957488085721, 97.56368666910491, 227.7979889528021, 752.4155794231477, -8.931063544919617, -34.800041270372205, 0.002661129844808495, 5.119472321408983, 73.7524450403912}

23 / 64

[]float64{8.122525744139962, -19.237205814501326, -39.57768431438327, -67.75954127577177, -130.82307566511173, -259.10479192014725, -556.1176821898057, -100000, -0.2686060771577952, 25.847719740814213, 44.32499696612371, 57.60846845541768, 172.0024138985063, 284.6013080900565, 10000, 20000, 698.5798978772766, 554.0787881049688, 418.3149887647077, 170.71401589183483, 0, 21.09957488085721, 97.56368666910491, 227.7979889528021, 735.9501927817919, -8.886305081205098, -34.800041270372205, 0.002661129844808495, 5.119472321408983, 73.7524450403912}

24 / 68

[]float64{8.550052936138382, -18.302467236427518, -39.57768431438327, -68.46508632024756, -134.2862940078876, -261.55428434153737, -539.5343640087078, -100000, 0.7835000240872378, 24.64643322375703, 44.32499696612371, 59.059154016466245, 170.38674775657307, 284.6013080900565, 10000, 20000, 698.5798978772766, 554.0787881049688, 418.1016402221746, 169.37914288156736, 0, 21.09957488085721, 97.56368666910491, 225.957339498059, 741.3948366623968, -8.886305081205098, -34.800041270372205, 0.002661129844808495, 5.119472321408983, 73.7524450403912}

25 / 69

[]float64{9.765546199438774, -18.302467236427518, -40.16099502779947, -68.51607589375335, -138.25173229272818, -255.4165800796531, -527.3151696794373, -100000, 1.311857857647241, 24.959975694692446, 44.776061239532154, 59.059154016466245, 165.87723317290067, 284.6013080900565, 10000, 20000, 706.318129592006, 554.0787881049688, 418.1016402221746, 169.37914288156736, 0, 21.102587400934397, 97.56368666910491, 224.86188848016823, 739.009363977808, -8.714235078167448, -34.800041270372205, 0.0026568258077108164, 5.119472321408983, 73.7524450403912}

26 / 71

[]float64{10.955256294231184, -18.40275678165407, -40.16099502779947, -68.51607589375335, -138.25173229272818, -255.4165800796531, -529.0937808932438, -100000, 0.19631393089141458, 23.922213051874415, 45.33533269290018, 57.55301324331496, 166.61789247177234, 284.6013080900565, 10000, 20000, 706.318129592006, 554.0787881049688, 423.89520058990263, 168.53876073767992, 0, 21.08961858630431, 95.80008991382917, 224.76217471691177, 739.009363977808, -8.714235078167448, -34.87905490329156, 0.0026568258077108164, 5.119472321408983, 73.7524450403912}

27 / 72

[]float64{10.955256294231184, -18.40275678165407, -41.24261200230427, -68.51607589375335, -140.63070632428557, -255.4165800796531, -529.0937808932438, -100000, -0.7808747507166272, 23.922213051874415, 45.847119804452674, 57.55301324331496, 166.61789247177234, 277.87638333183213, 10000, 20000, 699.2447675684255, 554.0787881049688, 423.89520058990263, 168.53876073767992, 0, 21.08961858630431, 94.6564347903038, 224.76217471691177, 739.009363977808, -8.714235078167448, -34.87905490329156, 0.0026027524438104787, 5.135973688599773, 73.7524450403912}

28 / 77

[]float64{10.696986789248802, -19.56915671151157, -40.79468654560525, -68.51607589375335, -140.63070632428557, -256.2563594322538, -529.0937808932438, -100000, -2.0261060838951006, 23.922213051874415, 45.021422565618, 56.803984597497745, 166.61789247177234, 287.4744981634317, 10000, 20000, 699.2447675684255, 562.759542850189, 422.13368789698785, 168.53876073767992, 0, 20.685962909612506, 94.6564347903038, 225.14912089832728, 739.009363977808, -8.714235078167448, -34.35822793828673, 0.0026027524438104787, 5.016755273198359, 73.7524450403912}

29 / 80

[]float64{9.72613816835667, -19.794151177947565, -40.79468654560525, -68.51607589375335, -140.63070632428557, -256.2563594322538, -529.0937808932438, -100000, -2.0261060838951006, 24.238090322513067, 45.82160842631994, 56.803984597497745, 166.61789247177234, 287.4744981634317, 10000, 20000, 699.2447675684255, 562.759542850189, 424.1472354446412, 168.53876073767992, 0, 20.71699814680672, 94.6564347903038, 229.11743959421, 741.2780127341321, -8.714235078167448, -34.35822793828673, 0.0025541331365089882, 5.016755273198359, 73.53374027875364}

30 / 83

[]float64{9.72613816835667, -19.794151177947565, -41.5781782600762, -69.01630420569217, -140.63070632428557, -256.2563594322538, -529.0937808932438, -100000, -2.0261060838951006, 23.648361698345383, 46.91297319508281, 55.28630157147509, 166.61789247177234, 287.4744981634317, 10000, 20000, 699.2447675684255, 562.759542850189, 427.72497244374034, 168.13550234327658, 0, 20.71699814680672, 94.6564347903038, 229.11743959421, 741.2780127341321, -8.93998727428204, -33.967831526125764, 0.0024922516239604432, 5.016755273198359, 73.82724818130951}

31 / 84

[]float64{10.25503859951626, -19.794151177947565, -41.5781782600762, -69.56711061155482, -140.63070632428557, -248.26715943891267, -532.0744801624802, -100000, -2.0261060838951006, 23.648361698345383, 46.91297319508281, 55.87000236768275, 166.61789247177234, 287.4744981634317, 10000, 20000, 699.2447675684255, 562.759542850189, 427.72497244374034, 169.65233503173351, 0, 20.71699814680672, 93.18863544953962, 229.11743959421, 741.2780127341321, -8.778926939882712, -33.967831526125764, 0.002491578928383911, 5.016755273198359, 74.41614806848091}

32 / 89

[]float64{10.25503859951626, -19.794151177947565, -41.5781782600762, -69.56711061155482, -143.36089365749507, -241.3701542467806, -532.0744801624802, -100000, -2.6436712132034716, 23.648361698345383, 47.75639247546029, 54.56315065018835, 166.61789247177234, 287.4744981634317, 10000, 20000, 699.2447675684255, 562.759542850189, 427.72497244374034, 169.65233503173351, 0, 20.71699814680672, 92.50888125971106, 229.11743959421, 751.2303456032546, -8.956971638987694, -33.967831526125764, 0.0025597903511157885, 5.016755273198359, 74.41614806848091}

33 / 90

[]float64{11.23038108962515, -19.794151177947565, -40.60980920755439, -69.56711061155482, -143.64050896418027, -241.66837335957408, -532.0744801624802, -100000, -1.5613161587568813, 22.99105988839979, 47.75639247546029, 54.56315065018835, 167.78537669891574, 287.4744981634317, 10000, 20000, 699.2447675684255, 562.759542850189, 423.7363282662134, 171.41790450946104, 0, 20.860185844248363, 92.50888125971106, 228.9766468821551, 751.2303456032546, -9.19464902276601, -33.967831526125764, 0.0025371396390756833, 5.016755273198359, 74.41614806848091}

34 / 92

[]float64{11.0146858523681, -18.93875041757539, -40.60980920755439, -69.56711061155482, -146.77143719911186, -241.66837335957408, -522.5408022824679, -100000, -1.319943549096666, 23.93690473935782, 47.75639247546029, 56.855642401047916, 166.4362432742892, 287.4744981634317, 10000, 20000, 699.2447675684255, 562.3638406836295, 425.32276380449184, 173.28174225797505, 0, 20.839211491098713, 90.82929761684076, 225.4239739219226, 759.4841510098377, -9.19464902276601, -33.967831526125764, 0.0025890369955537257, 5.016755273198359, 73.94377522711689}

35 / 93

[]float64{11.0146858523681, -18.283934154874622, -40.36650452326214, -71.32425187590434, -146.77143719911186, -241.66837335957408, -528.5091745624488, -100000, -1.319943549096666, 23.93690473935782, 47.75639247546029, 56.855642401047916, 166.4362432742892, 294.66915340018477, 10000, 20000, 702.4268690167582, 563.3377288386619, 431.12113921259134, 173.28174225797505, 0, 20.69376688811571, 90.82929761684076, 221.81498061612035, 773.4265577182532, -9.403917510507767, -34.66906441012415, 0.0025890369955537257, 5.016755273198359, 72.61470837050393}

36 / 95

[]float64{11.0146858523681, -18.283934154874622, -40.697772740567046, -70.9161037193224, -147.60462138628364, -240.935219263534, -528.5091745624488, -100000, -1.319943549096666, 23.93690473935782, 47.77867470313836, 56.855642401047916, 168.05866115759778, 290.85192739950475, 10000, 20000, 713.4152308525012, 574.3703364162666, 431.12113921259134, 173.28174225797505, 0, 20.69376688811571, 93.081406091941, 221.81498061612035, 780.5167672721701, -9.403917510507767, -34.28007813146198, 0.0025890369955537257, 5.016755273198359, 72.61470837050393}

37 / 97

[]float64{10.499484253789465, -17.38927874746127, -40.697772740567046, -70.9161037193224, -144.92109125127433, -240.935219263534, -542.2234878854554, -100000, -1.319943549096666, 24.35928500718326, 47.86908432827819, 54.78341263743756, 168.05866115759778, 297.952008877348, 10000, 20000, 713.4152308525012, 574.3703364162666, 426.79922582324605, 173.28174225797505, 0, 20.69376688811571, 92.17545918403952, 221.81498061612035, 796.4025314730911, -9.639889647565893, -34.38512390037725, 0.0025890369955537257, 5.070370227268299, 72.61470837050393}

38 / 99

[]float64{10.499484253789465, -17.38927874746127, -41.490585255323566, -70.9161037193224, -145.49938829346706, -240.935219263534, -544.5664726905568, -100000, -1.319943549096666, 24.35928500718326, 46.9685658250055, 54.78341263743756, 171.39365530172188, 293.1325353502693, 10000, 20000, 713.4152308525012, 574.3703364162666, 422.7629056446259, 175.1268011096611, 0, 20.69376688811571, 92.01639926267647, 219.66674708526034, 796.4025314730911, -9.584537117820773, -34.38512390037725, 0.0025656201699761393, 5.108283577116582, 73.6493627195367}

39 / 100

[]float64{9.713457748021492, -16.90571379554715, -41.490585255323566, -71.67013837477975, -147.37895546137497, -240.935219263534, -544.5664726905568, -100000, -1.7767306152670654, 24.35928500718326, 46.9685658250055, 56.94275650342516, 172.9495220103243, 289.82833687651777, 10000, 20000, 721.0937567630008, 574.3703364162666, 422.7629056446259, 173.02062365169292, 0, 20.90325635534898, 93.80692609229904, 224.55346566116407, 794.7829979768798, -9.584537117820773, -34.38512390037725, 0.0025926906876908907, 5.108283577116582, 73.6493627195367}

40 / 101

[]float64{9.713457748021492, -16.90571379554715, -42.253811941779205, -71.03763754948044, -145.55884056195103, -234.41842771868772, -528.1724019136595, -100000, -1.881748940796007, 24.35928500718326, 46.64507216191073, 56.94275650342516, 172.9495220103243, 289.82833687651777, 10000, 20000, 715.8988951033523, 580.4450414697374, 422.66879101701954, 172.40220961680026, 0, 20.90325635534898, 93.80692609229904, 224.55346566116407, 789.6552104631451, -9.56755910469132, -34.38512390037725, 0.0026080001279319863, 5.108283577116582, 72.32835963189626}

41 / 102

[]float64{9.713457748021492, -15.746926851911173, -41.492661656221436, -70.750552646974, -145.55884056195103, -233.51568440650274, -528.1724019136595, -100000, -1.4478499768293016, 24.35928500718326, 46.64507216191073, 57.61725114437497, 172.9495220103243, 289.82833687651777, 10000, 20000, 708.8103876823534, 580.4450414697374, 419.81958968654266, 174.55386622323607, 0, 20.90325635534898, 93.80692609229904, 226.6682020227525, 789.6552104631451, -9.56755910469132, -34.38512390037725, 0.0026080001279319863, 5.108283577116582, 72.32835963189626}

42 / 104

[]float64{9.37152691481565, -15.360992745278768, -40.252119591636955, -70.750552646974, -145.55884056195103, -241.43527508999887, -535.1444518421761, -100000, -1.1114198622020555, 24.35928500718326, 46.64507216191073, 58.68030975300591, 172.9495220103243, 282.7468240103966, 10000, 20000, 708.8103876823534, 580.4450414697374, 427.1384968659436, 170.81382347296528, 0, 20.749782311459583, 93.80692609229904, 226.6682020227525, 789.6552104631451, -9.56755910469132, -34.34670700605375, 0.0026080001279319863, 5.108283577116582, 72.81974454509945}

43 / 106

[]float64{9.80328186468384, -15.161425174093154, -40.252119591636955, -70.750552646974, -142.778584188656, -241.43527508999887, -535.1444518421761, -100000, 0.015414048678664027, 24.35928500718326, 46.64507216191073, 58.68030975300591, 172.9495220103243, 282.7468240103966, 10000, 20000, 721.6494246245356, 571.706184306538, 427.1384968659436, 172.73909253082968, 0, 20.74785114273665, 93.80692609229904, 226.6682020227525, 789.6552104631451, -9.786661391370245, -34.34670700605375, 0.0026080001279319863, 5.081348592425127, 72.81974454509945}

44 / 107

[]float64{9.067594961213155, -14.737180562492602, -40.102430370456496, -70.72811437660079, -146.0430398359007, -236.46591848046313, -520.7177441614634, -100000, 0.34868371099795836, 23.26320364805924, 46.64507216191073, 58.68030975300591, 173.15670059071985, 282.7468240103966, 10000, 20000, 708.8290863571399, 571.706184306538, 427.1384968659436, 169.12954002482311, 0, 20.74785114273665, 96.09378274552449, 226.6682020227525, 789.6552104631451, -9.786661391370245, -34.34670700605375, 0.002613205397705433, 5.081348592425127, 72.81974454509945}

45 / 108

[]float64{9.067594961213155, -14.737180562492602, -40.102430370456496, -70.72811437660079, -145.16462950558764, -236.46591848046313, -520.7177441614634, -100000, 0.34868371099795836, 23.26320364805924, 46.64507216191073, 57.79629254006207, 173.15670059071985, 280.5220868847904, 10000, 20000, 708.8290863571399, 571.706184306538, 425.61524466902864, 165.90834464361723, 0, 20.74785114273665, 96.09378274552449, 226.6682020227525, 789.6552104631451, -9.786661391370245, -34.77334877478929, 0.002580033724575668, 5.081348592425127, 72.81974454509945}

46 / 111

[]float64{9.067594961213155, -14.937636035469001, -39.993126266682296, -71.36988358176825, -145.16462950558764, -238.85493814791096, -520.7177441614634, -100000, -0.5737728078586597, 22.04601776337829, 46.64507216191073, 57.79629254006207, 173.15670059071985, 280.93736842403985, 10000, 20000, 708.1127802102255, 560.6431923980218, 425.61524466902864, 165.90834464361723, 0, 20.74785114273665, 96.09378274552449, 227.10909250455262, 806.649688596608, -9.786661391370245, -34.980140919741274, 0.002580033724575668, 5.189475254511779, 71.9114372361112}

47 / 113

[]float64{8.52243845666591, -15.41706549791683, -39.993126266682296, -71.36988358176825, -143.37416797041067, -238.85493814791096, -520.7177441614634, -100000, -0.8864956916903942, 22.04601776337829, 46.237449310636066, 55.32338163587039, 173.15670059071985, 277.34890533946475, 10000, 20000, 708.1127802102255, 560.6431923980218, 418.5731916055171, 162.68003997940085, 0, 20.74785114273665, 97.04675335297154, 227.10909250455262, 804.8860860370766, -9.673045546908678, -35.697480558803775, 0.0025553210084518834, 5.189475254511779, 71.9114372361112}

48 / 115

[]float64{8.218939103073625, -15.41706549791683, -39.993126266682296, -71.36988358176825, -143.37416797041067, -240.07703131055638, -520.7177441614634, -100000, -0.8864956916903942, 22.04601776337829, 47.074495889651516, 55.096611223994756, 170.66525915926803, 275.04554100840437, 10000, 20000, 713.3171517067307, 560.6431923980218, 422.7620393595356, 160.98384037651743, 0, 20.810154367887698, 97.04675335297154, 222.72217368973716, 804.8860860370766, -9.673045546908678, -35.697480558803775, 0.0025553210084518834, 5.189475254511779, 71.1234307838017}

49 / 116

[]float64{8.218939103073625, -16.179283141104214, -39.993126266682296, -71.36988358176825, -140.94347917794914, -240.07703131055638, -511.13717539719244, -100000, -0.8864956916903942, 22.04601776337829, 47.074495889651516, 55.096611223994756, 172.3953726888214, 275.04554100840437, 10000, 20000, 720.02705154, 565.6879788023846, 422.7620393595356, 160.98384037651743, 0, 20.502092863767714, 98.26689974851365, 219.57383158404178, 814.9975096565853, -9.786580544599019, -35.697480558803775, 0.002546531005181837, 5.189475254511779, 72.05561713144985}

50 / 117

[]float64{8.218939103073625, -16.179283141104214, -39.993126266682296, -71.36988358176825, -139.67321227497467, -240.07703131055638, -511.13717539719244, -100000, -0.8864956916903942, 21.97985276933248, 47.074495889651516, 56.441782269084996, 173.96690310921502, 275.04554100840437, 10000, 20000, 720.02705154, 554.7882108511545, 425.5332911783893, 160.98384037651743, 0, 20.356030691847366, 98.26689974851365, 219.57383158404178, 806.9534468925676, -9.786580544599019, -35.14914296711591, 0.0025166851477952754, 5.162062180285395, 72.05561713144985}

51 / 119

[]float64{7.423336969997155, -15.790261050660957, -39.993126266682296, -71.36988358176825, -139.67321227497467, -240.07703131055638, -511.13717539719244, -100000, -0.8864956916903942, 21.97985276933248, 47.074495889651516, 58.52201226428449, 173.96690310921502, 275.04554100840437, 10000, 20000, 711.9763332963511, 558.7611615062372, 423.2022831548744, 164.27198636438067, 0, 20.356030691847366, 97.81314677266978, 219.57383158404178, 806.9534468925676, -10.01031213950888, -35.107562512501474, 0.0024986917148362812, 5.280497144970068, 73.28409800276408}

52 / 120

[]float64{7.423336969997155, -14.566468305949197, -39.993126266682296, -69.50217066416977, -139.67321227497467, -245.3517345124948, -517.2851805858202, -100000, -0.8864956916903942, 21.97985276933248, 47.49782959393757, 56.506509116035666, 173.96690310921502, 281.8465262473803, 10000, 20000, 713.0058596089716, 558.7611615062372, 428.93219714375437, 164.27198636438067, 0, 20.356030691847366, 100.0859946958914, 220.3162970018643, 806.9534468925676, -10.01031213950888, -35.107562512501474, 0.0024986917148362812, 5.280497144970068, 73.15116493720325}

53 / 121

[]float64{6.6556307273352004, -14.566468305949197, -39.433205251679055, -68.91708692652689, -139.67321227497467, -245.3517345124948, -526.6045240739638, -100000, -1.5993282664745427, 22.443166194775735, 47.49782959393757, 56.506509116035666, 173.96690310921502, 281.8465262473803, 10000, 20000, 713.0058596089716, 558.7611615062372, 426.45001648969327, 164.27198636438067, 0, 20.356030691847366, 100.0859946958914, 220.3162970018643, 806.9534468925676, -9.848965172821524, -35.107562512501474, 0.002533333756775907, 5.188452233592834, 73.15116493720325}

54 / 127

[]float64{6.6556307273352004, -15.300764473940124, -39.433205251679055, -70.54902249005566, -136.22216508193333, -250.07643109094607, -531.7064400374848, -100000, -1.5993282664745427, 22.443166194775735, 48.44330697423183, 54.78527510974814, 169.04731997462918, 273.0987959250515, 10000, 20000, 725.7118197667709, 558.7611615062372, 432.4983743234533, 164.27198636438067, 0, 20.116304359664323, 100.0859946958914, 224.25659912197335, 806.9534468925676, -9.848965172821524, -35.107562512501474, 0.002533333756775907, 5.147449283652913, 73.15116493720325}

55 / 131

[]float64{6.6556307273352004, -15.300764473940124, -39.433205251679055, -68.71309514962905, -136.8523860719066, -251.8766232463201, -531.7064400374848, -100000, -1.5993282664745427, 22.443166194775735, 47.246015221250296, 53.93198347062285, 166.86369977320294, 273.0987959250515, 10000, 20000, 721.6884483726084, 558.7611615062372, 432.4983743234533, 167.46584819312164, 0, 20.455895837389953, 100.0859946958914, 222.9834194578368, 797.4072293332254, -9.848965172821524, -35.107562512501474, 0.0024994439284237724, 5.147449283652913, 74.39397620702306}

56 / 132

[]float64{6.6556307273352004, -14.675869008650329, -39.57922551555839, -68.77474914860528, -136.8523860719066, -254.32557293047225, -529.0037761707151, -100000, -1.5993282664745427, 21.398830211573372, 46.55632634572463, 53.93198347062285, 164.22953489775597, 273.0987959250515, 10000, 20000, 721.6884483726084, 568.5487657746261, 432.4983743234533, 168.10896117518763, 0, 20.455895837389953, 98.27922503925063, 221.5095188803459, 784.4004387612297, -9.616936124684058, -34.62752064687389, 0.0024994439284237724, 5.147449283652913, 74.59814334672754}

57 / 133

[]float64{6.6556307273352004, -14.675869008650329, -39.57922551555839, -68.77474914860528, -136.72261889662246, -257.0252999252806, -529.0037761707151, -100000, -1.5993282664745427, 22.596606670073683, 47.79387484667376, 54.59890335687861, 164.22953489775597, 271.30564011343427, 10000, 20000, 721.6884483726084, 568.5487657746261, 432.4983743234533, 166.8402879483044, 0, 20.238084995792562, 98.27922503925063, 221.5095188803459, 784.4004387612297, -9.797424968519945, -34.62752064687389, 0.0024834640277834087, 5.147449283652913, 74.59814334672754}

58 / 134

[]float64{6.6556307273352004, -13.631875394820067, -39.57922551555839, -68.77474914860528, -136.72261889662246, -257.0252999252806, -529.0037761707151, -100000, -1.5993282664745427, 22.596606670073683, 47.0418072626177, 52.18309522005341, 166.01070886270722, 273.0175829106417, 10000, 20000, 730.5928328808102, 573.6696438352592, 436.7300145857074, 166.8402879483044, 0, 20.238084995792562, 98.27922503925063, 224.47868518792538, 798.0078151085474, -9.797424968519945, -34.62752064687389, 0.0024834640277834087, 5.027711758041657, 74.59814334672754}

59 / 135

[]float64{7.16144148802133, -13.631875394820067, -39.57922551555839, -68.77474914860528, -135.56847990178545, -251.82738580232993, -529.0037761707151, -100000, -2.835483982115912, 22.596606670073683, 47.0418072626177, 51.795553526842, 168.09564896793768, 273.0175829106417, 10000, 20000, 730.5928328808102, 573.6696438352592, 430.6167019646263, 166.8402879483044, 0, 19.87639529955022, 98.27922503925063, 228.72365733882933, 798.0078151085474, -9.797424968519945, -34.62752064687389, 0.0024491538069329054, 5.027711758041657, 74.59814334672754}

60 / 136

[]float64{7.16144148802133, -13.631875394820067, -40.3074237877091, -70.03595642327082, -135.56847990178545, -258.23818220048634, -535.4863868470354, -100000, -3.185135902576429, 21.658759464340203, 47.320535078877384, 51.02943552563845, 170.47789820000492, 268.186869519779, 10000, 20000, 730.5928328808102, 569.6434327536715, 429.26702584050696, 166.8402879483044, 0, 20.131555941641565, 97.51396707157863, 228.98209667846248, 779.6215025069159, -9.797424968519945, -34.15078211660767, 0.002479452287625435, 4.923589943245272, 74.59814334672754}

61 / 138

[]float64{7.16144148802133, -12.482642375378376, -39.41790364470474, -70.03595642327082, -133.84573531521596, -254.51969745673938, -523.3764276164208, -100000, -3.185135902576429, 22.493285398781502, 46.19612836196841, 53.07974472887981, 173.32817828914352, 268.186869519779, 10000, 20000, 730.5928328808102, 572.0481239379926, 433.88279697961553, 167.19169138281532, 0, 19.857185833977553, 97.51396707157863, 226.41106674828876, 779.7239429411775, -9.657864717524914, -34.15078211660767, 0.002479452287625435, 4.895593362678454, 74.58174301842907}

62 / 140

[]float64{6.748618922790205, -12.797787217957566, -39.48748591935601, -68.81253418031181, -133.78699389775232, -254.51969745673938, -523.3764276164208, -100000, -3.185135902576429, 21.652538378972032, 46.19612836196841, 54.91361582119511, 173.4524065185838, 273.0816034197765, 10000, 20000, 730.5928328808102, 572.0481239379926, 426.6944195339049, 169.07700537232012, 0, 19.857185833977553, 97.51396707157863, 226.41106674828876, 796.9840226757826, -9.657864717524914, -34.15078211660767, 0.0024063729214616075, 5.013786640367975, 74.58174301842907}

63 / 141

[]float64{6.748618922790205, -12.829458731715302, -39.48748591935601, -68.81253418031181, -133.78699389775232, -248.0132673757085, -508.4780268543893, -100000, -3.185135902576429, 22.198642949031406, 46.19612836196841, 55.58312329976769, 173.4524065185838, 264.28469885147643, 10000, 20000, 730.5928328808102, 572.0481239379926, 431.9765651906217, 171.2839602077669, 0, 19.857185833977553, 98.68279450163799, 226.41106674828876, 796.9840226757826, -9.657864717524914, -34.45353484643822, 0.002430473453020842, 4.925996638045193, 74.69281684422515}

64 / 142

[]float64{5.710925750792686, -12.829458731715302, -39.48748591935601, -70.79323151753917, -133.78699389775232, -248.0132673757085, -522.967331273048, -100000, -3.185135902576429, 21.98189904138622, 47.43429598046018, 53.33794612039765, 174.2367244495298, 260.13557991138225, 10000, 20000, 730.5928328808102, 581.7315936621395, 431.9765651906217, 171.2839602077669, 0, 20.219849989224038, 98.68279450163799, 223.78967477395116, 811.5205558555548, -9.68919876556676, -34.45353484643822, 0.002430473453020842, 4.925996638045193, 75.23450354726722}

65 / 145

[]float64{4.511109073095336, -12.829458731715302, -38.97316339399988, -72.75376818900648, -136.5391109144129, -244.38380631695517, -535.6272118063382, -100000, -2.1345520980589727, 21.98189904138622, 46.557694645565455, 54.116250108361825, 174.2367244495298, 260.13557991138225, 10000, 20000, 730.5928328808102, 581.7315936621395, 431.9765651906217, 171.2839602077669, 0, 20.219849989224038, 98.68279450163799, 223.78967477395116, 799.5522759076491, -9.492403364211256, -34.722293854461775, 0.002430473453020842, 4.8520032129269985, 75.23450354726722}

66 / 146

[]float64{3.3627886585162026, -12.829458731715302, -38.14455861613966, -72.98416852473422, -139.5667410119729, -238.65938006597554, -546.2277853049227, -100000, -2.1345520980589727, 21.849213069588913, 46.557694645565455, 54.881584499581585, 176.13058903156207, 258.9811328286023, 10000, 20000, 731.0690779856745, 571.3753251462513, 424.662271647366, 170.90483235020923, 0, 19.73155334919472, 98.68279450163799, 226.20299455556207, 803.3235895900118, -9.537745643879783, -35.438817483553656, 0.0024674997584951644, 4.8520032129269985, 75.23450354726722}

67 / 148

[]float64{3.3627886585162026, -12.829458731715302, -38.14455861613966, -74.43038258175174, -138.4265279480339, -241.8542412229824, -537.6997367077895, -100000, -3.325622977219028, 23.091511494815727, 47.78555618109108, 54.881584499581585, 180.56230710785505, 266.79076668812183, 10000, 20000, 731.0690779856745, 571.3753251462513, 424.662271647366, 173.61952997548133, 0, 19.73155334919472, 98.68279450163799, 226.20299455556207, 803.3235895900118, -9.537745643879783, -35.438817483553656, 0.002424872437945899, 4.8520032129269985, 73.87522951525006}

68 / 150

[]float64{3.3627886585162026, -12.829458731715302, -38.14455861613966, -74.43038258175174, -138.4265279480339, -241.8542412229824, -537.6997367077895, -100000, -3.7664684654319434, 22.1651878584617, 48.09114273627967, 57.22432199446284, 180.56230710785505, 266.79076668812183, 10000, 20000, 726.1602868579148, 571.3753251462513, 424.662271647366, 176.00762360925938, 0, 19.4798429800313, 98.68279450163799, 229.7732473178847, 803.3235895900118, -9.481642473041523, -35.73555714673519, 0.002424872437945899, 4.839222559011873, 74.15114229044063}

69 / 157

[]float64{3.3627886585162026, -12.27846009723314, -38.14455861613966, -74.43038258175174, -135.68231632078206, -246.8102037369449, -537.6997367077895, -100000, -3.7664684654319434, 23.053251090505302, 46.875144816129016, 55.88066201098362, 180.56230710785505, 266.79076668812183, 10000, 20000, 713.8546308274815, 573.9728206357966, 424.662271647366, 172.26785708064529, 0, 19.4798429800313, 98.68279450163799, 230.72298006132502, 803.3235895900118, -9.481642473041523, -35.73555714673519, 0.0024103792641986107, 4.7293251289640965, 74.15114229044063}

70 / 158

[]float64{3.1100287324652998, -12.27846009723314, -38.14455861613966, -75.91159789148057, -132.71681790464385, -254.3004120412824, -537.6997367077895, -100000, -3.7664684654319434, 24.222842431717332, 47.8664985807078, 56.37637825731445, 180.56230710785505, 266.79076668812183, 10000, 20000, 713.8546308274815, 577.5839228614852, 427.3161362092832, 169.81732199031097, 0, 19.22001261474872, 97.43894408731828, 230.72298006132502, 803.3235895900118, -9.501049248653192, -35.73555714673519, 0.0024103792641986107, 4.737321428216872, 74.15114229044063}

71 / 159

[]float64{3.1100287324652998, -13.48939001124074, -38.14455861613966, -76.04365248456966, -132.71681790464385, -261.82187977706997, -537.6997367077895, -100000, -3.6163348763265084, 24.222842431717332, 48.52845229744164, 56.37637825731445, 176.9417205620652, 266.79076668812183, 10000, 20000, 717.126346786737, 576.6513841242993, 427.3161362092832, 166.5431847699357, 0, 19.490793626399537, 95.52398853199378, 235.13491639305136, 815.240132540494, -9.367461881412453, -35.99331565900698, 0.002367461428423368, 4.711480408050382, 74.15114229044063}

72 / 160

[]float64{3.56162249633211, -13.48939001124074, -38.14455861613966, -76.50835880228186, -134.0595410167175, -261.82187977706997, -546.9975508836665, -100000, -3.6163348763265084, 23.086341188914204, 47.29254207542886, 54.870274433353984, 176.9417205620652, 266.79076668812183, 10000, 20000, 718.9929462192388, 572.6583262986645, 427.3161362092832, 166.5431847699357, 0, 19.490793626399537, 95.52398853199378, 235.13491639305136, 800.2442715163537, -9.367461881412453, -36.519180533783775, 0.002367461428423368, 4.739845150831519, 74.15114229044063}

73 / 162

[]float64{2.4432782580654147, -13.383390734462644, -38.14455861613966, -76.50835880228186, -134.0595410167175, -261.82187977706997, -546.9975508836665, -100000, -3.6163348763265084, 23.086341188914204, 48.425931817358816, 56.57901703511919, 176.9417205620652, 264.8261399744885, 10000, 20000, 718.9929462192388, 573.7016538221833, 427.3161362092832, 165.38731109205355, 0, 19.798545689269663, 95.52398853199378, 235.13491639305136, 800.2442715163537, -9.367461881412453, -36.519180533783775, 0.0024410320594093196, 4.739845150831519, 73.29887501985364}

74 / 164

[]float64{2.4432782580654147, -13.383390734462644, -38.14455861613966, -77.33479367107992, -130.34755977063247, -261.9611629893003, -564.4176220158556, -100000, -2.5087514935077455, 23.086341188914204, 48.13243909957089, 55.56718244153025, 172.53948217712656, 266.80719754464485, 10000, 20000, 722.113100946851, 576.6562210313684, 427.3161362092832, 168.21366831654402, 0, 19.798545689269663, 94.73352535907678, 235.13491639305136, 808.1700823556529, -9.367461881412453, -35.96539972169052, 0.0024410320594093196, 4.739845150831519, 71.96605983008442}

75 / 166

[]float64{1.8094403280900058, -13.383390734462644, -38.14455861613966, -77.41719347837741, -128.03744012528188, -259.4430842399336, -566.6309952458518, -100000, -1.8457799085489182, 23.080923616437314, 49.31536705089891, 57.56690061750611, 172.53948217712656, 266.80719754464485, 10000, 20000, 722.113100946851, 576.6562210313684, 422.1777640357774, 168.21366831654402, 0, 20.20819756166889, 94.73352535907678, 234.81857539062304, 825.8552874688608, -9.428714712275202, -35.21775804963799, 0.0025102639187922667, 4.7034640069651505, 73.44923568879265}

76 / 173

[]float64{2.5908060664050954, -14.003200910582333, -38.14455861613966, -76.41468191210244, -128.03744012528188, -259.4430842399336, -566.6309952458518, -100000, -1.8457799085489182, 22.898059825933483, 48.86880894531668, 57.56690061750611, 176.79895156997037, 268.15567450745334, 10000, 20000, 736.4430496417501, 568.953176331477, 421.98854501208103, 165.25360609113716, 0, 20.610187347802032, 94.73352535907678, 234.81857539062304, 840.1359257875131, -9.428714712275202, -35.101458805711104, 0.0025357949427213013, 4.7034640069651505, 73.44923568879265}

77 / 176

[]float64{2.5908060664050954, -14.003200910582333, -38.14455861613966, -76.41468191210244, -130.34054066483498, -251.62606860981094, -553.4151336222692, -100000, -1.8457799085489182, 22.184324986843013, 49.568512858921856, 57.77027154388731, 177.4143705325224, 272.2192879102398, 10000, 20000, 736.4430496417501, 568.953176331477, 428.77612305853404, 162.76161347684175, 0, 20.16160189281769, 95.89795502704362, 234.81857539062304, 838.8483812620468, -9.461778810104427, -34.8811523064646, 0.0026043699580976234, 4.70420700510012, 73.41748964743206}

78 / 182

[]float64{2.004816139701642, -15.20527131029548, -37.340926270881674, -74.55868386625959, -132.4777157241055, -251.62606860981094, -545.2937118423283, -100000, -2.6944941496254597, 22.184324986843013, 49.568512858921856, 57.77027154388731, 175.8180755416326, 270.5567620362152, 10000, 20000, 742.89707993195, 569.165861174377, 428.77612305853404, 162.76161347684175, 0, 20.16160189281769, 95.89795502704362, 234.81857539062304, 847.275882655429, -9.687760123339336, -34.8811523064646, 0.0026043699580976234, 4.70420700510012, 73.41748964743206}

79 / 183

[]float64{2.004816139701642, -16.180488364679626, -37.340926270881674, -74.55868386625959, -132.4777157241055, -248.03536714482908, -533.9280368765882, -100000, -2.7904703015833103, 21.444579986567796, 50.57468173435254, 57.77027154388731, 172.3043485691223, 262.75309140731497, 10000, 20000, 734.2001950762431, 567.9425550960909, 428.77612305853404, 162.76161347684175, 0, 19.867009269015714, 95.89795502704362, 234.81857539062304, 845.8764307163541, -9.687760123339336, -34.58334820539683, 0.0026043699580976234, 4.70420700510012, 72.68758677525648}

80 / 187

[]float64{2.004816139701642, -16.180488364679626, -37.340926270881674, -73.3839748959507, -129.17189098286747, -251.73741986031695, -529.7104404852078, -100000, -3.4379005995284815, 21.444579986567796, 50.57468173435254, 57.77027154388731, 168.50811746814657, 272.3585300318546, 10000, 20000, 731.4669528041569, 567.9425550960909, 428.77612305853404, 163.94277953755176, 0, 19.867009269015714, 95.89795502704362, 234.81857539062304, 829.7786234228208, -9.687760123339336, -34.42783619725103, 0.0026043699580976234, 4.762084539073538, 72.68758677525648}

81 / 188

[]float64{2.004816139701642, -16.871815142108815, -38.449736187099916, -74.67462349713165, -129.17189098286747, -253.01366770208, -529.7104404852078, -100000, -4.226007139303896, 20.90261463873977, 50.1923773300734, 57.77027154388731, 165.41588687940106, 274.3379047971529, 10000, 20000, 718.8444951210374, 567.9425550960909, 423.1971885792116, 163.94277953755176, 0, 19.867009269015714, 95.89795502704362, 234.79101804240673, 829.7786234228208, -9.499911529906859, -34.42783619725103, 0.002603322902470683, 4.762084539073538, 72.68758677525648}

82 / 192

[]float64{2.004816139701642, -16.871815142108815, -39.14663993077311, -74.09367045376007, -125.42300363271022, -252.06422956854186, -546.4572474781547, -100000, -3.5649309649660728, 22.04501509476409, 50.1923773300734, 57.77027154388731, 165.41588687940106, 274.3379047971529, 10000, 20000, 718.8444951210374, 573.5791143350286, 423.1971885792116, 164.99782898721384, 0, 20.25415219054996, 93.79024262260535, 234.79101804240673, 820.4572583176486, -9.499911529906859, -34.460983041010365, 0.002603322902470683, 4.879270070426967, 72.68758677525648}

83 / 193

[]float64{2.004816139701642, -16.871815142108815, -39.14663993077311, -74.09367045376007, -125.42300363271022, -248.30358978411, -539.4175755759579, -100000, -3.5649309649660728, 22.04501509476409, 50.1923773300734, 57.77027154388731, 165.41588687940106, 274.3379047971529, 10000, 20000, 723.3985315489142, 573.5791143350286, 416.2646036110867, 164.99782898721384, 0, 20.008486411805603, 95.68112670938696, 234.79101804240673, 811.7637794273093, -9.499911529906859, -34.460983041010365, 0.002603322902470683, 4.879270070426967, 72.68758677525648}

84 / 194

[]float64{1.2783811959059412, -17.424560453391827, -40.3057152542585, -74.09367045376007, -125.42300363271022, -248.79897459872882, -539.4175755759579, -100000, -3.5649309649660728, 22.02785421111914, 48.993909701469235, 57.77027154388731, 163.5394593134741, 274.3379047971529, 10000, 20000, 722.1024530765787, 581.0378379623136, 420.0336152492612, 168.7296143025262, 0, 20.008486411805603, 95.68112670938696, 234.79101804240673, 827.0822535247239, -9.441646028392313, -33.92575322443692, 0.0025388900244390326, 4.879270070426967, 73.82763827049355}

85 / 196

[]float64{0.32088966251378404, -16.363260266981378, -39.896549788142934, -74.57758382435969, -125.42300363271022, -248.79897459872882, -530.2912377650832, -100000, -4.658865713554132, 22.02785421111914, 48.03948380905186, 58.06620640003672, 163.5394593134741, 274.3379047971529, 10000, 20000, 727.2582058096773, 581.0378379623136, 420.0336152492612, 168.7296143025262, 0, 20.008486411805603, 93.59081702454029, 236.83593876780347, 827.0822535247239, -9.545202112213897, -33.47010859931156, 0.0025177282414839447, 4.900686118244796, 73.43421908399668}

86 / 198

[]float64{1.0198954400275007, -16.363260266981378, -39.896549788142934, -74.57758382435969, -126.41296378831893, -244.22939237228974, -529.976992515622, -100000, -4.658865713554132, 21.233791188632914, 48.03948380905186, 58.06620640003672, 163.5394593134741, 274.3379047971529, 10000, 20000, 735.4063845961937, 581.0378379623136, 420.5114703869282, 168.7296143025262, 0, 20.008486411805603, 93.59081702454029, 239.56659244705133, 827.0822535247239, -9.513593478123322, -33.47010859931156, 0.0025177282414839447, 4.900686118244796, 73.43421908399668}

87 / 199

[]float64{1.0198954400275007, -15.80445508144258, -39.896549788142934, -74.57758382435969, -124.17793753413329, -242.95162281651582, -519.7542056743498, -100000, -4.054284670110614, 21.233791188632914, 48.03948380905186, 58.06620640003672, 163.5394593134741, 274.3379047971529, 10000, 20000, 735.4063845961937, 579.6203007977405, 415.920852403528, 168.7296143025262, 0, 19.878219860962005, 93.59081702454029, 239.56659244705133, 827.0822535247239, -9.513593478123322, -33.47010859931156, 0.0025177282414839447, 4.955137143743441, 73.43421908399668}

88 / 200

[]float64{-0.0017966343849071809, -15.80445508144258, -39.896549788142934, -73.05243695512576, -124.17793753413329, -242.95162281651582, -519.7542056743498, -100000, -4.054284670110614, 21.233791188632914, 48.03948380905186, 58.06620640003672, 161.45043853965404, 274.398574942265, 10000, 20000, 735.4063845961937, 579.6203007977405, 410.1113519540671, 168.7296143025262, 0, 19.86220854200495, 93.59081702454029, 243.21375390823096, 828.3668348571341, -9.513593478123322, -33.213335106044255, 0.0025177282414839447, 4.955137143743441, 73.43421908399668}

89 / 201

[]float64{-0.0017966343849071809, -15.80445508144258, -38.96271250298432, -74.7891383053603, -123.1711531708353, -242.95162281651582, -519.7542056743498, -100000, -4.054284670110614, 22.08747872467199, 48.03948380905186, 56.68149923316111, 157.36407675849625, 274.398574942265, 10000, 20000, 728.3943190969038, 577.9183415726662, 415.7569742996151, 168.7296143025262, 0, 19.86220854200495, 93.59081702454029, 243.21375390823096, 823.009760312932, -9.271670317921874, -33.06149870184359, 0.0025576563094773146, 4.955137143743441, 73.95154045053059}

90 / 202

[]float64{-0.0017966343849071809, -17.0164390814051, -38.28208488386453, -74.7891383053603, -127.16253460875933, -242.95162281651582, -519.7542056743498, -100000, -4.054284670110614, 22.544210735620553, 48.86448800958575, 57.67982859045398, 161.35905714047547, 274.398574942265, 10000, 20000, 730.0053902790751, 577.9183415726662, 415.7569742996151, 168.7296143025262, 0, 19.86220854200495, 93.11519687575077, 244.51651671487684, 823.009760312932, -9.48128801072929, -33.470379416127976, 0.0026145096917717155, 4.944054580241157, 72.78263905573698}

91 / 203

[]float64{-0.0017966343849071809, -16.264088904372958, -39.519519378234634, -74.7891383053603, -131.08060377541557, -242.95162281651582, -519.7542056743498, -100000, -4.582745681863713, 22.544210735620553, 48.86448800958575, 57.44088771080506, 161.35905714047547, 282.4702016172175, 10000, 20000, 730.357677256296, 568.6224700363721, 415.7569742996151, 166.56276100881317, 0, 19.966537155455384, 94.76589678151495, 244.51651671487684, 822.0174289054014, -9.626385465273454, -33.19227883595059, 0.0026145096917717155, 4.944054580241157, 72.78263905573698}

92 / 204

[]float64{-0.0017966343849071809, -15.817120919732513, -39.519519378234634, -74.5848032397531, -131.08060377541557, -248.31337513370022, -514.2907051415109, -100000, -4.582745681863713, 22.544210735620553, 48.86448800958575, 57.44088771080506, 160.39495711838214, 282.4702016172175, 10000, 20000, 730.357677256296, 577.0648174122559, 415.7569742996151, 168.87875499447563, 0, 19.966537155455384, 93.67542637258339, 239.72031398061364, 822.0174289054014, -9.626385465273454, -32.880377539209796, 0.0026145096917717155, 4.874519499584938, 71.30102627541939}

93 / 205

[]float64{-0.0017966343849071809, -16.374754889950985, -39.519519378234634, -74.5848032397531, -128.2399338186866, -245.54429568890387, -504.8916410150395, -100000, -4.582745681863713, 22.544210735620553, 48.3914085985308, 57.44088771080506, 159.1292703221127, 287.48422804181405, 10000, 20000, 730.357677256296, 577.0648174122559, 422.754840223182, 168.87875499447563, 0, 20.364285862336835, 93.29484784554417, 239.72031398061364, 822.0174289054014, -9.424555915809677, -33.52374284581279, 0.0026145096917717155, 4.874519499584938, 71.30102627541939}

1 / 1

[]float64{-0.0017966343849071809, -16.758583720067, -39.61863621704751, -74.5848032397531, -130.1033198424355, -245.54429568890387, -504.8916410150395, -100000, -5.046445525079156, 23.721343146011822, 49.23382045049627, 57.44088771080506, 159.1292703221127, 280.1025343647983, 10000, 20000, 719.1314593516859, 577.0648174122559, 421.9368210079964, 168.87875499447563, 0, 20.364285862336835, 93.34834006888882, 239.72031398061364, 822.0174289054014, -9.424555915809677, -33.52374284581279, 0.002684582399937856, 4.874519499584938, 71.30102627541939}

2 / 3

[]float64{-0.0017966343849071809, -17.68719440097455, -39.83985271288448, -73.73099977005013, -130.1033198424355, -243.05087919491666, -504.8916410150395, -100000, -4.704662578906048, 22.75291736514542, 49.23382045049627, 57.44088771080506, 159.14090698235594, 281.3764686898607, 10000, 20000, 720.3212596554703, 576.4711325218761, 424.824234404795, 168.87875499447563, 0, 20.364285862336835, 91.97388723986762, 239.72031398061364, 821.300327820725, -9.532992663671138, -33.52374284581279, 0.002684582399937856, 4.874519499584938, 71.30102627541939}

3 / 8

[]float64{0.14533134697898056, -18.86439521487739, -41.06363291678907, -74.75159574107298, -130.1033198424355, -242.87215303557053, -510.97332408544366, -100000, -5.350987781069432, 22.497964417315664, 49.23382045049627, 57.44088771080506, 163.53896871847746, 279.7262553026759, 10000, 20000, 720.3212596554703, 576.4711325218761, 417.90391213393787, 169.64337984597938, 0, 20.364285862336835, 94.02886193870968, 240.93670715811075, 821.300327820725, -9.532992663671138, -33.52374284581279, 0.0027464466884811437, 4.942670575289339, 71.01044250290403}

4 / 14

[]float64{-0.044511736001876745, -18.86439521487739, -41.06363291678907, -75.36077435419851, -131.3316961200326, -242.87215303557053, -521.1399227090787, -100000, -6.301187977623268, 22.8867924355862, 49.23382045049627, 57.44088771080506, 163.53896871847746, 279.7262553026759, 10000, 20000, 720.3212596554703, 584.2488042557054, 417.90391213393787, 169.64337984597938, 0, 20.364285862336835, 94.02886193870968, 240.93670715811075, 821.300327820725, -9.532992663671138, -33.52374284581279, 0.0027464466884811437, 5.03660903618504, 69.83920825982882}

5 / 17

[]float64{0.2884244729718184, -17.72352583133613, -41.06363291678907, -75.36077435419851, -131.3316961200326, -242.87215303557053, -537.9561510582789, -100000, -6.301187977623268, 22.8867924355862, 49.022349814774216, 57.44088771080506, 160.33099425528698, 279.7262553026759, 10000, 20000, 720.3212596554703, 584.2488042557054, 415.2890440691211, 170.46611950417565, 0, 20.364285862336835, 94.25505158999272, 238.8020622602682, 805.2160221784056, -9.532992663671138, -32.979880259719394, 0.0027464466884811437, 5.105776695271619, 71.18714226899655}

6 / 22

[]float64{0.2884244729718184, -17.123019354440125, -40.61757287220301, -77.22877389300896, -131.3316961200326, -242.87215303557053, -529.415405653556, -100000, -5.523496652168065, 22.8867924355862, 49.95112835897838, 59.51584816770796, 157.0701969469353, 279.7262553026759, 10000, 20000, 720.3212596554703, 584.2488042557054, 409.3300254132823, 170.46611950417565, 0, 20.527017750620335, 94.25505158999272, 234.08867540035567, 805.2160221784056, -9.532992663671138, -32.979880259719394, 0.0027004219549938546, 4.992765229286658, 71.18714226899655}

7 / 23

[]float64{0.2884244729718184, -16.133817860963063, -41.184770500786954, -77.22877389300896, -131.3316961200326, -243.36377927663398, -527.1715340903404, -100000, -5.523496652168065, 22.8867924355862, 50.47460256569059, 61.89209301754101, 154.32124704152437, 279.7262553026759, 10000, 20000, 720.3212596554703, 584.2488042557054, 409.3300254132823, 170.46611950417565, 0, 21.01936764096907, 94.63250598113675, 234.08867540035567, 805.2160221784056, -9.532992663671138, -32.51287066430365, 0.0027004219549938546, 5.031367204663914, 71.18714226899655}

8 / 24

[]float64{0.12751082538792516, -15.338992091070544, -41.184770500786954, -78.08109444316028, -131.3316961200326, -244.1963622062126, -527.1715340903404, -100000, -4.688401193609719, 22.8867924355862, 50.704292876486974, 61.397933658520174, 154.32124704152437, 279.7262553026759, 10000, 20000, 723.969032789184, 579.4178574769046, 409.3300254132823, 170.0801395255574, 0, 21.01936764096907, 92.2551419405505, 234.08867540035567, 805.2160221784056, -9.749942349988409, -33.14812490177083, 0.0027004219549938546, 5.031367204663914, 71.18714226899655}

9 / 27

[]float64{0.12751082538792516, -15.338992091070544, -41.184770500786954, -78.08109444316028, -127.69763058579098, -244.1963622062126, -527.1715340903404, -100000, -3.54862025322116, 22.8867924355862, 49.64706543989405, 61.397933658520174, 154.32124704152437, 279.7262553026759, 10000, 20000, 723.969032789184, 579.4178574769046, 409.3300254132823, 167.23035273087103, 0, 21.1912419424634, 93.25320262301622, 237.92964019122832, 805.2160221784056, -9.814585609033067, -33.14812490177083, 0.0027004219549938546, 5.031367204663914, 72.44495291327425}

10 / 28

