[]float64{0, -20.063605059374137, -38.40724439784404, -81.04865482763256, -155.93079444027765, -289.23796777428583, -614.5346962394407, -100000, -0.33198173490170363, 32.30082505350642, 45.12214408862102, 63.65228958095145, 156.60239035239982, 413.263468400728, 10000, 20000, 593.1800727247695, 506.1123687112676, 345.0440848316308, 194.76452676703917, 0, 19.236612098404986, 96.97850246009392, 220.72635150428636, 622.7686106201883, -9.802272592441636, -36.140661287621214, 0.0026062298923618093, 5.384702776327652, 72.91389999925025}

1 / 2

[]float64{-0.42555665064884257, -19.678199639252426, -38.40724439784404, -81.04865482763256, -155.93079444027765, -289.23796777428583, -614.5346962394407, -100000, -0.33198173490170363, 32.30082505350642, 45.12214408862102, 65.99397434475458, 156.60239035239982, 403.9753079761095, 10000, 20000, 593.1800727247695, 516.6182843713618, 349.6424743360949, 192.38888218977047, 0, 19.263295823620517, 96.97850246009392, 220.72635150428636, 622.7686106201883, -9.802272592441636, -36.88469161565256, 0.0026062298923618093, 5.384702776327652, 72.91389999925025}

2 / 3

[]float64{0.762674967346308, -19.468164676609703, -37.74233810049685, -79.46760187722802, -157.29711530357508, -285.6450867311287, -614.5346962394407, -100000, 0.6673989880414037, 32.30082505350642, 45.623097566126106, 67.05315816330992, 156.1549477925128, 403.9753079761095, 10000, 20000, 608.0892074048087, 516.6182843713618, 349.6424743360949, 192.38888218977047, 0, 19.399590821704138, 94.74430588184279, 220.72635150428636, 622.7686106201883, -9.802272592441636, -36.88469161565256, 0.0026062298923618093, 5.367383171216825, 72.91389999925025}

3 / 4

[]float64{0.762674967346308, -20.190974513076625, -37.74233810049685, -78.43570487726863, -157.29711530357508, -290.79917989381283, -614.5346962394407, -100000, 0.4842624242002319, 32.30082505350642, 45.79006883583082, 67.05315816330992, 156.1549477925128, 403.9753079761095, 10000, 20000, 608.0892074048087, 509.8108596885108, 348.04417335754874, 192.38888218977047, 0, 19.399590821704138, 93.75159880917002, 221.1261720227813, 622.7686106201883, -9.802272592441636, -36.66531843118749, 0.002589226558823442, 5.314203238381387, 72.91389999925025}

4 / 6

[]float64{1.9731310439477245, -20.05923639377972, -38.63536332739738, -78.43570487726863, -157.29711530357508, -290.79917989381283, -614.5346962394407, -100000, 0.4842624242002319, 32.30082505350642, 45.79006883583082, 67.05315816330992, 155.4503516107702, 403.9753079761095, 10000, 20000, 608.0892074048087, 509.8108596885108, 355.47093890775795, 189.11846287800205, 0, 19.232670028657076, 93.75159880917002, 218.85573273115438, 622.7686106201883, -9.802272592441636, -36.66531843118749, 0.002589226558823442, 5.420489806726458, 72.91389999925025}

5 / 7

[]float64{2.067964122638071, -19.103051635479538, -39.17898143940219, -78.43570487726863, -157.29711530357508, -291.67950799861535, -614.5346962394407, -100000, 0.4842624242002319, 31.925297068158038, 45.62138174748466, 67.05315816330992, 155.4503516107702, 403.9753079761095, 10000, 20000, 618.7997731142309, 501.9074881795864, 358.277516635089, 189.9416286304223, 0, 19.07754409106021, 93.75159880917002, 222.2634954286454, 639.31125965503, -9.868431043010064, -36.92500277619975, 0.0025891636822306, 5.408453584614631, 72.91389999925025}

6 / 12

[]float64{2.067964122638071, -19.103051635479538, -39.577263362930125, -77.89946950495948, -157.29711530357508, -293.56050687591596, -614.5346962394407, -100000, 0.21888763991649823, 32.479575205113875, 45.62138174748466, 65.6132785884634, 155.4503516107702, 403.9753079761095, 10000, 20000, 623.1738080304802, 501.9074881795864, 358.9117851946678, 189.9416286304223, 0, 18.989865824736114, 94.5878312609919, 222.2634954286454, 639.31125965503, -9.812687542779145, -36.99457551396759, 0.0025891636822306, 5.408453584614631, 72.91389999925025}

7 / 13

[]float64{1.8383036445504493, -18.044417562130327, -39.57671295832537, -77.89946950495948, -157.4469183229391, -293.56050687591596, -609.4682811424948, -100000, 0.21888763991649823, 32.479575205113875, 46.697489957450784, 63.51120111230413, 155.4503516107702, 398.88408819031304, 10000, 20000, 623.1738080304802, 495.87535493385553, 358.9117851946678, 191.48615033050152, 0, 18.787190362138666, 94.5878312609919, 220.75827077145902, 648.0133042686274, -9.812687542779145, -36.99457551396759, 0.002557183716680387, 5.408453584614631, 74.09597080542635}

8 / 14

[]float64{1.8286796461800086, -18.044417562130327, -38.60041220731364, -77.89946950495948, -158.6481970656307, -293.56050687591596, -609.4682811424948, -100000, -1.0253849117690292, 32.479575205113875, 47.62809897652839, 61.21333526749481, 160.36695680324988, 389.2023484376173, 10000, 20000, 623.1738080304802, 490.4205877790521, 357.948508247456, 191.48615033050152, 0, 18.787190362138666, 94.5878312609919, 220.75827077145902, 657.7161012438858, -9.806765176098565, -36.99457551396759, 0.002557183716680387, 5.514037099195518, 73.11924034029965}

9 / 15

[]float64{1.8286796461800086, -18.044417562130327, -38.60041220731364, -77.89946950495948, -157.14833160894833, -293.56050687591596, -609.4682811424948, -100000, -1.0253849117690292, 32.479575205113875, 47.62809897652839, 59.47230974011424, 162.0135283675664, 389.2023484376173, 10000, 20000, 623.1738080304802, 490.4205877790521, 357.948508247456, 191.48615033050152, 0, 18.787190362138666, 94.5878312609919, 221.86104343699304, 657.7161012438858, -9.616648545018116, -36.9579386462684, 0.002534382146122626, 5.4134695395945185, 71.97881476213749}

10 / 18

[]float64{1.778126938529943, -18.851932041987993, -38.706788030975794, -77.89946950495948, -157.14833160894833, -293.56050687591596, -609.4682811424948, -100000, -1.0253849117690292, 33.01082063992922, 46.648731413647816, 59.47230974011424, 162.0135283675664, 382.6313414643104, 10000, 20000, 623.1738080304802, 492.75234169366, 361.2488271843239, 191.48615033050152, 0, 19.184702417608218, 94.5878312609919, 216.91622022849043, 657.7161012438858, -9.844898037614307, -36.47484159606753, 0.002518026854095269, 5.464889926372457, 70.9541559212238}

11 / 28

[]float64{2.1383945001571174, -18.3759729670138, -38.706788030975794, -77.89946950495948, -155.4254469815449, -301.10406977388857, -598.6101525754314, -100000, -1.0253849117690292, 33.01082063992922, 46.07374002152088, 61.260147178432945, 158.75761149979593, 382.6313414643104, 10000, 20000, 623.1738080304802, 492.75234169366, 361.2488271843239, 191.8404319125048, 0, 19.184702417608218, 93.36605990120194, 216.91622022849043, 657.7161012438858, -9.844898037614307, -36.47484159606753, 0.0025331876693980146, 5.464889926372457, 70.9541559212238}

12 / 30

[]float64{3.324695514272636, -17.445832744683916, -38.706788030975794, -77.89946950495948, -155.4254469815449, -301.10406977388857, -598.6101525754314, -100000, -0.2975995550600894, 33.01082063992922, 46.07868576206991, 63.36464547441042, 153.93158953446067, 376.5281460357638, 10000, 20000, 614.1431847671847, 494.6848826580483, 361.2488271843239, 191.77030671447335, 0, 19.184702417608218, 93.36605990120194, 216.91622022849043, 657.7161012438858, -9.972664788599502, -36.47484159606753, 0.0025331876693980146, 5.356103302770034, 70.9541559212238}

13 / 31

[]float64{3.049591741916227, -17.445832744683916, -38.706788030975794, -77.89946950495948, -154.36688403582508, -301.10406977388857, -598.6101525754314, -100000, -0.2975995550600894, 32.84743110071321, 46.86766034575386, 61.58651529827037, 153.93158953446067, 369.8727842531617, 10000, 20000, 614.1431847671847, 494.6848826580483, 354.98089723143477, 191.87380452409667, 0, 19.184702417608218, 94.96715158198994, 218.01378106241035, 662.7933650821114, -9.929795484781645, -36.47484159606753, 0.0025331876693980146, 5.356103302770034, 70.9541559212238}

14 / 32

[]float64{4.1335431861698035, -17.98006729957109, -37.901489561359, -77.89946950495948, -150.46813363797463, -301.10406977388857, -592.7439825083495, -100000, -0.24938203563610212, 32.84743110071321, 46.383605593618796, 62.34320936093361, 154.00158858695136, 362.5396029851024, 10000, 20000, 605.7251465139752, 505.5570233752595, 361.56600609655095, 191.87380452409667, 0, 19.184702417608218, 94.96715158198994, 218.01378106241035, 674.1305944116656, -9.753589836914443, -36.40923613501579, 0.002588304201207337, 5.356103302770034, 70.9541559212238}

15 / 37

[]float64{3.8486742806667906, -17.98006729957109, -37.901489561359, -77.89946950495948, -150.46813363797463, -301.10406977388857, -579.7088564178882, -100000, -0.8147339876190272, 32.045163750285646, 47.55379686882677, 64.43813752767345, 154.00158858695136, 362.5396029851024, 10000, 20000, 605.7251465139752, 505.5570233752595, 367.6896288321973, 191.87380452409667, 0, 19.184702417608218, 94.96715158198994, 218.01378106241035, 657.9504432608135, -9.753589836914443, -36.40923613501579, 0.0025392680134428375, 5.356103302770034, 70.9541559212238}

16 / 39

[]float64{4.76317658493333, -17.87416478557884, -37.901489561359, -77.44957884555551, -152.36951499837573, -301.10406977388857, -579.7088564178882, -100000, -1.219126375691741, 32.045163750285646, 47.04679889480316, 66.37530128470641, 154.00158858695136, 362.5396029851024, 10000, 20000, 612.1158032235674, 506.7695847548464, 370.6856816741392, 194.87255929080442, 0, 19.184702417608218, 93.75113846555175, 219.98370611567464, 675.615385502033, -9.753589836914443, -36.40923613501579, 0.0025392680134428375, 5.356103302770034, 72.40825456996177}

17 / 44

[]float64{4.7545108611319655, -18.04944347404696, -37.901489561359, -77.44957884555551, -152.36951499837573, -301.10406977388857, -579.7088564178882, -100000, -1.219126375691741, 32.80487300333096, 47.04679889480316, 66.37530128470641, 153.6354936290379, 365.7693567454529, 10000, 20000, 619.755568346259, 506.7695847548464, 366.6532898215979, 194.41677631387188, 0, 19.297895958752463, 96.09472466595903, 222.33354363343818, 688.8303287540914, -9.753589836914443, -36.40923613501579, 0.0025496946042726154, 5.2321353338542265, 71.33717110889253}

18 / 49

[]float64{4.7545108611319655, -18.353307755531734, -39.03517065809491, -76.32684315581314, -150.10158158851613, -301.10406977388857, -575.0358961244995, -100000, -0.5431881535019643, 31.70075759203926, 47.04679889480316, 66.37530128470641, 158.5005374894561, 365.7693567454529, 10000, 20000, 619.755568346259, 506.7695847548464, 366.6532898215979, 196.3594025066024, 0, 19.51028901515062, 97.45841766875127, 219.5148676804356, 703.2401266898853, -9.753589836914443, -36.40923613501579, 0.0025163110881093894, 5.2321353338542265, 71.33717110889253}

19 / 50

[]float64{5.210348961240555, -17.216229278354895, -39.03517065809491, -76.2287126579713, -153.48670872158579, -299.0716977442826, -575.0358961244995, -100000, -0.5431881535019643, 31.70075759203926, 48.181377950335694, 68.35478460706989, 158.59408172961906, 359.24729934825183, 10000, 20000, 619.755568346259, 496.33447674358433, 366.6532898215979, 196.3594025066024, 0, 19.51028901515062, 98.83661919562375, 222.61567094078868, 703.2401266898853, -9.627468034198397, -36.96603782232819, 0.0025163110881093894, 5.233205868865516, 71.64066355102646}

20 / 52

[]float64{5.210348961240555, -17.216229278354895, -38.741296206755706, -76.2287126579713, -153.48670872158579, -299.0716977442826, -560.4160251672698, -100000, -0.29422722743189245, 31.913503259774167, 47.31720865045662, 68.35478460706989, 158.59408172961906, 359.24729934825183, 10000, 20000, 625.5257152516565, 496.33447674358433, 366.6532898215979, 196.3594025066024, 0, 19.01841437182146, 98.83661919562375, 218.2177158284208, 703.2401266898853, -9.557022373258983, -36.96603782232819, 0.0024883773821424674, 5.233205868865516, 71.64066355102646}

21 / 53

[]float64{5.268859365636532, -16.033061015338724, -38.741296206755706, -76.2287126579713, -150.95720844249615, -299.0716977442826, -565.671470544381, -100000, -0.29422722743189245, 31.913503259774167, 46.07490103373536, 68.35478460706989, 161.8749152461882, 363.2787983207671, 10000, 20000, 625.5257152516565, 496.33447674358433, 366.6532898215979, 196.3594025066024, 0, 19.142121462899844, 98.83661919562375, 222.88347280841558, 701.1474931093085, -9.557022373258983, -36.96603782232819, 0.0025624053605140043, 5.233205868865516, 72.72524646714287}

22 / 58

[]float64{4.04439052400505, -16.033061015338724, -39.53987166009935, -74.84749131623187, -150.95720844249615, -305.9439496319356, -565.671470544381, -100000, 0.7371984266397373, 31.885794548130256, 46.07490103373536, 69.22095546322481, 164.31299015011206, 363.2787983207671, 10000, 20000, 625.5257152516565, 496.33447674358433, 366.6532898215979, 196.3594025066024, 0, 19.142121462899844, 98.74129655525323, 221.63760574302393, 701.1474931093085, -9.557022373258983, -36.71503179260348, 0.0025624053605140043, 5.16678576284164, 72.87880997664499}

23 / 60

[]float64{4.04439052400505, -14.991358758897668, -39.527627547333, -75.89690145561624, -150.95720844249615, -305.9439496319356, -565.671470544381, -100000, 0.7371984266397373, 30.981172226931864, 45.088466214706095, 69.22095546322481, 164.31299015011206, 363.2787983207671, 10000, 20000, 625.5257152516565, 496.33447674358433, 368.10705525952847, 195.60615668865194, 0, 19.152594006633343, 101.05334334059553, 221.63760574302393, 691.6000737045231, -9.557022373258983, -36.71503179260348, 0.002619904964849762, 5.287217978523261, 72.98984509212926}

24 / 62

[]float64{4.04439052400505, -14.756522671776382, -39.527627547333, -74.76134257178865, -150.95720844249615, -305.9439496319356, -565.671470544381, -100000, 0.06318790482720482, 32.13658835843752, 45.088466214706095, 69.27199183954099, 164.31299015011206, 363.34960542894396, 10000, 20000, 618.7701982069036, 496.33447674358433, 370.1924021676199, 192.49717919542547, 0, 19.64612283860903, 102.0488713179426, 221.3758905372415, 691.6000737045231, -9.557022373258983, -36.71503179260348, 0.002551736073110394, 5.380082525625209, 73.94309576323877}

25 / 65

[]float64{3.1345667561730646, -14.756522671776382, -38.4001963884124, -73.95784948841195, -147.27250428357488, -299.5854638781616, -565.671470544381, -100000, 0.9202321197837687, 32.13658835843752, 45.088466214706095, 69.27199183954099, 164.31299015011206, 363.34960542894396, 10000, 20000, 618.7701982069036, 496.33447674358433, 370.1924021676199, 192.49717919542547, 0, 19.66410212251344, 103.10351418464815, 221.3758905372415, 686.6514349986496, -9.557022373258983, -36.71503179260348, 0.0026095463300684525, 5.418654080412628, 73.94309576323877}

26 / 66

[]float64{3.1345667561730646, -14.756522671776382, -38.34640107215063, -73.95784948841195, -148.14446811996757, -303.0872697283221, -579.7129496819648, -100000, 0.9202321197837687, 32.13658835843752, 45.417629401431896, 67.65015012283459, 168.44919882182813, 370.3470357035467, 10000, 20000, 618.7701982069036, 489.7313024811469, 376.768808147119, 190.88516538935153, 0, 19.66410212251344, 103.04477403749655, 220.4488386115119, 686.6514349986496, -9.688587928234853, -36.57139655523113, 0.002630839138473863, 5.298917225245928, 73.94309576323877}

27 / 67

[]float64{3.1345667561730646, -14.756522671776382, -38.34640107215063, -73.95784948841195, -148.14446811996757, -303.0872697283221, -579.7129496819648, -100000, -0.11024987786842105, 31.838139938112278, 45.417629401431896, 67.65015012283459, 168.44919882182813, 370.3470357035467, 10000, 20000, 618.7701982069036, 489.7313024811469, 376.768808147119, 187.33042541665566, 0, 19.33482092589746, 103.04477403749655, 220.4488386115119, 684.6115430908328, -9.709328995115687, -36.57139655523113, 0.002630839138473863, 5.34107873554087, 73.84086186795423}

28 / 69

[]float64{3.1345667561730646, -15.53437873517128, -38.61249908014418, -73.95784948841195, -149.83813003495953, -303.0872697283221, -579.7129496819648, -100000, 0.9049974134418655, 31.52517604271806, 45.417629401431896, 67.65015012283459, 171.13560919739746, 370.3470357035467, 10000, 20000, 618.7701982069036, 489.6476079135223, 376.768808147119, 187.33042541665566, 0, 19.33482092589746, 101.38887132311498, 219.59352997638592, 684.6115430908328, -9.709328995115687, -36.9176486762605, 0.002630839138473863, 5.34107873554087, 73.84086186795423}

29 / 72

[]float64{3.1345667561730646, -16.185982153377395, -38.61249908014418, -73.9238667215915, -149.83813003495953, -303.0872697283221, -594.2164657198266, -100000, 0.9049974134418655, 31.70944848154158, 45.417629401431896, 67.17858425199931, 171.13560919739746, 367.49009709203386, 10000, 20000, 623.1293369862394, 489.6476079135223, 381.5394047843428, 187.33042541665566, 0, 19.33482092589746, 101.38887132311498, 215.09881241912774, 675.7314272954214, -9.709328995115687, -36.24311013670049, 0.0026617848792789937, 5.242474952094042, 73.73766790416076}

30 / 76

[]float64{3.1356019934882617, -16.793995889033482, -38.61249908014418, -73.75542067145501, -149.83813003495953, -295.87393330187865, -594.2164657198266, -100000, 0.9049974134418655, 32.343803896341015, 45.417629401431896, 65.97686108712207, 171.13560919739746, 358.3136637203704, 10000, 20000, 636.1837741366077, 489.6476079135223, 381.5394047843428, 184.99580287990452, 0, 19.582883689102474, 103.33060917097156, 218.33855553974172, 675.7314272954214, -9.698552998745598, -36.7867568759459, 0.0027311720531708198, 5.3241796128755485, 73.73766790416076}

31 / 80

[]float64{2.940380924258856, -16.657330597104398, -39.55715791061739, -73.75542067145501, -149.83813003495953, -288.28021463119774, -597.242285285768, -100000, 0.9049974134418655, 32.343803896341015, 44.19319229962075, 67.41285508294138, 175.88982556038212, 358.3136637203704, 10000, 20000, 636.1837741366077, 489.6476079135223, 387.5794027822867, 184.99580287990452, 0, 19.582883689102474, 102.40804746805586, 219.57022986903223, 675.7314272954214, -9.598696942505114, -37.357094071339105, 0.0027134750221486535, 5.3241796128755485, 73.73766790416076}

32 / 85

[]float64{2.940380924258856, -16.657330597104398, -39.55715791061739, -73.75542067145501, -150.64960607182596, -288.28021463119774, -597.242285285768, -100000, 0.9049974134418655, 32.26082548867866, 44.19319229962075, 67.41285508294138, 175.88982556038212, 367.00874748837305, 10000, 20000, 636.1837741366077, 489.6476079135223, 384.4737460528704, 184.99580287990452, 0, 19.582883689102474, 101.00401600048792, 223.8833626853474, 664.7365281234528, -9.644803444188668, -36.81778726528563, 0.0027134750221486535, 5.40682331922266, 73.73766790416076}

33 / 87

[]float64{3.8854904306669757, -16.657330597104398, -39.33037036936131, -73.7792958894496, -150.64960607182596, -280.43546124679665, -597.242285285768, -100000, -0.027741997875831093, 32.26082548867866, 44.19319229962075, 69.45964180501159, 175.88982556038212, 367.00874748837305, 10000, 20000, 639.0742438723821, 485.68275059448763, 386.1280109186448, 182.28450097357404, 0, 20.0344591149485, 101.06369328786238, 219.1385004501942, 681.7521757863119, -9.644803444188668, -37.17568225105289, 0.002733321598955671, 5.40682331922266, 73.73766790416076}

34 / 88

[]float64{3.8854904306669757, -16.657330597104398, -39.33037036936131, -72.17090902333538, -151.10306104790686, -277.4561362497366, -589.5269765608182, -100000, -1.047696942212627, 32.402530184193964, 44.19319229962075, 68.82911788125091, 178.769877456552, 367.00874748837305, 10000, 20000, 646.1345394173748, 485.68275059448763, 386.1280109186448, 182.28450097357404, 0, 20.0344591149485, 101.06369328786238, 219.1385004501942, 665.0639662395731, -9.489264120384405, -36.749866729311435, 0.002733321598955671, 5.489300288097542, 73.5258439835914}

35 / 89

[]float64{3.0058195046878327, -16.657330597104398, -39.33037036936131, -72.17090902333538, -153.30464384954314, -277.4561362497366, -589.5269765608182, -100000, -0.5094776976695647, 32.402530184193964, 44.19319229962075, 66.82786779238242, 178.769877456552, 364.51419854484135, 10000, 20000, 646.9743164110669, 493.3603996384029, 386.1280109186448, 180.01094284550567, 0, 20.0344591149485, 101.06369328786238, 215.61197212735794, 665.0639662395731, -9.489264120384405, -36.35211097708462, 0.002733321598955671, 5.408508557760731, 73.433687130061}

36 / 94

[]float64{3.0058195046878327, -17.57485735988345, -39.01229211303834, -70.86106849241035, -149.7595825542187, -283.9124815099722, -580.0148200037604, -100000, -0.2944506025386198, 32.969969002990254, 44.38180551173636, 64.69041939034105, 175.3290422758479, 364.51419854484135, 10000, 20000, 646.9743164110669, 493.3603996384029, 386.1280109186448, 179.6566884008602, 0, 20.0344591149485, 101.06369328786238, 211.13443968155389, 675.6226307901468, -9.489264120384405, -36.29454110660329, 0.0027328235952703986, 5.355468456951341, 73.433687130061}

37 / 96

[]float64{3.0058195046878327, -17.587841017257198, -39.01229211303834, -70.86106849241035, -151.2405292353755, -283.9124815099722, -580.4888167540757, -100000, -1.1213012173981258, 32.969969002990254, 45.22713743640177, 64.69041939034105, 174.409852504882, 372.24776446200354, 10000, 20000, 657.2109859865634, 493.3603996384029, 384.9939360563876, 179.6566884008602, 0, 20.0344591149485, 99.79049617279742, 213.92538661992802, 689.7109664327504, -9.489264120384405, -36.59721386859336, 0.0027328235952703986, 5.355468456951341, 74.5908996074861}

38 / 98

[]float64{3.620343353599874, -17.635658927623084, -39.01229211303834, -70.86106849241035, -148.15585883801197, -289.23088974624966, -580.4888167540757, -100000, -1.1213012173981258, 32.79105767165869, 45.22713743640177, 64.69041939034105, 177.10698861105573, 372.24776446200354, 10000, 20000, 657.2109859865634, 494.5984174135475, 384.9939360563876, 177.48341366297407, 0, 20.0344591149485, 99.79049617279742, 213.92538661992802, 689.7109664327504, -9.285804043550922, -36.59721386859336, 0.0027328235952703986, 5.4589895693063095, 74.5908996074861}

39 / 101

[]float64{4.702217711683137, -17.635658927623084, -39.01229211303834, -70.3674554859097, -148.15585883801197, -285.07641454304337, -566.7582037287991, -100000, -1.1213012173981258, 32.79105767165869, 45.22713743640177, 63.2085074007224, 177.10698861105573, 372.24776446200354, 10000, 20000, 657.2109859865634, 494.5984174135475, 384.9939360563876, 177.48341366297407, 0, 20.0344591149485, 99.79049617279742, 213.92538661992802, 689.7109664327504, -9.285804043550922, -36.59721386859336, 0.0027328235952703986, 5.5284083080494355, 74.48475601837205}

40 / 103

[]float64{4.702217711683137, -17.635658927623084, -39.01229211303834, -69.64990761141209, -148.15585883801197, -285.07641454304337, -560.707496730608, -100000, -1.1213012173981258, 31.911370266650202, 45.18489391530606, 62.513033294915004, 179.5183925411382, 378.12968424713733, 10000, 20000, 654.0310139256792, 494.5984174135475, 383.7486962522603, 179.5565387313957, 0, 20.0344591149485, 97.37312691232034, 213.92538661992802, 675.778688215363, -9.285804043550922, -36.59721386859336, 0.0027824721088748933, 5.409900309468586, 74.14293995849738}

41 / 108

[]float64{4.702217711683137, -17.7785770605267, -39.01229211303834, -69.64990761141209, -145.29682965644542, -292.2972858649609, -562.6783340819514, -100000, -0.6793088886237781, 31.911370266650202, 45.18489391530606, 62.513033294915004, 179.5183925411382, 381.1119152656395, 10000, 20000, 663.2919974270271, 498.5064561167078, 383.7486962522603, 182.79707081743658, 0, 20.0344591149485, 97.37312691232034, 213.92538661992802, 691.9848574312111, -9.285804043550922, -36.46780160109023, 0.002713906323311195, 5.42031865192893, 73.6207658178679}

42 / 109

[]float64{4.702217711683137, -17.7785770605267, -38.0713176814588, -69.64990761141209, -145.29682965644542, -286.08202612076514, -558.382322463325, -100000, -1.4021365095312204, 31.911370266650202, 44.03427421206451, 60.2110036230547, 179.5183925411382, 375.50388994105873, 10000, 20000, 674.5431199722316, 499.5231790746165, 390.7539149158858, 184.5907848715816, 0, 20.0344591149485, 97.37312691232034, 209.922970513179, 691.9848574312111, -9.285804043550922, -36.46780160109023, 0.002734424828972393, 5.314019190107785, 73.6207658178679}

43 / 111

[]float64{4.702217711683137, -18.566902162796683, -38.86403733061458, -69.64990761141209, -145.29682965644542, -280.83361686038734, -558.382322463325, -100000, -1.8064248467948942, 30.694599393634135, 44.03427421206451, 62.43531509220924, 176.20304806388776, 381.06024686189903, 10000, 20000, 685.4875664504912, 499.5231790746165, 390.7539149158858, 181.57456160476767, 0, 20.114379031767065, 97.28671639246468, 214.564054496977, 691.9848574312111, -9.285804043550922, -36.15822644331406, 0.002734424828972393, 5.2970476610657045, 73.6207658178679}

44 / 116

[]float64{4.702217711683137, -18.566902162796683, -38.514053731010804, -69.64990761141209, -145.29682965644542, -280.83361686038734, -558.382322463325, -100000, -1.8064248467948942, 30.856080430031184, 44.58399032652679, 62.43531509220924, 171.92707350065848, 381.06024686189903, 10000, 20000, 685.4875664504912, 503.45035638978413, 390.7539149158858, 181.57456160476767, 0, 20.114379031767065, 97.28671639246468, 214.564054496977, 691.9848574312111, -9.285804043550922, -35.658101726904334, 0.0026636236445541496, 5.2900355494160785, 73.6207658178679}

45 / 118

[]float64{5.242765871451237, -19.022487201127493, -38.99747493362571, -69.63394558864164, -145.29682965644542, -280.83361686038734, -558.382322463325, -100000, -1.4205733667347062, 30.856080430031184, 45.12389726082011, 62.43531509220924, 171.92707350065848, 381.06024686189903, 10000, 20000, 690.5327143345294, 503.45035638978413, 390.7539149158858, 181.57456160476767, 0, 20.114379031767065, 98.37990209421872, 216.84418361133277, 698.5208381144821, -9.285804043550922, -35.85051821542546, 0.0026636236445541496, 5.2900355494160785, 73.6207658178679}

46 / 120

[]float64{4.041913849623759, -19.022487201127493, -38.65155785015119, -70.07912510752317, -141.29795619612685, -286.9767163278395, -558.382322463325, -100000, -0.9289713887275364, 29.909967848893434, 45.12389726082011, 64.16188715085522, 169.74722668957673, 381.06024686189903, 10000, 20000, 697.5298366150361, 503.45035638978413, 384.42798246748987, 181.57456160476767, 0, 20.550267092182793, 97.70303530482282, 216.84418361133277, 698.5208381144821, -9.285804043550922, -35.85051821542546, 0.0026213017050928144, 5.316001286941691, 73.6207658178679}

47 / 121

[]float64{2.799582462700943, -19.022487201127493, -38.82704012399498, -70.07912510752317, -141.29795619612685, -286.9767163278395, -559.7918759200492, -100000, -1.0712870490412711, 29.613455922156568, 45.12389726082011, 64.16188715085522, 169.74722668957673, 386.40705405808336, 10000, 20000, 688.934627183713, 514.1358160921902, 389.39947314408005, 181.57456160476767, 0, 20.19518162010081, 97.15962387088493, 216.84418361133277, 706.0149032608033, -9.285804043550922, -36.02408603795574, 0.002613013810251612, 5.270621712674181, 73.6207658178679}

48 / 124

[]float64{3.0502828690543553, -19.022487201127493, -38.82704012399498, -68.64292919156455, -139.73360155614162, -286.9767163278395, -555.3958626666479, -100000, -1.502642703638113, 29.191917293761442, 45.12389726082011, 63.18881160434883, 169.74722668957673, 386.40705405808336, 10000, 20000, 688.934627183713, 514.1358160921902, 391.07904069464234, 182.12648876888088, 0, 20.19518162010081, 94.7860228424523, 221.83449757408852, 706.0149032608033, -9.285804043550922, -36.02408603795574, 0.0026140645225005863, 5.324799647987401, 74.94636119962192}

49 / 125

[]float64{3.0502828690543553, -19.022487201127493, -39.93937879845531, -68.64292919156455, -139.33572493559612, -286.9767163278395, -571.2646524282695, -100000, -1.502642703638113, 29.191917293761442, 45.12389726082011, 63.18881160434883, 169.74722668957673, 377.662789212756, 10000, 20000, 677.927962457786, 514.1358160921902, 394.0745350896765, 182.12648876888088, 0, 20.576479428068126, 93.94467751134684, 221.83449757408852, 706.0149032608033, -9.285804043550922, -36.506201161353495, 0.0026140645225005863, 5.41227840082102, 73.87974455929873}

50 / 127

[]float64{4.143684562785075, -19.022487201127493, -38.98259373686156, -67.97471044217438, -143.1494576501745, -289.32908952584205, -571.2646524282695, -100000, -1.1008607046849095, 29.191917293761442, 45.38992299808275, 63.18881160434883, 169.74722668957673, 377.662789212756, 10000, 20000, 677.927962457786, 518.9650321499271, 394.0745350896765, 182.12648876888088, 0, 20.542089655175655, 95.7375549463515, 221.83449757408852, 706.0149032608033, -9.249326266319432, -36.506201161353495, 0.0025606058090710676, 5.41227840082102, 72.5485433907913}

51 / 131

[]float64{4.987925951072585, -19.022487201127493, -38.98259373686156, -68.91019669752154, -139.76455463502487, -285.8386380084073, -558.0563533211161, -100000, -0.7094419647182906, 28.012278999731613, 45.38992299808275, 63.18881160434883, 169.74722668957673, 371.33329684185253, 10000, 20000, 677.927962457786, 519.2082577977035, 392.308548681928, 180.93253221589953, 0, 20.58461173727224, 95.7375549463515, 221.83449757408852, 706.0149032608033, -9.00980759694685, -37.06796598631708, 0.0025641391301614233, 5.291050414310329, 73.5455993853242}

52 / 135

[]float64{4.402248709170092, -19.960641365981523, -38.30605600697107, -68.91019669752154, -139.76455463502487, -291.42082907142526, -558.0563533211161, -100000, 0.2914019480490213, 28.012278999731613, 45.38992299808275, 63.18881160434883, 166.0862905909313, 363.50516471818827, 10000, 20000, 677.927962457786, 519.2082577977035, 397.13723349535627, 180.93253221589953, 0, 20.58461173727224, 95.7375549463515, 221.83449757408852, 706.0149032608033, -9.00980759694685, -36.63869892782033, 0.002566723382659784, 5.291050414310329, 73.5455993853242}

53 / 137

[]float64{4.402248709170092, -19.960641365981523, -38.96021092582468, -68.91019669752154, -139.76455463502487, -291.42082907142526, -547.2485912996626, -100000, 0.2914019480490213, 28.012278999731613, 45.38992299808275, 64.0406948614923, 166.0862905909313, 370.87663122883123, 10000, 20000, 677.927962457786, 530.1744389921644, 397.13723349535627, 180.84906967445136, 0, 20.58461173727224, 93.81082433160898, 221.83449757408852, 706.0149032608033, -9.00220486357151, -36.63869892782033, 0.0025367825274826483, 5.180980215589393, 73.36459653785121}

54 / 140

[]float64{4.402248709170092, -21.048160627956932, -38.96021092582468, -69.1470835700127, -139.76455463502487, -291.42082907142526, -537.613734734656, -100000, -0.7651198821563423, 28.012278999731613, 46.62246466649447, 65.49683845865101, 164.7021707322004, 370.1379199494411, 10000, 20000, 677.927962457786, 533.6680398375167, 402.1759384203034, 183.55818560508314, 0, 20.58461173727224, 95.6264541273059, 221.83449757408852, 711.3287800290982, -8.822892927250557, -36.63869892782033, 0.002593235582133321, 5.180980215589393, 73.36459653785121}

55 / 141

[]float64{4.969430444192075, -21.048160627956932, -38.96021092582468, -67.28235686643279, -139.76455463502487, -297.1956145383481, -522.5029074201799, -100000, -0.7651198821563423, 28.012278999731613, 46.61930238979369, 65.49683845865101, 164.7021707322004, 364.3279159728103, 10000, 20000, 685.2813982905157, 523.4038378053725, 402.1759384203034, 183.09710731748186, 0, 20.860019837335685, 93.68831539650148, 221.83449757408852, 708.1131038815076, -8.8078538051514, -36.31560092439712, 0.002530724646560137, 5.180980215589393, 74.64926171847972}

56 / 142

[]float64{5.550125901636406, -21.048160627956932, -39.178632428450285, -67.76991109921357, -142.88777634827795, -297.1956145383481, -522.5029074201799, -100000, -0.6344642930490104, 28.012278999731613, 46.266951351207766, 64.69394464461242, 164.7021707322004, 356.034209946111, 10000, 20000, 685.2813982905157, 522.7912911354981, 402.1759384203034, 183.09710731748186, 0, 20.91645414415337, 94.66789732327418, 218.7937992376414, 692.0496100846414, -8.8078538051514, -36.230555382608415, 0.002530724646560137, 5.180980215589393, 74.64926171847972}

57 / 143

[]float64{5.550125901636406, -21.481986043341102, -39.607827921082844, -69.14668373527877, -140.14373033117718, -297.1956145383481, -538.6245734421077, -100000, -1.6939934274903439, 28.040806881229486, 46.266951351207766, 64.82659608662921, 168.5442852279629, 346.24485865328734, 10000, 20000, 671.4454762787464, 528.1794320978836, 402.1759384203034, 183.9461238226246, 0, 21.382044539660363, 94.66789732327418, 221.92080612678154, 708.5730019265811, -8.69457238011768, -36.050711210022556, 0.002530724646560137, 5.1549356836764115, 74.64926171847972}

58 / 146

[]float64{5.550125901636406, -22.555478508005372, -39.607827921082844, -69.14668373527877, -141.99133290938155, -297.1956145383481, -538.6245734421077, -100000, -1.6939934274903439, 27.2367271710065, 46.266951351207766, 64.82659608662921, 168.8104656975385, 340.94210376807155, 10000, 20000, 671.4454762787464, 528.1794320978836, 402.1759384203034, 183.9461238226246, 0, 21.382044539660363, 94.66789732327418, 221.04744449960697, 708.5730019265811, -8.69457238011768, -36.144074768464975, 0.002530724646560137, 5.198769516715908, 74.64926171847972}

59 / 150

[]float64{5.223521101585274, -22.555478508005372, -39.607827921082844, -69.14668373527877, -144.38968350527853, -299.65512084579314, -520.7963705209668, -100000, -2.6862643624334464, 27.2367271710065, 46.266951351207766, 64.37943367927947, 168.8104656975385, 340.94210376807155, 10000, 20000, 671.4454762787464, 528.1794320978836, 400.62919307806885, 183.9461238226246, 0, 21.438609096835876, 92.62254842598452, 217.1676622931331, 708.5730019265811, -8.666250640754093, -36.37514508840442, 0.0026012670020832537, 5.30876292282978, 73.94605997809364}

60 / 154

[]float64{4.852089600445909, -22.08685753264975, -39.607827921082844, -69.14668373527877, -144.38968350527853, -299.65512084579314, -520.7963705209668, -100000, -2.6862643624334464, 26.76384763506657, 47.12103394531593, 64.37943367927947, 166.98887737443334, 344.33220505967813, 10000, 20000, 670.4888301485446, 519.9064504640597, 400.62919307806885, 183.9461238226246, 0, 21.438609096835876, 91.08603342592559, 217.1676622931331, 696.0031226744775, -8.669044748417802, -36.37514508840442, 0.0026012670020832537, 5.2935486714478275, 73.94605997809364}

61 / 155

[]float64{4.9992881397415285, -22.08685753264975, -38.95998870220603, -69.14668373527877, -144.38968350527853, -299.65512084579314, -520.7963705209668, -100000, -2.6862643624334464, 26.833125375374006, 47.12103394531593, 64.67544179033317, 163.7932079945088, 344.33220505967813, 10000, 20000, 684.9708939408573, 519.9064504640597, 400.62919307806885, 183.9461238226246, 0, 20.99563049176146, 91.08603342592559, 221.63406887035944, 711.1473547124729, -8.483688662881722, -36.463599909379596, 0.0026012670020832537, 5.2935486714478275, 73.93696033960029}

62 / 156

[]float64{5.188373397145567, -22.06548901113232, -38.38966536379, -69.90982204025481, -141.7707195646191, -291.93476038554707, -512.4195938398911, -100000, -1.4961006614016295, 26.833125375374006, 47.12103394531593, 64.67544179033317, 163.7932079945088, 344.33220505967813, 10000, 20000, 684.9708939408573, 529.5608655659939, 403.9571239584884, 181.69606149901477, 0, 21.020449262752184, 90.73589467875553, 221.63406887035944, 711.1473547124729, -8.483688662881722, -36.21751789654466, 0.0026669318491488736, 5.2935486714478275, 73.54730489464637}

63 / 159

[]float64{5.188373397145567, -22.06548901113232, -38.11943096622482, -69.90982204025481, -142.7251958823976, -291.93476038554707, -520.6619055330991, -100000, -2.6370069721281113, 26.189523660773126, 47.12103394531593, 64.67544179033317, 167.0713935974867, 336.6647720999953, 10000, 20000, 684.9708939408573, 524.7939117724143, 403.9571239584884, 181.96710128674732, 0, 21.020449262752184, 90.73589467875553, 221.63406887035944, 726.7960488192764, -8.721199723784451, -36.21751789654466, 0.0026669318491488736, 5.341980486461933, 73.54730489464637}

64 / 160

[]float64{5.188373397145567, -23.027548476154106, -39.329004428312246, -69.90982204025481, -145.10150913711746, -285.0882664680154, -520.6619055330991, -100000, -2.6370069721281113, 25.328376778611464, 47.12103394531593, 62.22456069497519, 169.71874186956367, 336.6647720999953, 10000, 20000, 684.9708939408573, 524.7939117724143, 403.9571239584884, 181.0512855606961, 0, 20.70191210774213, 90.73589467875553, 221.63406887035944, 717.3816724619767, -8.721199723784451, -36.21751789654466, 0.002726760778177199, 5.353577849251968, 74.79567519643402}

65 / 163

[]float64{5.069043944416782, -23.027548476154106, -39.329004428312246, -70.5188371028658, -145.10150913711746, -278.0602656086402, -520.6619055330991, -100000, -1.5673789086625491, 25.328376778611464, 47.13954419973774, 59.75186451904878, 169.71874186956367, 329.0572832505288, 10000, 20000, 684.9708939408573, 524.7939117724143, 404.52671340802226, 180.8347441025785, 0, 20.870853310950267, 89.01713760873614, 221.63406887035944, 728.0072465463401, -8.777262083860517, -36.21751789654466, 0.002671235733476664, 5.446553784093461, 74.79567519643402}

66 / 165

[]float64{5.942491771082191, -23.027548476154106, -39.329004428312246, -70.5188371028658, -145.10150913711746, -278.0602656086402, -520.6619055330991, -100000, -1.6682381839731728, 25.328376778611464, 46.110432603100485, 59.75186451904878, 173.949157174101, 319.92310624692607, 10000, 20000, 684.9708939408573, 530.5207689533472, 404.52671340802226, 180.8347441025785, 0, 20.471668216982508, 89.01713760873614, 221.63406887035944, 746.3864956338548, -8.807914626446216, -36.648253632448885, 0.002671235733476664, 5.446553784093461, 74.79567519643402}

67 / 166

[]float64{5.942491771082191, -23.027548476154106, -39.329004428312246, -70.63533674648139, -145.10150913711746, -278.0602656086402, -520.6619055330991, -100000, -1.9339334081484831, 25.328376778611464, 46.110432603100485, 59.94323744593993, 176.3541240693042, 319.92310624692607, 10000, 20000, 692.0033492724124, 530.5207689533472, 407.66096154186624, 180.8347441025785, 0, 20.78624461909428, 86.6716169892851, 221.63406887035944, 753.8549028486553, -8.807914626446216, -37.31501281355652, 0.002671235733476664, 5.446553784093461, 74.79567519643402}

68 / 170

[]float64{5.50946025550871, -22.46565137939021, -39.329004428312246, -71.49796012567296, -142.10693724483693, -278.0602656086402, -520.6619055330991, -100000, -3.0474819612395585, 25.576690951210963, 46.948244216600365, 59.94323744593993, 178.76928868329261, 319.92310624692607, 10000, 20000, 692.0033492724124, 530.5207689533472, 406.63179899709445, 180.8347441025785, 0, 20.78624461909428, 87.64880636967062, 224.51271852183288, 753.8549028486553, -8.837110033875703, -36.710215239646246, 0.002671235733476664, 5.36169683008077, 73.7605471119148}

69 / 172

[]float64{6.5358987259826495, -22.46565137939021, -39.329004428312246, -73.21698590750798, -142.10693724483693, -278.0602656086402, -520.6619055330991, -100000, -3.0474819612395585, 25.576690951210963, 46.948244216600365, 59.94323744593993, 174.4410095264359, 319.92310624692607, 10000, 20000, 692.0033492724124, 536.7039599201653, 406.63179899709445, 180.8347441025785, 0, 20.290285782467322, 87.64880636967062, 224.51271852183288, 753.8549028486553, -8.837110033875703, -36.710215239646246, 0.0026088381138150924, 5.370254122467791, 73.08321428797602}

70 / 174

[]float64{7.715812720954994, -22.46565137939021, -39.329004428312246, -73.21698590750798, -142.10693724483693, -277.81181590764146, -520.6619055330991, -100000, -2.4383490713421883, 24.388289054878356, 47.18372242305027, 59.94323744593993, 174.4410095264359, 319.92310624692607, 10000, 20000, 692.0033492724124, 536.7039599201653, 406.63179899709445, 178.43902208427846, 0, 20.23141786224538, 86.5114984144087, 224.51271852183288, 760.0419604262277, -8.882209106553272, -36.12816986184371, 0.0026088381138150924, 5.370254122467791, 71.88685903670131}

71 / 176

[]float64{7.729407796329122, -23.553442547582726, -39.329004428312246, -73.21698590750798, -142.53081011675388, -277.81181590764146, -523.1803055295827, -100000, -2.4383490713421883, 24.388289054878356, 47.18372242305027, 59.94323744593993, 174.4410095264359, 324.3079853877775, 10000, 20000, 692.0033492724124, 536.7039599201653, 407.1616866350406, 181.9920502910844, 0, 19.77610102736022, 85.38013682202764, 224.51271852183288, 776.2784211544262, -8.882209106553272, -35.75060949856096, 0.0025952161666203642, 5.370254122467791, 73.38024133967751}

72 / 178

[]float64{6.713358344466405, -23.306235794563474, -39.265385808839326, -71.60715230928011, -142.53081011675388, -277.36149886603437, -507.09070355769416, -100000, -1.7477874523152122, 24.388289054878356, 47.18372242305027, 59.530443481945596, 174.4410095264359, 317.9547395184428, 10000, 20000, 686.9965827953231, 536.7039599201653, 409.6308126693002, 181.9920502910844, 0, 19.77610102736022, 85.38013682202764, 224.51271852183288, 786.4442182062855, -8.882209106553272, -35.75060949856096, 0.0025952161666203642, 5.370254122467791, 73.38024133967751}

73 / 179

