[]float64{0, -20.596675154722433, -40.7686737739878, -73.91758898319048, -159.4540252562859, -308.31170524268566, -614.5526363626398, -100000, 0, 31.042310037783217, 46.24835319600788, 72.57237209737832, 172.74825323115243, 425.2889015194426, 10000, 20000, 595.3845636103955, 519.4472412092582, 334.2747181809552, 187.81075244261064, 0, 19.305451170126922, 101.39128643911626, 220.17316800018568, 587.8188167452151, -9.606278084303614, -35.96518871413113, 0.0026860003505656655, 5.294999573941016, 65.38173669714529}

1 / 3

[]float64{0, -20.428833909605554, -40.7686737739878, -73.95280840035953, -158.060822612023, -307.3005005023063, -614.5526363626398, -100000, 0, 31.042310037783217, 46.24835319600788, 71.86017497543256, 172.74825323115243, 428.65763411114443, 10000, 20000, 595.3845636103955, 519.4472412092582, 335.3898640170579, 188.9408588315341, 0, 19.305451170126922, 101.39128643911626, 220.24448907184703, 587.8188167452151, -9.56401256150399, -36.15720581113605, 0.0026860003505656655, 5.294999573941016, 65.38173669714529}

2 / 7

[]float64{0, -20.447003955836053, -40.85887504945652, -74.18256700739302, -156.7588837357785, -307.3005005023063, -621.4559666475315, -100000, 0, 31.042310037783217, 46.24835319600788, 71.86017497543256, 172.02392300039443, 431.74604055806014, 10000, 20000, 595.3845636103955, 519.4472412092582, 336.5704502368734, 188.888677075845, 0, 19.305451170126922, 101.39128643911626, 220.24448907184703, 587.8188167452151, -9.56401256150399, -36.202302624388025, 0.002677839411842275, 5.294999573941016, 65.9426566062287}

3 / 8

[]float64{0, -20.64481147555043, -40.68123850802697, -74.18256700739302, -155.18128145369428, -307.3005005023063, -621.4559666475315, -100000, 0, 31.208563691118606, 46.527571152280615, 70.9763679890786, 170.99610312545258, 431.3382833445055, 10000, 20000, 597.364237672448, 519.4472412092582, 336.5704502368734, 188.888677075845, 0, 19.267508679345227, 102.06403377100813, 219.81577476118267, 592.0789733257376, -9.56401256150399, -36.202302624388025, 0.002677839411842275, 5.294999573941016, 66.09394868014729}

4 / 9

[]float64{0, -20.616130919997122, -40.696515149922966, -74.18256700739302, -155.18128145369428, -305.40097756951116, -621.6860403404178, -100000, 0, 31.208563691118606, 46.527571152280615, 70.9763679890786, 170.56852338671825, 432.82796291985176, 10000, 20000, 597.364237672448, 522.0255005110736, 336.5704502368734, 189.51831559338365, 0, 19.267508679345227, 102.06403377100813, 221.5526249279493, 592.0789733257376, -9.56401256150399, -36.202302624388025, 0.002677839411842275, 5.260602865261166, 66.53314943236494}

5 / 14

[]float64{0, -20.616130919997122, -40.696515149922966, -74.18256700739302, -153.8016445215469, -305.40097756951116, -628.0663257074981, -100000, 0, 31.06601585071212, 46.541254894798925, 71.50147148645111, 170.56852338671825, 433.1179432491318, 10000, 20000, 597.364237672448, 520.4474347526013, 339.54310890380464, 188.23924622765188, 0, 19.161276809858613, 102.06403377100813, 221.5526249279493, 587.4972259122535, -9.569271317415355, -36.004886875186145, 0.0026664035988082963, 5.260602865261166, 66.53314943236494}

6 / 15

[]float64{0, -20.616130919997122, -40.696515149922966, -74.18256700739302, -153.8016445215469, -305.40097756951116, -628.0663257074981, -100000, 0, 31.203077250884768, 46.515609859225464, 71.50147148645111, 170.56852338671825, 429.7542777365479, 10000, 20000, 596.7618412028085, 520.4474347526013, 337.23882479567317, 187.56068744878212, 0, 19.161276809858613, 102.06403377100813, 220.6858225513969, 587.4972259122535, -9.569271317415355, -35.91375267329725, 0.0026664035988082963, 5.250607556431229, 66.53314943236494}

7 / 17

[]float64{0, -20.768825246847157, -40.64528455724212, -73.89905453571612, -152.40036992998148, -305.40097756951116, -625.0314658369298, -100000, 0, 31.335121391058042, 46.515609859225464, 71.50147148645111, 170.56852338671825, 429.7542777365479, 10000, 20000, 594.5610335886072, 520.4474347526013, 338.89426555302714, 188.90035578717368, 0, 19.161276809858613, 102.06403377100813, 220.6858225513969, 587.4972259122535, -9.607491377642802, -35.91375267329725, 0.0026510220522053055, 5.240492910575424, 66.73606296253743}

8 / 18

[]float64{0, -20.611333085231152, -40.64528455724212, -73.89905453571612, -152.40036992998148, -305.40097756951116, -626.0944549263925, -100000, 0, 31.52544638734027, 46.39688253797233, 71.50147148645111, 168.67249132348763, 429.7542777365479, 10000, 20000, 590.9612393172752, 520.4474347526013, 340.26713318728457, 188.90035578717368, 0, 19.161276809858613, 101.89932835922599, 222.5384146497606, 582.0370430126234, -9.58012979438114, -35.91375267329725, 0.0026470572720288226, 5.269202130656501, 66.73606296253743}

9 / 20

[]float64{0, -20.48807580354932, -40.3562654405459, -73.89905453571612, -152.70409288096312, -305.40097756951116, -632.7278798684688, -100000, 0, 31.52544638734027, 46.39688253797233, 71.50147148645111, 168.8051282476457, 429.7542777365479, 10000, 20000, 591.0676725123878, 517.9354795725415, 338.0202559335022, 188.90035578717368, 0, 19.161276809858613, 101.89932835922599, 222.5384146497606, 582.0370430126234, -9.58012979438114, -35.78917550418633, 0.0026470572720288226, 5.238747522852982, 67.16154866222172}

10 / 21

[]float64{0, -20.35309844362201, -40.22496050999219, -74.34283572185802, -152.70939267321705, -306.711342509664, -632.7278798684688, -100000, 0, 31.409809947824346, 46.60367513452451, 70.66597657781607, 168.8051282476457, 426.2266289983212, 10000, 20000, 591.0676725123878, 517.9354795725415, 338.0202559335022, 188.90035578717368, 0, 19.161276809858613, 101.51988944193488, 223.97461924683356, 585.043143358967, -9.558678771464976, -35.79701046000825, 0.0026470572720288226, 5.238747522852982, 67.52372616208035}

11 / 23

[]float64{0, -20.35090400391436, -40.22496050999219, -74.34283572185802, -152.70939267321705, -304.0991331959107, -632.7278798684688, -100000, 0, 31.409809947824346, 47.01166846971361, 71.01988986852123, 167.0011629289765, 426.2266289983212, 10000, 20000, 592.5579939555291, 517.9354795725415, 338.0202559335022, 188.07954152233245, 0, 19.161276809858613, 101.51988944193488, 223.97461924683356, 590.3110192784188, -9.558678771464976, -35.90099570751525, 0.0026470572720288226, 5.238747522852982, 67.52372616208035}

12 / 24

[]float64{0, -20.35090400391436, -40.22496050999219, -74.34283572185802, -151.95771617353176, -304.71977725453604, -632.7278798684688, -100000, 0, 31.409809947824346, 47.01166846971361, 70.72273394955249, 167.0011629289765, 426.1745830014688, 10000, 20000, 590.2011678337874, 517.9354795725415, 335.6315202363709, 188.07954152233245, 0, 18.997306897841796, 101.51988944193488, 224.99287719427747, 586.8799404292845, -9.558678771464976, -35.90099570751525, 0.002666428543131318, 5.238747522852982, 67.52372616208035}

13 / 25

[]float64{0, -20.35090400391436, -40.22496050999219, -74.39361001164366, -151.95771617353176, -303.66156483556034, -637.6573595007362, -100000, 0, 31.30015010759503, 47.49363566709205, 70.59738340205686, 166.84618395704598, 426.1745830014688, 10000, 20000, 590.2011678337874, 517.9354795725415, 334.0080030731295, 186.88188378814607, 0, 19.037652544465264, 101.31220998613625, 223.4695745667476, 588.5105444455126, -9.560516244558842, -35.90099570751525, 0.0026911316609626182, 5.274564584851859, 67.52372616208035}

14 / 26

[]float64{0, -20.29710527608193, -40.4734514304905, -74.24639680051996, -150.49966681299526, -303.66156483556034, -637.8987586787517, -100000, 0, 31.30015010759503, 47.1540565994371, 69.84688021603017, 164.88834637901732, 426.1745830014688, 10000, 20000, 590.2011678337874, 521.7362182750813, 333.46971843581537, 186.88188378814607, 0, 19.135385042989014, 101.31220998613625, 223.4695745667476, 588.5105444455126, -9.554766430604747, -35.88054280393378, 0.0026911316609626182, 5.274564584851859, 67.52372616208035}

15 / 30

[]float64{0, -20.29710527608193, -40.24241982879117, -74.90821887119859, -151.50802728153576, -304.2834553153341, -637.8987586787517, -100000, 0, 31.135133369170788, 47.1540565994371, 69.84688021603017, 164.88834637901732, 426.1745830014688, 10000, 20000, 591.0272453536415, 519.3886907942924, 335.3980915926239, 186.88188378814607, 0, 19.044252298402828, 100.83492184129221, 223.4695745667476, 588.5105444455126, -9.623799873615226, -36.07853182902225, 0.0026911316609626182, 5.274564584851859, 67.58650931914792}

16 / 35

[]float64{0, -20.29710527608193, -40.24241982879117, -75.2045081709271, -152.207363687539, -303.0728618767061, -637.8987586787517, -100000, 0, 30.922244421562958, 47.540366390722134, 70.06842216003743, 164.88834637901732, 424.61931701081113, 10000, 20000, 589.7897515191644, 519.3886907942924, 335.5488884705731, 186.88188378814607, 0, 19.116861300954717, 100.59410947443513, 223.6402233090781, 586.1111317409951, -9.623799873615226, -36.04888509568161, 0.0026792480946059936, 5.274564584851859, 68.08096949961933}

17 / 39

[]float64{0, -20.29710527608193, -40.07989234176352, -75.66701284439773, -152.207363687539, -303.0728618767061, -633.4806816641424, -100000, 0, 30.82125905384334, 47.540366390722134, 70.24275711335598, 165.64221406547608, 428.1668370194957, 10000, 20000, 591.1771065468959, 518.1108176905993, 333.2585722803211, 186.88188378814607, 0, 19.116861300954717, 101.08154289154876, 222.0215152492479, 586.1111317409951, -9.623799873615226, -36.334167496069234, 0.0027020331707848884, 5.274564584851859, 68.08096949961933}

18 / 40

[]float64{0, -20.48869405926714, -40.07989234176352, -75.55536668967528, -152.207363687539, -301.6005928910072, -633.5704768006722, -100000, 0, 30.82125905384334, 47.70160509410827, 70.0244684104166, 165.64221406547608, 428.1668370194957, 10000, 20000, 591.1771065468959, 522.500085433672, 333.2585722803211, 186.88188378814607, 0, 19.116861300954717, 100.15284253595797, 222.0215152492479, 590.2414021727395, -9.623799873615226, -36.48037330328347, 0.0027020331707848884, 5.250742260838477, 68.08096949961933}

19 / 42

[]float64{0, -20.369811172393852, -40.07989234176352, -74.88955128225732, -152.42965069520753, -301.6005928910072, -639.0429931488695, -100000, 0, 30.82125905384334, 47.70160509410827, 70.0244684104166, 165.64221406547608, 428.1668370194957, 10000, 20000, 596.505460618203, 522.500085433672, 330.62350352129204, 186.88188378814607, 0, 19.116861300954717, 100.15284253595797, 222.37338401934517, 586.753054597707, -9.623799873615226, -36.48037330328347, 0.0027020331707848884, 5.250742260838477, 68.08096949961933}

20 / 43

[]float64{0, -20.369811172393852, -39.77379709209774, -74.58808462741004, -152.03452541975312, -301.6005928910072, -639.0429931488695, -100000, 0, 31.045851448296627, 47.70160509410827, 70.85885026372355, 165.64221406547608, 428.1668370194957, 10000, 20000, 596.505460618203, 522.500085433672, 330.62350352129204, 186.88188378814607, 0, 19.116861300954717, 99.15968824976746, 222.37338401934517, 593.418189654296, -9.623799873615226, -36.61426439443673, 0.0026725012185677514, 5.223416736870826, 68.08096949961933}

21 / 45

[]float64{0, -20.369811172393852, -39.44406968555223, -74.74323881652629, -153.11568930685604, -299.59629146578516, -639.0429931488695, -100000, 0, 31.257677344364588, 47.73456373975396, 70.01780808357302, 165.64221406547608, 428.8961070559763, 10000, 20000, 594.3580548545762, 524.4362606017564, 332.49626783053776, 186.88188378814607, 0, 19.214680771464437, 98.55401173050399, 221.5337599128065, 600.3242891538018, -9.623799873615226, -36.61426439443673, 0.002643900345555605, 5.223416736870826, 68.08096949961933}

22 / 46

[]float64{0, -20.369811172393852, -39.44406968555223, -74.74323881652629, -154.6367276160184, -299.59629146578516, -639.0429931488695, -100000, 0, 31.425693689549938, 48.0877872103961, 69.63192273507369, 165.35482879444518, 432.24964632890703, 10000, 20000, 594.3580548545762, 524.4362606017564, 332.49626783053776, 186.88188378814607, 0, 19.05239496315728, 99.45476495728161, 221.5337599128065, 605.2546634967894, -9.623799873615226, -36.61426439443673, 0.0026374334945439824, 5.178759845351799, 68.34443242922868}

23 / 47

[]float64{0, -20.369811172393852, -39.44406968555223, -74.74323881652629, -154.62261377061728, -299.59629146578516, -640.4150299046617, -100000, 0, 31.483613826507987, 47.610860707171526, 69.63192273507369, 165.35482879444518, 432.51204348301724, 10000, 20000, 591.619273794315, 528.0520125356686, 331.6253522530046, 186.88188378814607, 0, 19.05239496315728, 99.1341305321599, 220.13425023220012, 605.2546634967894, -9.623799873615226, -36.61426439443673, 0.002640481193277249, 5.178759845351799, 68.34443242922868}

24 / 51

[]float64{0, -20.369811172393852, -39.61615860227539, -74.74323881652629, -154.62261377061728, -299.59629146578516, -637.5899262817331, -100000, 0, 31.483613826507987, 47.521986885676995, 69.94655997700292, 165.7968108742218, 432.51204348301724, 10000, 20000, 594.7020684454128, 528.0520125356686, 330.67486026782433, 186.12710142199478, 0, 19.05239496315728, 99.1341305321599, 219.60713529572192, 605.2546634967894, -9.623799873615226, -36.61426439443673, 0.002640481193277249, 5.214222045005516, 68.83162964020539}

25 / 53

[]float64{0, -20.369811172393852, -39.80133204823012, -74.27552039966571, -154.8388014508326, -299.8638080515947, -637.5899262817331, -100000, 0, 31.483613826507987, 47.520167487858025, 69.94655997700292, 165.71245410692524, 432.51204348301724, 10000, 20000, 594.7020684454128, 525.300648569046, 330.67486026782433, 186.12710142199478, 0, 19.05239496315728, 99.1341305321599, 218.23291425339096, 605.2546634967894, -9.623799873615226, -36.61426439443673, 0.0026638592297771792, 5.238211221642363, 68.59096606806673}

26 / 54

[]float64{0, -20.369811172393852, -39.62828467776586, -74.27552039966571, -156.04409300509718, -299.8638080515947, -637.5899262817331, -100000, 0, 31.408905706309067, 47.520167487858025, 69.94655997700292, 165.71245410692524, 429.82342063833755, 10000, 20000, 594.7020684454128, 525.300648569046, 330.67486026782433, 187.27048259834737, 0, 19.05239496315728, 99.57042109451265, 219.6899620442262, 607.7222956564358, -9.623799873615226, -36.7724240527308, 0.0026638592297771792, 5.238211221642363, 68.52046542851366}

27 / 55

[]float64{0, -20.369811172393852, -39.62828467776586, -74.27552039966571, -157.02906856336392, -296.76791013311333, -637.5899262817331, -100000, 0, 31.489347314110645, 47.520167487858025, 69.94655997700292, 167.26773405926747, 429.2591171351253, 10000, 20000, 600.0996813835864, 528.3181696232152, 330.67486026782433, 188.6733218237442, 0, 19.05239496315728, 99.78688578195742, 219.6899620442262, 609.3785993806787, -9.623799873615226, -36.48004072028881, 0.0026730720598406796, 5.192446780360999, 68.52046542851366}

28 / 56

[]float64{0, -20.206546337284422, -39.62828467776586, -74.27552039966571, -157.34195103950725, -296.76791013311333, -637.5899262817331, -100000, 0, 31.489347314110645, 47.520167487858025, 70.33480773488752, 167.3222247612261, 430.7791278351659, 10000, 20000, 600.0996813835864, 528.3181696232152, 331.7146108878244, 188.91076711324723, 0, 19.05239496315728, 100.35417487392526, 219.6899620442262, 615.2683009315002, -9.707493805888397, -36.48004072028881, 0.0026730720598406796, 5.169058690843167, 68.52046542851366}

29 / 57

[]float64{0, -20.14832347208169, -39.27287706737036, -74.55865900282826, -158.26952951021627, -296.8059807669127, -637.5899262817331, -100000, 0, 31.50874364726503, 47.520167487858025, 71.01233702957532, 167.3222247612261, 430.7791278351659, 10000, 20000, 600.0996813835864, 531.6879879336445, 331.7146108878244, 188.62696283243446, 0, 19.05239496315728, 99.93389127373294, 219.6899620442262, 615.2683009315002, -9.643473077720287, -36.48941245617258, 0.0026902031747442355, 5.169058690843167, 68.52046542851366}

30 / 59

[]float64{0, -20.062576955276135, -39.24619804271673, -74.83931120410499, -159.03235896845143, -297.3297991921298, -637.7731474745783, -100000, 0, 31.749532484021227, 47.520167487858025, 70.04258711243989, 168.5724855192548, 430.7791278351659, 10000, 20000, 601.9159986055527, 528.7045759624623, 328.9121606249379, 189.57742846298544, 0, 18.91474610408723, 99.93389127373294, 219.6899620442262, 615.4673023097132, -9.736282310964516, -36.48941245617258, 0.0026902031747442355, 5.169058690843167, 68.52046542851366}

31 / 60

[]float64{0, -20.062576955276135, -39.24619804271673, -74.83931120410499, -159.03235896845143, -297.3297991921298, -637.7731474745783, -100000, 0, 31.934721939453624, 47.520167487858025, 70.04258711243989, 168.5724855192548, 434.71304381540415, 10000, 20000, 600.0374276232473, 526.2051203565685, 329.3339861553323, 188.63648962642822, 0, 18.91474610408723, 99.93389127373294, 218.26980056742977, 617.1010798369632, -9.736282310964516, -36.68480312173287, 0.0026937655307041194, 5.171883958985817, 68.56370855909452}

32 / 61

[]float64{0, -20.062576955276135, -39.397083890034835, -74.91994880912735, -159.03235896845143, -297.3297991921298, -632.2199574740058, -100000, 0, 31.934721939453624, 47.520167487858025, 69.23065430058068, 168.5724855192548, 436.05892599214474, 10000, 20000, 600.0374276232473, 526.2051203565685, 330.0782436468805, 188.63648962642822, 0, 18.91474610408723, 99.93389127373294, 218.93538850161832, 624.1294129165673, -9.644455045188046, -36.822701139437285, 0.0026641960700180545, 5.171883958985817, 68.56370855909452}

33 / 62

[]float64{0, -19.89835911592468, -39.39523770170185, -74.91994880912735, -158.70474737498765, -296.1769963012323, -632.2199574740058, -100000, 0, 31.934721939453624, 47.520167487858025, 70.16433156664358, 167.09402132931484, 436.4512462488193, 10000, 20000, 595.4505812297854, 526.2051203565685, 332.53838769062895, 188.63648962642822, 0, 18.91474610408723, 99.93389127373294, 218.93538850161832, 624.1294129165673, -9.644455045188046, -36.822701139437285, 0.0026641960700180545, 5.18607754097529, 68.56370855909452}

34 / 63

[]float64{0, -19.89835911592468, -39.39523770170185, -75.27909811371879, -158.70474737498765, -297.12309650181044, -632.2199574740058, -100000, 0, 31.934721939453624, 47.53553786083461, 70.16433156664358, 168.6303786606076, 434.0577054948743, 10000, 20000, 595.4505812297854, 526.2051203565685, 333.98491415827766, 189.448333062362, 0, 18.75031591340725, 99.42702293672778, 218.93538850161832, 618.9551811481972, -9.610053639645667, -36.822701139437285, 0.0026596778905545286, 5.194776516848352, 69.02839953660285}

35 / 64

[]float64{0, -20.047537936735793, -39.39523770170185, -74.60584835198188, -157.13981482145041, -296.76484580050123, -632.2199574740058, -100000, 0, 31.934721939453624, 47.53553786083461, 70.16433156664358, 167.6423583872861, 434.0577054948743, 10000, 20000, 595.4505812297854, 527.2286262885832, 333.5613851698257, 189.448333062362, 0, 18.75031591340725, 99.42702293672778, 217.4811179037144, 618.9551811481972, -9.652429286037172, -36.822701139437285, 0.0026578233480024863, 5.194776516848352, 69.02839953660285}

36 / 66

[]float64{0, -20.047537936735793, -39.39523770170185, -74.60584835198188, -158.27355049241066, -293.67288333610094, -629.8007988855225, -100000, 0, 31.934721939453624, 47.2799828612133, 70.16433156664358, 167.6423583872861, 434.0577054948743, 10000, 20000, 595.4505812297854, 530.233954532533, 330.67468655677, 189.448333062362, 0, 18.75031591340725, 99.42702293672778, 215.94110505567477, 618.3097046673214, -9.652429286037172, -36.822701139437285, 0.0026620395592104893, 5.194776516848352, 68.723036084949}

37 / 68

[]float64{0, -20.047537936735793, -39.39523770170185, -74.6895083297205, -158.27355049241066, -293.67288333610094, -629.3988037609145, -100000, 0, 31.934721939453624, 47.2799828612133, 70.16433156664358, 167.6423583872861, 430.3656552474856, 10000, 20000, 595.4505812297854, 530.233954532533, 333.4824135821128, 189.448333062362, 0, 18.619100701866607, 99.42702293672778, 216.25749024390677, 620.8402899186926, -9.652429286037172, -36.822701139437285, 0.0026620395592104893, 5.2248040696048506, 68.723036084949}

38 / 73

[]float64{0, -19.87538247135189, -39.631552122247044, -75.18336106420732, -157.2087437486803, -292.8936726054595, -629.3988037609145, -100000, 0, 32.084765518281166, 47.2799828612133, 69.26394320888966, 167.6423583872861, 430.3656552474856, 10000, 20000, 595.4505812297854, 525.768087085027, 336.18162963680015, 189.448333062362, 0, 18.619100701866607, 98.45945873655707, 214.58548881971288, 620.8402899186926, -9.652429286037172, -36.822701139437285, 0.0026620395592104893, 5.2248040696048506, 68.723036084949}

39 / 74

[]float64{0, -19.87538247135189, -39.988797492453486, -75.18336106420732, -157.43819151576628, -295.5164154527862, -629.3988037609145, -100000, 0, 32.084765518281166, 47.50525997539276, 69.4565529261744, 166.46038020399936, 430.3656552474856, 10000, 20000, 594.1279212725119, 523.9585085245144, 338.8094837343445, 189.91061663748536, 0, 18.584814013243278, 98.60881468590031, 214.65337015008018, 620.8402899186926, -9.652429286037172, -36.822701139437285, 0.002671699691108387, 5.235068170848164, 68.723036084949}

40 / 76

[]float64{0, -19.87538247135189, -39.988797492453486, -75.18336106420732, -156.18004906287854, -295.5164154527862, -636.0008595767122, -100000, 0, 32.084765518281166, 47.089185952239674, 70.14035138974961, 165.48570985148746, 430.3656552474856, 10000, 20000, 594.1279212725119, 524.6695834266948, 340.36308613130467, 189.91061663748536, 0, 18.527750695114648, 98.55093897852304, 214.65337015008018, 620.8402899186926, -9.711076685303002, -36.822701139437285, 0.0026766914921918074, 5.235068170848164, 68.77088140212155}

41 / 77

[]float64{0, -20.01697405180663, -40.311602692811064, -75.2925964984747, -156.51252244111086, -295.5164154527862, -634.2272947240363, -100000, 0, 32.084765518281166, 46.668199557626224, 70.14035138974961, 165.35399543860177, 430.3656552474856, 10000, 20000, 590.9956156468254, 522.638156631361, 342.6182295904185, 191.3505776217612, 0, 18.527750695114648, 98.55093897852304, 214.65337015008018, 620.8402899186926, -9.649898629050615, -36.69438615964175, 0.0026766914921918074, 5.235068170848164, 68.77088140212155}

42 / 78

[]float64{0, -20.012731839677805, -40.536914492054144, -76.03513125857107, -157.5913100495162, -297.03887309723467, -637.8675000913526, -100000, 0, 31.87503506034995, 46.668199557626224, 70.14035138974961, 163.7544350191904, 430.3656552474856, 10000, 20000, 596.0577868058022, 522.638156631361, 342.6182295904185, 191.3505776217612, 0, 18.527750695114648, 98.55093897852304, 214.65337015008018, 620.8402899186926, -9.66500921139055, -36.8448117501636, 0.0026766914921918074, 5.235068170848164, 68.77088140212155}

43 / 79

[]float64{0, -20.149159577766277, -40.44980071100606, -76.03513125857107, -157.5913100495162, -299.72058364036184, -644.7208630403568, -100000, 0, 32.033737407405354, 46.69150260772885, 70.69029266389566, 165.10249820369364, 430.3656552474856, 10000, 20000, 596.0577868058022, 522.6227590455643, 342.6182295904185, 191.3505776217612, 0, 18.58073116299915, 98.55093897852304, 214.65337015008018, 620.8070902640286, -9.66500921139055, -36.8448117501636, 0.0026766914921918074, 5.221184831458814, 68.5614814378904}

44 / 83

[]float64{0, -20.162204642896363, -40.44980071100606, -76.68455495230893, -158.9242837726448, -296.9317375071242, -644.7208630403568, -100000, 0, 31.84663900912166, 46.37875212002439, 69.7189806768044, 165.0803374682318, 428.03466296925217, 10000, 20000, 596.0577868058022, 526.0592812386376, 341.6821053366766, 192.38315605023212, 0, 18.449933944892464, 98.55093897852304, 214.0792819192186, 617.8216775223486, -9.66500921139055, -36.8448117501636, 0.0026766914921918074, 5.221184831458814, 68.5614814378904}

45 / 85

[]float64{0, -20.162204642896363, -40.72119830552147, -76.68455495230893, -158.9242837726448, -299.1632618265108, -644.7208630403568, -100000, 0, 31.84663900912166, 46.37875212002439, 69.7189806768044, 164.69690178048495, 428.03466296925217, 10000, 20000, 601.6480187288535, 526.0592812386376, 341.6821053366766, 192.6245681771659, 0, 18.449933944892464, 98.55093897852304, 214.0792819192186, 613.0730848404942, -9.66500921139055, -36.8448117501636, 0.0026766914921918074, 5.221184831458814, 68.5614814378904}

46 / 87

[]float64{0, -20.162204642896363, -40.996787607101595, -76.68455495230893, -158.9242837726448, -299.1632618265108, -642.9228935178484, -100000, 0, 32.057527472703654, 46.78623935802973, 69.439603632292, 163.42544681918866, 424.166045075821, 10000, 20000, 602.4947644362244, 526.0592812386376, 341.6821053366766, 192.6245681771659, 0, 18.449933944892464, 98.31132855968355, 214.96234728964856, 613.0730848404942, -9.74619305769135, -36.8448117501636, 0.0026763516380793693, 5.241097511950345, 68.5614814378904}

47 / 90

[]float64{0, -20.074674082166318, -40.996787607101595, -77.03109955092003, -159.52088439889837, -300.7749000991604, -642.9228935178484, -100000, 0, 32.26104988387593, 47.09417340665973, 68.60337355567358, 163.42544681918866, 422.9382215776918, 10000, 20000, 602.4947644362244, 530.4129384193151, 342.7141658763932, 192.6245681771659, 0, 18.449933944892464, 97.92788183015234, 214.96234728964856, 616.7449251140829, -9.646766567758668, -36.76724689585616, 0.0026763516380793693, 5.202585519175656, 68.5614814378904}

48 / 91

[]float64{0, -20.074674082166318, -40.996787607101595, -76.59246489830988, -159.52088439889837, -298.02348239756043, -642.9228935178484, -100000, 0, 32.20035678005083, 47.09417340665973, 68.60337355567358, 163.42544681918866, 419.4277907700433, 10000, 20000, 602.4947644362244, 530.4129384193151, 342.7141658763932, 191.35468561745844, 0, 18.449933944892464, 97.92788183015234, 216.22808548173617, 616.2623600310847, -9.56125566181119, -36.76724689585616, 0.0026763516380793693, 5.202585519175656, 68.5614814378904}

49 / 92

[]float64{0, -20.074674082166318, -41.22582193593844, -76.59246489830988, -159.0843047429878, -298.02348239756043, -636.5712921987431, -100000, 0, 32.20035678005083, 47.09417340665973, 68.60337355567358, 163.42544681918866, 421.1393724168333, 10000, 20000, 602.4947644362244, 530.4129384193151, 342.7141658763932, 191.35468561745844, 0, 18.341663475244665, 97.0346775236815, 216.22808548173617, 609.4147341069723, -9.56125566181119, -36.76724689585616, 0.0026717659185800414, 5.202585519175656, 68.5614814378904}

50 / 94

[]float64{0, -20.074674082166318, -41.22582193593844, -77.14313927583618, -159.0843047429878, -295.8673828866721, -636.5712921987431, -100000, 0, 32.20035678005083, 46.60692708552781, 69.24847377214388, 163.51135737418372, 421.1393724168333, 10000, 20000, 604.9238929298074, 530.4129384193151, 345.0022159703209, 191.35468561745844, 0, 18.324673305112036, 97.0346775236815, 216.43438250833395, 607.8496749812123, -9.569754305371728, -36.98531296861938, 0.002667218440551137, 5.24056946607033, 68.79045070981181}

51 / 95

[]float64{0, -20.074674082166318, -41.05975876795125, -77.14313927583618, -159.0843047429878, -295.22119942380243, -636.5712921987431, -100000, 0, 32.13942629323307, 46.92743405358418, 69.24847377214388, 163.51135737418372, 422.33756000225037, 10000, 20000, 604.9238929298074, 530.4129384193151, 343.3352564938749, 192.5906455849178, 0, 18.388899318609617, 97.0346775236815, 216.54697286391968, 607.8496749812123, -9.610037173803512, -36.872504668798456, 0.002667218440551137, 5.217509187923833, 68.79045070981181}

52 / 96

[]float64{0, -20.128410809849267, -41.13721118073564, -77.14313927583618, -159.0843047429878, -295.22119942380243, -640.7357856856402, -100000, 0, 32.21460246437225, 47.33771093955835, 69.24847377214388, 162.2226668805169, 422.33756000225037, 10000, 20000, 599.9915949853137, 526.0387915017639, 340.3469446218977, 192.5906455849178, 0, 18.552452649433754, 97.0346775236815, 214.5965731088628, 607.8496749812123, -9.610037173803512, -36.872504668798456, 0.0026939548074906786, 5.217509187923833, 68.79045070981181}

53 / 97

[]float64{0, -20.128410809849267, -41.13721118073564, -77.14313927583618, -159.0843047429878, -295.22119942380243, -640.7357856856402, -100000, 0, 32.368826715224245, 47.41144693005145, 69.24847377214388, 163.10111024636026, 422.33756000225037, 10000, 20000, 595.07968350499, 526.0387915017639, 339.09995562704745, 192.5906455849178, 0, 18.552452649433754, 97.0346775236815, 214.73387589289132, 607.8496749812123, -9.610037173803512, -36.872504668798456, 0.0026939548074906786, 5.217509187923833, 68.79045070981181}

54 / 99

[]float64{0, -20.128410809849267, -41.279980150335255, -77.14313927583618, -160.27722422306158, -295.1744830796381, -640.7357856856402, -100000, 0, 32.368826715224245, 47.41144693005145, 69.24847377214388, 163.10111024636026, 426.16979873298374, 10000, 20000, 595.07968350499, 528.3602316585448, 339.43842528541745, 191.26892585497527, 0, 18.552452649433754, 97.0346775236815, 214.73387589289132, 607.8496749812123, -9.610037173803512, -36.85288438350196, 0.0026939548074906786, 5.216956113019228, 68.79045070981181}

55 / 101

[]float64{0, -20.128410809849267, -41.468341076599216, -76.41602389438196, -160.27722422306158, -295.1744830796381, -640.7357856856402, -100000, 0, 32.368826715224245, 47.41144693005145, 69.24847377214388, 163.10111024636026, 425.1780425025588, 10000, 20000, 595.07968350499, 528.3602316585448, 340.4047553170192, 189.8612237945817, 0, 18.41845491271672, 97.64530898394165, 215.71895260979693, 607.8496749812123, -9.575708899161322, -36.85288438350196, 0.0027133033803265275, 5.210870935836134, 69.00363563801022}

56 / 102

[]float64{0, -20.128410809849267, -41.468341076599216, -77.09425120149322, -160.27722422306158, -295.64984149933855, -640.7357856856402, -100000, 0, 32.59220116929181, 47.40494670804844, 69.3065522340627, 163.229226913088, 425.65664282329766, 10000, 20000, 595.07968350499, 524.3247487526514, 341.5412134964615, 189.8612237945817, 0, 18.330566974737447, 97.68057648455606, 215.71895260979693, 614.9524242780335, -9.645356982201339, -37.0022285219228, 0.0027361363393334265, 5.214040247115626, 69.00363563801022}

57 / 103

[]float64{0, -20.14460413018302, -41.468341076599216, -77.09425120149322, -158.69725750278292, -294.42695407788017, -640.7357856856402, -100000, 0, 32.59220116929181, 47.879943238314894, 69.3065522340627, 163.58622434736924, 425.65664282329766, 10000, 20000, 592.6428431728136, 521.4373124533759, 341.5412134964615, 189.8612237945817, 0, 18.45837293399336, 96.79334009745813, 215.71895260979693, 614.9524242780335, -9.691911076602464, -36.87482281888576, 0.0027306247722688895, 5.196725860584767, 68.7173119980645}

58 / 105

[]float64{0, -20.14460413018302, -41.468341076599216, -77.8310091363224, -158.69725750278292, -291.67437305692687, -638.1961858117527, -100000, 0, 32.59220116929181, 47.44972145656723, 70.19096137230883, 162.10638181429778, 425.65664282329766, 10000, 20000, 592.6428431728136, 521.4373124533759, 341.5412134964615, 190.001680081774, 0, 18.45837293399336, 96.71734810035586, 215.707687226845, 617.6708635707398, -9.73360608784235, -36.87482281888576, 0.0027306247722688895, 5.198114112823858, 68.94280445983604}

59 / 107

[]float64{0, -20.14460413018302, -41.468341076599216, -78.55005485852195, -158.69725750278292, -292.2413007534062, -638.1961858117527, -100000, 0, 32.42865370589642, 47.44972145656723, 70.19096137230883, 162.10638181429778, 425.65664282329766, 10000, 20000, 592.6428431728136, 520.7467289056555, 339.8203666451499, 190.001680081774, 0, 18.45837293399336, 97.31543762551063, 216.45824894403407, 611.4334694279391, -9.73360608784235, -36.87482281888576, 0.0027306247722688895, 5.197069595611356, 69.26284276823672}

60 / 109

[]float64{0, -20.083021658604174, -41.468341076599216, -78.55005485852195, -158.69725750278292, -292.2413007534062, -638.1961858117527, -100000, 0, 32.42865370589642, 47.44972145656723, 69.55376170599139, 162.10638181429778, 425.65664282329766, 10000, 20000, 591.1380931418976, 520.7467289056555, 339.8203666451499, 190.08825107413526, 0, 18.501607461086927, 97.74049456541695, 215.99119403336044, 611.4334694279391, -9.73360608784235, -36.87482281888576, 0.0027306247722688895, 5.151587705823857, 69.26284276823672}

61 / 111

[]float64{0, -20.026761227646293, -41.26383632453211, -78.55005485852195, -158.69725750278292, -294.02199040592774, -638.1961858117527, -100000, 0, 32.42865370589642, 47.44972145656723, 69.48073029309684, 162.10638181429778, 429.2527048090283, 10000, 20000, 595.7829524997371, 520.7467289056555, 338.7896453304205, 190.08825107413526, 0, 18.651742444031797, 97.74049456541695, 214.77755505587328, 611.4334694279391, -9.785506368691673, -36.99529735261741, 0.0027306247722688895, 5.184587600444869, 69.26284276823672}

62 / 112

[]float64{0, -20.026761227646293, -41.26383632453211, -78.89474989491637, -157.92339290187343, -294.351441304559, -638.1961858117527, -100000, 0, 32.654689654552534, 47.834939406042565, 69.48073029309684, 162.10638181429778, 431.36606604010063, 10000, 20000, 595.7829524997371, 520.7467289056555, 338.7896453304205, 190.08825107413526, 0, 18.651742444031797, 97.817329324546, 213.16539142468486, 606.5749828023224, -9.785506368691673, -36.99529735261741, 0.0027306247722688895, 5.2011497370017885, 69.26284276823672}

63 / 114

[]float64{0, -19.92904888879553, -41.26383632453211, -78.89474989491637, -157.92339290187343, -294.351441304559, -636.6728658709401, -100000, 0, 32.67136638219806, 48.252270157173086, 69.48073029309684, 163.19453591567924, 432.6099795694859, 10000, 20000, 593.775007545468, 517.6752057784046, 338.7896453304205, 190.08825107413526, 0, 18.651742444031797, 97.817329324546, 213.16539142468486, 606.5749828023224, -9.7913583050976, -36.99529735261741, 0.0027306247722688895, 5.230847339608298, 69.26284276823672}

64 / 115

[]float64{0, -19.86875703537075, -41.26383632453211, -78.89474989491637, -157.92339290187343, -295.0003325453336, -636.6728658709401, -100000, 0, 32.468988392294186, 48.52923522833923, 68.99173294260683, 163.19453591567924, 431.2843851136813, 10000, 20000, 595.489882809044, 516.5299041726541, 337.2764645520541, 190.08825107413526, 0, 18.651742444031797, 97.817329324546, 213.16539142468486, 612.2907533357899, -9.7913583050976, -36.99529735261741, 0.002724330177108241, 5.230847339608298, 69.41073469881479}

65 / 116

[]float64{0, -19.86875703537075, -41.05951134625376, -79.06891773975744, -157.92339290187343, -292.36327936841826, -633.5099030163368, -100000, 0, 32.291819457684305, 48.86105810711144, 69.08858966750657, 161.3262316380363, 431.2843851136813, 10000, 20000, 595.489882809044, 516.5299041726541, 336.73331185767404, 190.08825107413526, 0, 18.651742444031797, 97.817329324546, 214.39424231603323, 612.2907533357899, -9.7913583050976, -37.2167086849184, 0.002724330177108241, 5.230847339608298, 69.41073469881479}

66 / 119

[]float64{0, -19.86875703537075, -41.05951134625376, -79.06891773975744, -157.92339290187343, -292.36327936841826, -633.5099030163368, -100000, 0, 32.114343143431604, 48.86105810711144, 68.9150413498165, 159.8016312207087, 431.2843851136813, 10000, 20000, 595.489882809044, 515.4695781391889, 338.4010244547368, 190.08825107413526, 0, 18.651742444031797, 97.79922606177988, 214.17466795295024, 612.2907533357899, -9.7913583050976, -37.029497395295195, 0.002724330177108241, 5.230847339608298, 69.90798476689258}

67 / 120

[]float64{0, -19.86875703537075, -40.72109091534, -79.60076777149303, -158.21307206382312, -292.42484540570354, -634.024758078257, -100000, 0, 32.2924520906556, 48.86105810711144, 67.98131363912975, 158.5016231307166, 431.2843851136813, 10000, 20000, 595.489882809044, 514.0601743230338, 336.71238010572375, 190.34133219432087, 0, 18.48568985553476, 97.74654299568591, 214.17466795295024, 612.2907533357899, -9.7913583050976, -37.029497395295195, 0.002707433029237507, 5.230847339608298, 69.90798476689258}

68 / 121

[]float64{0, -19.86875703537075, -40.72109091534, -79.62945754805334, -158.21307206382312, -289.7880297014881, -636.8143072729945, -100000, 0, 32.2924520906556, 49.249494226609016, 67.33614777233194, 157.8047910926125, 429.15694633442075, 10000, 20000, 595.489882809044, 514.0601743230338, 336.71238010572375, 190.42353988187187, 0, 18.46646254321206, 97.74654299568591, 214.17466795295024, 610.6151961891813, -9.868211076962517, -36.94668134313859, 0.002702170221455472, 5.230847339608298, 70.39848009419097}

69 / 125

[]float64{0, -19.86875703537075, -40.72109091534, -80.22500920363473, -158.21307206382312, -288.1167205614413, -636.8143072729945, -100000, 0, 32.2924520906556, 49.249494226609016, 66.97533270278376, 157.8047910926125, 428.31066694615896, 10000, 20000, 595.489882809044, 514.0601743230338, 336.13761261239495, 190.42353988187187, 0, 18.46646254321206, 97.87072083457414, 214.8876556542196, 616.2390329127, -9.797646939790098, -37.0922584655833, 0.002702170221455472, 5.230847339608298, 70.39848009419097}

70 / 128

[]float64{0, -19.86875703537075, -40.70265067612425, -80.6339641523478, -158.2739204191606, -289.9202427599464, -636.8143072729945, -100000, 0, 32.05344777350035, 49.249494226609016, 66.61863278015734, 157.8047910926125, 429.83871450945173, 10000, 20000, 595.489882809044, 514.0601743230338, 335.5235240779859, 190.42353988187187, 0, 18.46646254321206, 97.1232452653971, 216.8524837608408, 616.2390329127, -9.80073033167027, -37.33656821008637, 0.002702170221455472, 5.18087496474081, 69.97393253332928}

71 / 130

[]float64{0, -19.83907867560604, -40.70265067612425, -80.6339641523478, -158.77962964996613, -289.9202427599464, -642.2802553762963, -100000, 0, 32.079537854785, 49.249494226609016, 66.61863278015734, 157.8047910926125, 429.83871450945173, 10000, 20000, 595.489882809044, 514.0601743230338, 335.5235240779859, 190.7790170528329, 0, 18.49074913047543, 97.1232452653971, 216.8524837608408, 615.6294197700859, -9.80073033167027, -37.33656821008637, 0.0026968449401294113, 5.18087496474081, 69.97393253332928}

72 / 133

[]float64{0, -19.991776943249572, -40.70265067612425, -80.6339641523478, -158.77962964996613, -289.9202427599464, -642.2802553762963, -100000, 0, 31.924798102124534, 49.249494226609016, 66.61863278015734, 157.8047910926125, 428.6529360173413, 10000, 20000, 590.1539029047865, 516.9548112576401, 337.6069619737724, 190.1834233465529, 0, 18.49074913047543, 97.1232452653971, 218.17843708539755, 615.6294197700859, -9.87488312823821, -37.25576467719455, 0.0026968449401294113, 5.18087496474081, 69.97393253332928}

73 / 135

[]float64{0, -19.991776943249572, -40.41762223204793, -80.73165998196694, -157.99712797196457, -289.9202427599464, -642.2802553762963, -100000, 0, 31.88403719717285, 49.249494226609016, 66.61863278015734, 158.78310628032116, 427.9469003242202, 10000, 20000, 590.1539029047865, 520.2859903414941, 337.6069619737724, 190.9187000542714, 0, 18.64517212793028, 97.1232452653971, 218.17843708539755, 610.6272721961018, -9.962851201152047, -37.143919129751325, 0.0026968449401294113, 5.18087496474081, 69.3965836826934}

74 / 136

[]float64{0, -20.05088499975505, -40.41762223204793, -80.73165998196694, -157.99712797196457, -289.9202427599464, -642.2802553762963, -100000, 0, 31.853162654162382, 49.249494226609016, 67.10901412659999, 158.78310628032116, 427.9469003242202, 10000, 20000, 590.1539029047865, 518.116715528439, 340.48842367786744, 191.31245690387433, 0, 18.64517212793028, 97.1232452653971, 219.5544087906984, 610.6272721961018, -9.97553883802474, -37.143919129751325, 0.0027202286554339067, 5.18087496474081, 69.41815632267121}

75 / 138

[]float64{0, -20.05088499975505, -40.703807058161956, -80.73165998196694, -157.99712797196457, -287.86895626081537, -642.2802553762963, -100000, 0, 31.678505947446276, 49.249494226609016, 67.10901412659999, 158.78310628032116, 426.13357246979695, 10000, 20000, 590.1539029047865, 519.4708057615185, 343.3956272879677, 191.62827082428743, 0, 18.542781631405298, 97.1232452653971, 219.5544087906984, 606.904712993665, -9.97553883802474, -36.94746005194913, 0.0027202286554339067, 5.18087496474081, 69.146513158664}

76 / 139

[]float64{0, -20.121259653652803, -40.703807058161956, -80.73165998196694, -157.99712797196457, -287.86895626081537, -642.2802553762963, -100000, 0, 31.816053799804788, 49.249494226609016, 66.32517050409372, 158.78310628032116, 426.13357246979695, 10000, 20000, 587.3273451194225, 519.4708057615185, 340.7976885030135, 191.22202283277744, 0, 18.542781631405298, 97.20389868827914, 219.5544087906984, 602.8854272128178, -9.97553883802474, -36.88280246596712, 0.0027478864097746584, 5.149679855346128, 69.146513158664}

77 / 141

[]float64{0, -20.01469751456826, -40.35436705444688, -81.50116868892366, -157.99712797196457, -287.86895626081537, -642.2802553762963, -100000, 0, 31.69691880013222, 49.249494226609016, 66.12161901417292, 158.78310628032116, 426.13357246979695, 10000, 20000, 581.4181870362115, 517.418872599954, 338.15427066177926, 191.22202283277744, 0, 18.65299329127867, 96.3599946379878, 219.5544087906984, 610.1582860017853, -9.97553883802474, -36.99120130847798, 0.002736581871951268, 5.144711656582126, 69.32275569599}

78 / 142

[]float64{0, -19.875038315833375, -40.46977491801089, -81.50116868892366, -157.99712797196457, -287.86895626081537, -642.2802553762963, -100000, 0, 31.639113547467126, 49.249494226609016, 66.12161901417292, 160.50546216760404, 426.13357246979695, 10000, 20000, 581.4181870362115, 520.5229039094302, 338.15427066177926, 191.22202283277744, 0, 18.800717752267893, 96.3599946379878, 221.04118929909214, 611.0565460462201, -9.944014815888393, -36.72017694679903, 0.002736581871951268, 5.18238353621982, 69.63220897291345}

79 / 144

[]float64{0, -20.037237765838665, -40.81990891336166, -81.96296831350215, -156.5152383617243, -289.7369769249167, -638.6487869302669, -100000, 0, 31.639113547467126, 49.249494226609016, 65.76415749166628, 160.50546216760404, 426.13357246979695, 10000, 20000, 581.4181870362115, 517.0670867287504, 336.48323558494235, 191.22202283277744, 0, 18.88761461278994, 96.45237948098026, 219.7012774520818, 615.1104225668998, -10.013693381351604, -36.4579722590621, 0.002736581871951268, 5.18238353621982, 69.742738277886}

80 / 150

[]float64{0, -20.037237765838665, -40.98394105751143, -81.96296831350215, -156.5152383617243, -286.7711818399049, -632.6248992934533, -100000, 0, 31.639113547467126, 49.249494226609016, 66.50606010107859, 160.50546216760404, 426.19050094368265, 10000, 20000, 583.8061256544964, 517.0670867287504, 336.48323558494235, 191.22202283277744, 0, 19.021108846029886, 96.29506675339873, 219.7012774520818, 615.1104225668998, -10.013693381351604, -36.537190279152696, 0.0027132736749776094, 5.18238353621982, 69.742738277886}

81 / 153

[]float64{0, -20.037237765838665, -40.98394105751143, -81.39403856725497, -156.5152383617243, -284.3488993196769, -632.6248992934533, -100000, 0, 31.547721392966224, 49.249494226609016, 67.22868808624382, 160.50546216760404, 426.19050094368265, 10000, 20000, 579.5779116918002, 517.0670867287504, 336.48323558494235, 192.050424619978, 0, 19.0979738314517, 96.29506675339873, 220.6610219732754, 611.369409130072, -9.963464352796239, -36.537190279152696, 0.0027345686348014013, 5.206626769440446, 70.27190469365041}

82 / 154

[]float64{0, -20.037237765838665, -41.154102043973694, -82.10046504673167, -157.86788722712168, -284.3488993196769, -625.8091839832723, -100000, 0, 31.716357813222537, 49.13394683292012, 67.22868808624382, 160.05925360535338, 429.01664797803414, 10000, 20000, 577.7295344817289, 517.0670867287504, 336.48323558494235, 191.00332123306595, 0, 18.982884239592153, 97.09342902385053, 218.90874342744291, 612.3425256332678, -10.014968811030482, -36.54512658285273, 0.0027345686348014013, 5.206626769440446, 70.2250524740478}

83 / 157

[]float64{0, -20.037237765838665, -41.18519249436868, -82.10046504673167, -157.86788722712168, -281.4110073365772, -625.8091839832723, -100000, 0, 31.716357813222537, 49.13394683292012, 67.56440560498947, 160.05925360535338, 429.1508937846165, 10000, 20000, 575.6451651047391, 518.8940907637932, 336.48323558494235, 191.00332123306595, 0, 18.982884239592153, 97.09342902385053, 218.90874342744291, 612.3425256332678, -10.00463278295557, -36.62633611185477, 0.0027345686348014013, 5.206626769440446, 70.81922234709302}

84 / 158

[]float64{0, -19.93520274936384, -41.18519249436868, -82.1698169831842, -157.86788722712168, -281.4110073365772, -625.8091839832723, -100000, 0, 31.716357813222537, 49.13394683292012, 66.74782372618773, 159.7946718660213, 425.9312188800542, 10000, 20000, 572.6578111866721, 518.3822543742053, 336.48323558494235, 191.00332123306595, 0, 18.982884239592153, 97.09342902385053, 218.90874342744291, 612.3425256332678, -10.00463278295557, -36.816348096000226, 0.0027059151987322188, 5.206626769440446, 71.24705471361706}

85 / 160

[]float64{0, -19.86302897386411, -41.006147962158494, -82.87945488228598, -157.86788722712168, -281.4110073365772, -625.8091839832723, -100000, 0, 31.716357813222537, 49.13394683292012, 65.9815758772913, 159.7946718660213, 429.0606597832959, 10000, 20000, 572.6578111866721, 515.4318661256658, 336.5022977717671, 190.5299207438087, 0, 18.982884239592153, 97.23740104088267, 218.90874342744291, 612.3425256332678, -10.00463278295557, -36.816348096000226, 0.0027059151987322188, 5.2475773745329946, 71.24705471361706}

86 / 161

[]float64{0, -19.86302897386411, -41.006147962158494, -82.87945488228598, -156.84749012374604, -281.4110073365772, -625.8091839832723, -100000, 0, 31.716357813222537, 49.035522092703445, 65.9815758772913, 157.94704263389548, 426.72774193878763, 10000, 20000, 572.6578111866721, 511.47588405817305, 334.28831955814917, 189.8808289238563, 0, 18.982884239592153, 97.23740104088267, 220.2943049452814, 611.7438863072541, -10.096228283468186, -36.816348096000226, 0.0027059151987322188, 5.286191741762301, 70.69146177153326}

87 / 163

[]float64{0, -19.86302897386411, -40.76595077605426, -83.32306971434755, -157.84996307700848, -281.4110073365772, -625.8091839832723, -100000, 0, 31.957861829066832, 49.035522092703445, 65.9815758772913, 157.94704263389548, 426.72774193878763, 10000, 20000, 568.3473536587135, 507.7172468086345, 334.28831955814917, 189.8808289238563, 0, 19.086469822635873, 97.23740104088267, 219.28046167650405, 616.8011774007837, -10.096228283468186, -36.8904523475019, 0.0027030085830780978, 5.319427974067803, 70.69146177153326}

88 / 167

[]float64{0, -19.973707440762475, -40.76595077605426, -82.95788339219779, -157.84996307700848, -281.4110073365772, -625.7322990673667, -100000, 0, 32.06669145774903, 48.87941058032551, 65.9815758772913, 157.32797687491444, 426.72774193878763, 10000, 20000, 568.3473536587135, 511.40930674985236, 334.64110584312834, 190.88225533968347, 0, 19.22849565530624, 96.58621118075992, 219.28046167650405, 616.8011774007837, -10.182745963906017, -36.8904523475019, 0.0027030085830780978, 5.319427974067803, 70.69146177153326}

89 / 171

[]float64{0, -19.973707440762475, -40.62606825262846, -82.81423255711232, -159.27139048610286, -284.3718194108724, -625.7322990673667, -100000, 0, 32.06669145774903, 48.387942120347276, 65.9815758772913, 156.8785975010647, 426.72774193878763, 10000, 20000, 568.3473536587135, 507.3079682810503, 334.64110584312834, 192.168864541306, 0, 19.084742536186685, 96.54897863361802, 220.0020366683946, 623.321578048259, -10.182745963906017, -36.73140809851516, 0.002699127110546635, 5.319427974067803, 70.69146177153326}

90 / 173

[]float64{0, -19.879156478635316, -40.62606825262846, -82.81423255711232, -159.27139048610286, -283.4788465669119, -625.7322990673667, -100000, 0, 32.06669145774903, 47.99609296588312, 66.37375560807632, 158.0937312579835, 426.72774193878763, 10000, 20000, 564.7652895141406, 507.3079682810503, 335.007767258829, 192.168864541306, 0, 18.95264463264536, 97.20600736097602, 220.68753180532457, 624.1248493691883, -10.182745963906017, -36.73140809851516, 0.002669315863472641, 5.319427974067803, 70.69146177153326}

91 / 177

[]float64{0, -19.922693267649116, -40.23865992727442, -82.81423255711232, -159.31048081828132, -283.4788465669119, -625.7322990673667, -100000, 0, 32.06669145774903, 47.99609296588312, 66.15228874453001, 158.0937312579835, 426.72774193878763, 10000, 20000, 569.2267664344158, 511.1505178107366, 335.007767258829, 193.2797614134683, 0, 18.95264463264536, 97.92344540536939, 221.40777920642515, 624.1248493691883, -10.138195368222092, -36.704801515207265, 0.002669315863472641, 5.3167916226664556, 71.18607427983706}

92 / 179

[]float64{0, -19.963633767135562, -40.23865992727442, -82.81423255711232, -158.69993572699835, -284.5737860681693, -625.5617435105298, -100000, 0, 31.912987081878864, 47.73462021124057, 66.51806195258578, 158.0937312579835, 426.72774193878763, 10000, 20000, 569.2267664344158, 510.8245800213296, 335.1323827128328, 193.2797614134683, 0, 19.081006491730726, 97.92344540536939, 223.19476752790143, 619.1583470766452, -10.138195368222092, -36.49360819628414, 0.0026856597075215075, 5.308309607894406, 71.18607427983706}

93 / 182

[]float64{0, -19.963633767135562, -40.60416286346199, -82.0823661710527, -158.69993572699835, -286.7815441343819, -625.5617435105298, -100000, 0, 31.707861983462156, 47.73462021124057, 66.51806195258578, 158.3268805352186, 426.72774193878763, 10000, 20000, 569.2267664344158, 509.91899227400376, 335.1323827128328, 193.2797614134683, 0, 19.081006491730726, 98.31470970676095, 223.19476752790143, 619.1583470766452, -10.134616196702925, -36.49360819628414, 0.0026685583043300955, 5.308309607894406, 71.22695943671944}

94 / 185

[]float64{0, -19.982043958652035, -40.60416286346199, -82.32738161974116, -158.69993572699835, -286.7815441343819, -625.5617435105298, -100000, 0, 31.88064831085351, 47.73462021124057, 66.51806195258578, 160.0260608620353, 426.72774193878763, 10000, 20000, 573.6697456064157, 509.91899227400376, 333.63886029311203, 193.2797614134683, 0, 19.081006491730726, 98.31470970676095, 223.19476752790143, 612.1135943842733, -10.125213865369854, -36.49360819628414, 0.0026685583043300955, 5.3248416473723434, 70.66285497658009}

95 / 186

[]float64{0, -19.982043958652035, -40.68179150959343, -82.12462488573928, -157.96914032255484, -286.7815441343819, -625.5617435105298, -100000, 0, 31.88064831085351, 47.73462021124057, 66.51806195258578, 160.05499151956258, 427.4598645090516, 10000, 20000, 573.6697456064157, 509.91899227400376, 336.2021693189894, 194.22448484274864, 0, 18.91380776001632, 99.02294161953478, 223.72908335270284, 612.1135943842733, -10.1679185052645, -36.49360819628414, 0.00263872215755417, 5.3248416473723434, 70.92123272677443}

96 / 188

[]float64{0, -19.982043958652035, -40.68179150959343, -82.12462488573928, -157.96914032255484, -286.7815441343819, -625.5617435105298, -100000, 0, 32.108291843433534, 47.73462021124057, 66.51806195258578, 160.05499151956258, 427.4598645090516, 10000, 20000, 573.2306618794767, 512.5402471743989, 336.2021693189894, 192.90146307541713, 0, 18.91380776001632, 99.02294161953478, 223.72908335270284, 608.3184085597142, -10.130483192434733, -36.77342974117655, 0.00263872215755417, 5.365652446970378, 70.92123272677443}

97 / 189

[]float64{0, -19.982043958652035, -40.981644705433354, -82.12462488573928, -158.91889228319428, -283.9745521139112, -623.8108279423831, -100000, 0, 32.250537871654785, 47.73462021124057, 66.51806195258578, 160.4327796886928, 427.4598645090516, 10000, 20000, 576.3547976409136, 514.1666698810589, 338.6170825843037, 192.90146307541713, 0, 18.888738874682602, 98.629849623127, 223.72908335270284, 605.6983413957137, -10.07304321503972, -37.00737925766731, 0.00263872215755417, 5.401141797277566, 70.92123272677443}

98 / 190

[]float64{0, -20.007720919542656, -40.67807605007546, -82.12462488573928, -158.91889228319428, -282.45765957030704, -619.8294893689349, -100000, 0, 32.250537871654785, 47.73462021124057, 67.3444918896161, 162.1949183887393, 427.4598645090516, 10000, 20000, 576.3547976409136, 516.3024278336422, 338.6170825843037, 193.20604515614906, 0, 18.902882561476282, 98.629849623127, 224.7137504847881, 605.6983413957137, -10.091497283544179, -37.00737925766731, 0.00263872215755417, 5.401141797277566, 71.40381223252967}

99 / 192

[]float64{0, -20.007720919542656, -40.67807605007546, -82.12462488573928, -159.47887658879876, -284.86992304718035, -621.2434417242773, -100000, 0, 32.250537871654785, 47.73462021124057, 67.19205025993821, 162.1949183887393, 425.7871902692222, 10000, 20000, 576.3547976409136, 516.3024278336422, 338.6170825843037, 193.20604515614906, 0, 18.902882561476282, 98.629849623127, 224.7137504847881, 610.2965120384742, -10.091497283544179, -36.985066703684936, 0.0026265352729554266, 5.401141797277566, 71.13954738546067}

100 / 193

[]float64{0, -20.1596680268297, -40.50952593259912, -82.2818609276226, -158.68989486336682, -287.04481775847444, -621.2434417242773, -100000, 0, 32.01209556309962, 47.35477576358727, 67.19205025993821, 162.1949183887393, 425.7871902692222, 10000, 20000, 576.3547976409136, 516.9359164322774, 337.59265964977527, 194.45600072807667, 0, 18.902882561476282, 99.45323528110302, 226.70023910506228, 613.2166815817466, -10.028137111097433, -37.215237801058734, 0.00261646779303996, 5.401141797277566, 71.13954738546067}

101 / 194

[]float64{0, -20.1596680268297, -40.50952593259912, -82.2818609276226, -157.21881148118706, -287.04481775847444, -621.2434417242773, -100000, 0, 31.918818211742387, 47.28235118598043, 67.19205025993821, 162.15901999210635, 425.7871902692222, 10000, 20000, 570.6287201957493, 516.9359164322774, 338.0862714719051, 193.96319703873485, 0, 18.945232430346156, 98.86792990361499, 226.70023910506228, 617.3235969876835, -10.011530859218263, -37.215237801058734, 0.0026213828818569887, 5.401141797277566, 71.13954738546067}

102 / 198

[]float64{0, -20.1596680268297, -40.15620784201056, -81.94458181587342, -157.84294708970043, -287.04481775847444, -621.2434417242773, -100000, 0, 31.952126314345332, 47.28235118598043, 67.19205025993821, 162.15901999210635, 425.7871902692222, 10000, 20000, 570.6287201957493, 514.5023535014213, 340.9227930092675, 193.99180619090936, 0, 18.945232430346156, 98.86792990361499, 226.83416636006203, 617.5502524944106, -10.011530859218263, -37.215237801058734, 0.0026213828818569887, 5.363152537635801, 71.13954738546067}

103 / 199

[]float64{0, -20.092447450935154, -40.15620784201056, -81.19190336264293, -157.84294708970043, -287.04481775847444, -621.2434417242773, -100000, 0, 31.704370374824098, 46.90177901395148, 67.55921344986588, 161.41344260689854, 426.4345105892693, 10000, 20000, 570.6287201957493, 510.76847879925697, 340.9227930092675, 193.20363319896228, 0, 18.954728687997214, 98.86792990361499, 226.83416636006203, 617.5502524944106, -10.011530859218263, -36.99147234375131, 0.0026360000498288935, 5.3297049765481965, 71.13954738546067}

104 / 200

[]float64{0, -20.092447450935154, -40.50111327212524, -81.24847909652526, -156.28046804734478, -287.04481775847444, -621.2434417242773, -100000, 0, 31.704370374824098, 46.90177901395148, 67.55921344986588, 161.41344260689854, 426.4345105892693, 10000, 20000, 570.6287201957493, 510.76847879925697, 342.6726690640353, 192.49294986656838, 0, 18.954728687997214, 98.86792990361499, 226.83416636006203, 617.5502524944106, -10.011530859218263, -36.99147234375131, 0.002655562170707725, 5.3297049765481965, 71.13954738546067}

105 / 201

[]float64{0, -20.092447450935154, -40.50111327212524, -80.50030909293861, -156.53305351324238, -287.04481775847444, -621.2434417242773, -100000, 0, 31.66215011224096, 46.90177901395148, 67.79909618396539, 161.41344260689854, 426.4345105892693, 10000, 20000, 570.6287201957493, 510.269201761988, 344.2093075703049, 193.72114742600616, 0, 19.06691302548504, 98.86792990361499, 226.83416636006203, 612.1747397048914, -10.015833251477309, -37.07706920357532, 0.002634205844701522, 5.3297049765481965, 71.13954738546067}

106 / 205

[]float64{0, -20.16283210378036, -40.318000624335326, -80.50030909293861, -156.53305351324238, -288.39442726590653, -622.0883159147354, -100000, 0, 31.66215011224096, 47.27151139144168, 67.79909618396539, 162.55069194563316, 423.3733411903457, 10000, 20000, 570.6287201957493, 510.269201761988, 342.2798973114325, 192.22922546027598, 0, 19.17116152015066, 98.86792990361499, 226.42168274520338, 608.676927585968, -10.015833251477309, -36.92844456654721, 0.0026415142512274986, 5.306645823411374, 71.13954738546067}

107 / 208

[]float64{0, -20.259799305016195, -40.585966431199935, -79.81268806163169, -156.53305351324238, -290.4271417944059, -619.118327773527, -100000, 0, 31.66215011224096, 47.27151139144168, 67.79909618396539, 162.55069194563316, 423.3733411903457, 10000, 20000, 566.9092506421405, 510.269201761988, 343.62216201528594, 192.22922546027598, 0, 19.02303197570381, 99.29455539075661, 226.42168274520338, 608.676927585968, -9.950000976945017, -36.71328321240124, 0.0026562302543415486, 5.298650001117934, 71.26096877380698}

108 / 212

[]float64{0, -20.259799305016195, -40.27759061161879, -79.81268806163169, -156.7138354046047, -290.4271417944059, -622.7372315685732, -100000, 0, 31.5434221264916, 46.93475398978286, 68.66480388394186, 162.2136595079005, 423.3733411903457, 10000, 20000, 566.9092506421405, 514.4666191305434, 345.83201017046224, 192.22922546027598, 0, 19.02303197570381, 99.29455539075661, 224.78458721292066, 603.4245762547748, -10.011963369501933, -36.71328321240124, 0.0026562302543415486, 5.266646725238459, 71.52203195274868}

109 / 216

[]float64{0, -20.201925727828467, -39.909444330742815, -79.81268806163169, -156.7138354046047, -290.4271417944059, -620.3700058370727, -100000, 0, 31.602099258806533, 46.543172036026604, 68.66480388394186, 164.12205034706938, 419.69507163523815, 10000, 20000, 566.9092506421405, 514.4666191305434, 345.83201017046224, 192.22922546027598, 0, 19.207967456597263, 99.29455539075661, 225.40676273724063, 603.4245762547748, -10.011963369501933, -36.71328321240124, 0.002638509496587546, 5.266646725238459, 71.2860106966047}

110 / 219

[]float64{0, -20.238159978215002, -39.909444330742815, -79.61622844806095, -156.7138354046047, -290.2497392921314, -620.3700058370727, -100000, 0, 31.652483125099856, 46.68515230960858, 68.66480388394186, 163.39920269607146, 419.950493904695, 10000, 20000, 566.9092506421405, 510.78340287064987, 348.3727354742043, 192.22922546027598, 0, 19.364200517719652, 99.47734009140365, 225.37188441084263, 603.4245762547748, -10.011963369501933, -36.71328321240124, 0.002638509496587546, 5.266646725238459, 71.2860106966047}

111 / 220

[]float64{0, -20.042252353033177, -39.909444330742815, -79.61622844806095, -155.9415159133021, -290.2497392921314, -621.7866367738054, -100000, 0, 31.652483125099856, 46.269132629720616, 68.66480388394186, 164.92586945842402, 419.950493904695, 10000, 20000, 566.9092506421405, 510.78340287064987, 348.8874351069451, 192.22922546027598, 0, 19.364200517719652, 99.47734009140365, 225.37188441084263, 605.4290821608708, -9.912646845208318, -36.71328321240124, 0.002621391621556795, 5.266646725238459, 71.2860106966047}

112 / 223

[]float64{0, -20.042252353033177, -39.64589458415857, -79.61622844806095, -155.9415159133021, -292.08228851537706, -621.7866367738054, -100000, 0, 31.7555170647813, 46.38796492395653, 67.69347257243021, 165.25234402418974, 419.950493904695, 10000, 20000, 565.3004977771826, 510.81623520964774, 349.71342302366, 193.40248075098765, 0, 19.539491020584812, 99.47734009140365, 225.5318951170679, 605.4290821608708, -9.912646845208318, -36.637235094251686, 0.002621391621556795, 5.266646725238459, 71.21363897806661}

113 / 224

[]float64{0, -20.042252353033177, -39.9476167491297, -79.19655249923674, -154.6097967033055, -292.7703871605311, -621.7866367738054, -100000, 0, 31.7555170647813, 45.95798780632224, 67.69347257243021, 165.25234402418974, 418.8219494226979, 10000, 20000, 565.3004977771826, 510.81623520964774, 349.71342302366, 193.6721496977762, 0, 19.41690261282652, 99.47734009140365, 225.5318951170679, 602.7907640114636, -9.912646845208318, -36.637235094251686, 0.002621391621556795, 5.266646725238459, 71.21363897806661}

114 / 227

[]float64{0, -20.042252353033177, -39.9476167491297, -79.74702283997277, -154.6097967033055, -292.7703871605311, -618.318467302591, -100000, 0, 31.7555170647813, 45.95798780632224, 67.65865141614509, 165.25234402418974, 420.130767674563, 10000, 20000, 568.2120142309429, 510.81623520964774, 349.71342302366, 194.39701272611615, 0, 19.41690261282652, 99.47734009140365, 224.41679664667333, 602.7907640114636, -9.952415798254684, -36.637235094251686, 0.002621391621556795, 5.266646725238459, 71.62984064712145}

115 / 228

[]float64{0, -20.042252353033177, -39.9476167491297, -79.74702283997277, -154.90216043036634, -292.7703871605311, -617.7576810514254, -100000, 0, 31.55198868628746, 45.95798780632224, 67.65865141614509, 164.87306762867814, 420.130767674563, 10000, 20000, 568.2120142309429, 510.07302442605294, 349.71342302366, 193.60757833008017, 0, 19.41690261282652, 98.71536994510322, 224.41679664667333, 603.6526664114131, -9.952415798254684, -36.637235094251686, 0.0026279719531036158, 5.266646725238459, 71.62984064712145}

116 / 229

[]float64{0, -20.042252353033177, -40.0481514475601, -80.22202496063558, -156.29822836163086, -292.7703871605311, -617.7576810514254, -100000, 0, 31.690900328886855, 45.622760558369265, 67.65865141614509, 164.87306762867814, 422.6665442264957, 10000, 20000, 566.2419539642078, 510.07302442605294, 349.71342302366, 194.24668774531125, 0, 19.358674462472315, 98.71536994510322, 223.3854104636339, 600.4357964720389, -9.952415798254684, -36.637235094251686, 0.0025986250750066695, 5.251599521307087, 71.43159918281825}

117 / 230

[]float64{0, -20.042252353033177, -39.78797802510722, -80.22202496063558, -156.29822836163086, -292.7703871605311, -617.7576810514254, -100000, 0, 31.690900328886855, 45.622760558369265, 67.65865141614509, 166.20809257127397, 420.64320721374156, 10000, 20000, 570.04816593877, 512.7178142524119, 349.630966342437, 194.24668774531125, 0, 19.358674462472315, 98.71536994510322, 221.4559826566911, 600.4357964720389, -9.949251620727836, -36.58774169496608, 0.0025986250750066695, 5.208192644931328, 71.22362251237419}

118 / 232

[]float64{0, -20.042252353033177, -39.74064473806546, -80.31240898133983, -156.29822836163086, -292.7703871605311, -617.7576810514254, -100000, 0, 31.690900328886855, 45.622760558369265, 67.65865141614509, 166.89460605151203, 420.64320721374156, 10000, 20000, 572.7601488963278, 512.7178142524119, 349.630966342437, 194.24668774531125, 0, 19.31723086120046, 97.7864624599584, 219.49147120155314, 594.4691125302973, -9.949251620727836, -36.68722759874041, 0.002596177343274924, 5.205820189492468, 71.22362251237419}

119 / 233

[]float64{0, -20.034756153733525, -39.84335514424464, -80.24498207064042, -155.10948147480758, -290.5064083453991, -617.7576810514254, -100000, 0, 31.690900328886855, 45.622760558369265, 67.07966509994692, 166.89460605151203, 420.64320721374156, 10000, 20000, 572.7601488963278, 509.9908268800659, 349.630966342437, 193.5015402199796, 0, 19.433792883729495, 97.7864624599584, 221.40370525008655, 593.6906093312739, -9.883895073549567, -36.90084998847278, 0.002598222902402609, 5.2216986387652415, 71.22362251237419}

120 / 234

[]float64{0, -20.004393640105093, -39.55983521664315, -80.24498207064042, -155.10948147480758, -290.21119619612443, -621.585277403738, -100000, 0, 31.705918309256276, 45.622760558369265, 67.041389269046, 166.89460605151203, 418.74900028085585, 10000, 20000, 572.7601488963278, 509.9908268800659, 349.630966342437, 193.5015402199796, 0, 19.433792883729495, 97.7864624599584, 221.40370525008655, 595.2786035795932, -9.883895073549567, -36.710801676664595, 0.002598222902402609, 5.2216986387652415, 71.64072510365529}

121 / 235

[]float64{0, -20.020735767195774, -39.93355244973702, -80.57578701249065, -155.10948147480758, -290.21119619612443, -621.585277403738, -100000, 0, 31.597452179737232, 45.622760558369265, 67.041389269046, 167.5275016910942, 418.74900028085585, 10000, 20000, 572.7601488963278, 510.9948440780235, 347.25647979948224, 194.87314942773628, 0, 19.441024372834164, 97.7864624599584, 219.49729618464255, 595.2786035795932, -9.887721884939388, -36.710801676664595, 0.002599789977056686, 5.246766708480526, 71.64072510365529}

122 / 237

[]float64{0, -20.17519390498932, -39.93355244973702, -80.57578701249065, -155.8529749365974, -290.21119619612443, -621.585277403738, -100000, 0, 31.597452179737232, 45.95662958705779, 67.041389269046, 167.5275016910942, 421.3286576474022, 10000, 20000, 572.7601488963278, 510.9948440780235, 345.805149149717, 194.83613804064987, 0, 19.441024372834164, 97.7864624599584, 220.56418879385106, 595.2786035795932, -9.81382751888076, -36.710801676664595, 0.002599789977056686, 5.246766708480526, 71.5866638358045}

123 / 238

[]float64{0, -20.17519390498932, -39.93355244973702, -80.57578701249065, -155.53897633281466, -290.21119619612443, -622.3825704134351, -100000, 0, 31.584185674004694, 45.95662958705779, 66.08361408549928, 167.5275016910942, 422.20880616708666, 10000, 20000, 572.7601488963278, 510.9271181199787, 344.97887885740033, 194.83613804064987, 0, 19.35107950042356, 97.7864624599584, 221.5739197123532, 599.9456786791136, -9.892471911201259, -36.710801676664595, 0.002599789977056686, 5.246766708480526, 71.5866638358045}

124 / 239

[]float64{0, -20.17519390498932, -40.13740340995247, -80.00507834088194, -155.53897633281466, -290.21119619612443, -622.3825704134351, -100000, 0, 31.63425549251702, 45.95662958705779, 66.08361408549928, 166.0379733441574, 422.20880616708666, 10000, 20000, 572.7601488963278, 510.9271181199787, 342.1980372279911, 194.83613804064987, 0, 19.35107950042356, 97.18798202037294, 220.0029920977504, 599.9456786791136, -9.892471911201259, -36.710801676664595, 0.002599789977056686, 5.265914195452018, 71.5866638358045}

125 / 241

[]float64{0, -20.29198273165942, -40.05751546918315, -80.00507834088194, -155.4602177413925, -290.21119619612443, -629.2660890766153, -100000, 0, 31.689944204662392, 45.95662958705779, 66.08361408549928, 166.8368864331426, 422.20880616708666, 10000, 20000, 576.4481189592314, 510.9271181199787, 342.8760765453666, 194.1914044125763, 0, 19.16277106299065, 96.4437915117635, 221.42013932602157, 603.1979259357984, -9.94245583314592, -36.495087790584115, 0.002569920904073302, 5.270354111740882, 72.17403561849918}

126 / 242

[]float64{0, -20.29198273165942, -40.40134327057325, -80.00507834088194, -155.4602177413925, -290.21119619612443, -630.8722871096277, -100000, 0, 31.939717864802816, 45.871656933405696, 66.16032489284302, 165.04873717215068, 423.65489677018303, 10000, 20000, 576.4481189592314, 510.9271181199787, 344.21080489989043, 194.1914044125763, 0, 19.16277106299065, 97.20794256784282, 219.9080426112186, 600.3940249406114, -9.94245583314592, -36.495087790584115, 0.0025761967004403587, 5.270354111740882, 72.17403561849918}

127 / 243

[]float64{0, -20.404712321476744, -40.40134327057325, -80.00507834088194, -156.2374706315726, -290.21119619612443, -630.8722871096277, -100000, 0, 31.930630709408973, 45.55701725313282, 66.16032489284302, 165.04873717215068, 423.65489677018303, 10000, 20000, 577.0840831729658, 507.1640293010396, 344.21080489989043, 194.1914044125763, 0, 19.16277106299065, 97.20794256784282, 218.82115581026082, 606.7396553974204, -9.94245583314592, -36.38247351037296, 0.0025761967004403587, 5.270354111740882, 71.79297010062454}

128 / 244

[]float64{0, -20.404712321476744, -40.14337092796165, -80.00507834088194, -156.2374706315726, -287.563421875069, -630.8722871096277, -100000, 0, 31.930630709408973, 45.163734139461646, 66.16032489284302, 165.04873717215068, 423.65489677018303, 10000, 20000, 577.0840831729658, 507.1640293010396, 344.7445227545396, 194.1914044125763, 0, 19.16277106299065, 96.36626397500414, 218.82115581026082, 606.7396553974204, -9.94245583314592, -36.38247351037296, 0.0025761967004403587, 5.307532942585443, 71.79297010062454}

129 / 246

[]float64{0, -20.543828330066134, -40.14337092796165, -80.00507834088194, -156.15830233479846, -287.44062046749, -630.8722871096277, -100000, 0, 31.930630709408973, 45.483248927340554, 65.56668049572897, 165.04873717215068, 423.65489677018303, 10000, 20000, 577.1711773569201, 507.1640293010396, 341.8429366790071, 194.53406999419144, 0, 19.130111068089434, 95.85382503722141, 217.3686446491995, 606.7396553974204, -10.006363953510625, -36.38247351037296, 0.0025761967004403587, 5.307532942585443, 72.3586726600282}

130 / 247

[]float64{0, -20.70318366208883, -40.42290490821664, -80.79152334699093, -156.15830233479846, -287.44062046749, -625.2707041004074, -100000, 0, 31.930630709408973, 45.935164988181015, 65.29045539793259, 165.51079391524905, 423.65489677018303, 10000, 20000, 577.1711773569201, 507.1640293010396, 341.8429366790071, 194.9788319449141, 0, 19.130111068089434, 96.38909617185521, 217.3686446491995, 606.5155047044836, -10.006363953510625, -36.38247351037296, 0.0025960983024379777, 5.307532942585443, 72.29736661781118}

131 / 248

[]float64{0, -20.606885971763475, -40.42290490821664, -81.20019037723964, -157.6986346257986, -288.6914752505637, -625.2707041004074, -100000, 0, 31.930630709408973, 46.15640592173115, 65.35703320545227, 165.51079391524905, 421.9463891868248, 10000, 20000, 577.1711773569201, 504.88730517523254, 344.5467245034402, 194.9788319449141, 0, 19.130111068089434, 96.38909617185521, 217.3686446491995, 606.397973176153, -9.981295156484824, -36.15362213813978, 0.0026027215866497454, 5.295090655598889, 72.29736661781118}

132 / 249

[]float64{0, -20.606885971763475, -40.42290490821664, -81.16716687081754, -156.1408475232897, -291.7397606100858, -627.8878506658921, -100000, 0, 32.116858408731346, 46.15640592173115, 65.05247922361323, 165.51079391524905, 421.8313075184926, 10000, 20000, 575.3650339174847, 504.88730517523254, 344.5467245034402, 194.9788319449141, 0, 19.30860887529447, 96.55756096489907, 219.075255028708, 611.1938848118981, -9.981295156484824, -36.38983687977667, 0.0026027215866497454, 5.295090655598889, 72.05141843479223}

133 / 252

[]float64{0, -20.611678885350276, -40.42290490821664, -81.79234105179707, -155.29884841217714, -290.66573223466366, -627.8878506658921, -100000, 0, 32.116858408731346, 45.85471833802124, 65.05247922361323, 165.41027175578265, 421.8313075184926, 10000, 20000, 579.1386577181265, 504.88730517523254, 344.52443094243523, 194.9788319449141, 0, 19.232351041085774, 96.55756096489907, 219.075255028708, 607.2575735154508, -9.981295156484824, -36.58639224448404, 0.0026027215866497454, 5.31194438525403, 72.05141843479223}

134 / 254

[]float64{0, -20.77691895004705, -40.42290490821664, -81.79234105179707, -155.29884841217714, -290.66573223466366, -624.3867804040166, -100000, 0, 32.082431557609574, 45.451236629841276, 64.84216957429967, 165.41027175578265, 421.8677937521725, 10000, 20000, 585.024606344902, 503.9791911334081, 344.52443094243523, 194.9788319449141, 0, 19.104714221670577, 97.26586455945798, 219.075255028708, 610.0589723644043, -9.981295156484824, -36.79839120513185, 0.0026126289645248997, 5.31194438525403, 72.29454629359134}

135 / 260

[]float64{0, -20.894128754625214, -40.42290490821664, -81.79234105179707, -155.29884841217714, -290.66573223466366, -624.3867804040166, -100000, 0, 32.1225147569079, 45.451236629841276, 63.87439365171257, 165.41027175578265, 418.4117436096976, 10000, 20000, 582.9896287984991, 503.9791911334081, 344.52443094243523, 194.96811337496024, 0, 19.104714221670577, 97.60546800954094, 219.075255028708, 603.8089128382786, -9.91926882698155, -36.77695717652793, 0.0026104161325631904, 5.309486741216329, 72.30717345144379}

136 / 264

[]float64{0, -20.845867966371763, -40.42290490821664, -81.79234105179707, -155.29884841217714, -290.4231243082364, -624.3867804040166, -100000, 0, 32.1225147569079, 45.451236629841276, 63.87439365171257, 165.41027175578265, 418.4117436096976, 10000, 20000, 582.9896287984991, 502.3613137362083, 343.7101482621963, 195.49598796195272, 0, 19.104714221670577, 97.2776065575829, 218.83948489920311, 603.8089128382786, -9.91926882698155, -36.77695717652793, 0.002619122124321631, 5.309486741216329, 72.30717345144379}

137 / 266

[]float64{0, -20.913495470715027, -40.42290490821664, -81.79234105179707, -154.81803648548092, -290.4231243082364, -624.3867804040166, -100000, 0, 32.20459063544918, 45.46493488406381, 64.407988606596, 165.41027175578265, 418.4117436096976, 10000, 20000, 582.9896287984991, 505.30587373148785, 343.7101482621963, 195.49598796195272, 0, 19.104714221670577, 97.55231349636026, 218.83948489920311, 606.7370220049106, -9.91926882698155, -36.62185158806691, 0.002619122124321631, 5.309486741216329, 72.30717345144379}

138 / 269

[]float64{0, -20.913495470715027, -40.35817146385679, -82.55794479273371, -154.81803648548092, -290.4231243082364, -618.3427848338556, -100000, 0, 32.20459063544918, 45.46493488406381, 65.21268916819992, 163.43773323537727, 415.1976737336471, 10000, 20000, 579.6773898511365, 504.31003886132225, 343.7101482621963, 196.5521949296662, 0, 19.24281674230474, 97.55231349636026, 218.83948489920311, 611.0627550436341, -9.91926882698155, -36.67846323347247, 0.002594578220954406, 5.327816538623249, 72.25889714835995}

139 / 272

[]float64{0, -20.913495470715027, -40.35817146385679, -82.55794479273371, -154.81803648548092, -288.7681557644505, -615.3057048969324, -100000, 0, 32.0161212777369, 45.44429685436198, 64.96385788550272, 163.43773323537727, 416.29547358047444, 10000, 20000, 579.6773898511365, 504.31003886132225, 343.7101482621963, 196.5521949296662, 0, 19.172749157965363, 98.32926253369192, 218.83948489920311, 611.0627550436341, -9.886631076641201, -36.66292713633085, 0.002594578220954406, 5.327816538623249, 72.67790613886336}

140 / 274

[]float64{0, -21.06411428512185, -40.10638756187788, -82.48577734086996, -154.81803648548092, -286.46420329796206, -615.3057048969324, -100000, 0, 32.0161212777369, 45.24404142988542, 65.31305955613203, 163.43773323537727, 416.29547358047444, 10000, 20000, 581.895758020024, 504.31003886132225, 343.7101482621963, 197.4134363054236, 0, 19.172749157965363, 99.27497167258483, 220.57751992053326, 611.0627550436341, -9.815946238196851, -36.78215304961181, 0.002594578220954406, 5.327816538623249, 73.15843419607052}

141 / 279

[]float64{0, -21.126859065368713, -40.255212319617215, -82.87011817163075, -154.81803648548092, -286.46420329796206, -615.3057048969324, -100000, 0, 32.08948604912771, 45.56406603445434, 65.95709368423721, 163.43773323537727, 413.54628814072146, 10000, 20000, 581.895758020024, 504.31003886132225, 343.7101482621963, 197.4134363054236, 0, 19.11565673363576, 99.0294937411909, 220.57751992053326, 609.4548334541557, -9.815946238196851, -36.93202958425278, 0.002601618462485487, 5.327816538623249, 73.15843419607052}

142 / 280

[]float64{0, -21.126859065368713, -39.90854977983146, -82.87011817163075, -155.84228069657297, -286.46420329796206, -614.5055565068626, -100000, 0, 32.3119436219784, 45.56406603445434, 65.95709368423721, 162.53134557207392, 411.69617057608957, 10000, 20000, 586.6143601230269, 504.31003886132225, 345.2660382598293, 197.4134363054236, 0, 19.11565673363576, 99.0294937411909, 220.24606848522046, 609.4548334541557, -9.815946238196851, -36.711277993907316, 0.002601618462485487, 5.344104568274525, 73.15843419607052}

143 / 283

[]float64{0, -21.126859065368713, -39.90854977983146, -82.87011817163075, -156.1994629235988, -286.46420329796206, -609.6021690075493, -100000, 0, 32.47890120306321, 45.95918353030156, 65.2043818147589, 162.53134557207392, 415.03992631151664, 10000, 20000, 582.9005157275765, 504.31003886132225, 345.2660382598293, 196.81748285615978, 0, 19.11565673363576, 98.1510997513432, 219.76557834671655, 609.4548334541557, -9.820398333268866, -36.711277993907316, 0.002601618462485487, 5.344104568274525, 73.34302019725243}

144 / 284

[]float64{0, -20.98994727999679, -40.184897040630716, -82.87011817163075, -155.1177853605532, -289.57782351274534, -615.7086081521905, -100000, 0, 32.350572745584294, 45.56221087360487, 65.2043818147589, 161.0610548620494, 418.3895767075516, 10000, 20000, 582.9005157275765, 506.78724761067093, 342.59946963289707, 196.81748285615978, 0, 19.11565673363576, 98.1510997513432, 219.76557834671655, 609.4548334541557, -9.738488302547982, -36.711277993907316, 0.0026032523675890993, 5.37334185308198, 73.70545597410505}

145 / 285

[]float64{0, -20.98994727999679, -40.184897040630716, -83.56715595038818, -154.4299527367903, -288.9021657738531, -615.7086081521905, -100000, 0, 32.350572745584294, 45.14103865789442, 65.2043818147589, 160.31899992906602, 418.3895767075516, 10000, 20000, 587.504223534411, 506.78724761067093, 342.59946963289707, 195.3681510219829, 0, 19.11565673363576, 97.97951484514466, 219.76557834671655, 607.6285101658943, -9.66740368452563, -36.711277993907316, 0.0026032523675890993, 5.37334185308198, 73.70545597410505}

146 / 286

[]float64{0, -20.880177346940613, -40.523179715477866, -83.56715595038818, -154.4299527367903, -288.9021657738531, -609.197240118734, -100000, 0, 32.447030720026106, 45.14103865789442, 65.2043818147589, 160.36072829603728, 418.3895767075516, 10000, 20000, 585.196435966958, 509.3968016812079, 340.97223826957577, 195.3681510219829, 0, 19.14985761112372, 97.97951484514466, 221.4235504664524, 608.8406432597058, -9.66740368452563, -36.45334695420434, 0.0026102846947251676, 5.381150181497117, 73.99859903451505}

147 / 287

[]float64{0, -20.880177346940613, -40.523179715477866, -83.58148888626789, -154.4299527367903, -288.9021657738531, -608.7979647400177, -100000, 0, 32.447030720026106, 45.14103865789442, 65.2043818147589, 159.26326897003992, 418.3895767075516, 10000, 20000, 581.855308432106, 507.8434689344948, 340.97223826957577, 195.3681510219829, 0, 19.14985761112372, 98.96921454462125, 221.4235504664524, 612.5365342926455, -9.636696033430862, -36.67266606479469, 0.0026102846947251676, 5.381150181497117, 73.47335064456215}

148 / 288

[]float64{0, -20.880177346940613, -40.523179715477866, -83.58148888626789, -154.4299527367903, -288.9021657738531, -607.1974070007388, -100000, 0, 32.4624561860882, 45.193014447102115, 66.0750307384344, 159.26326897003992, 417.04023274018294, 10000, 20000, 581.855308432106, 507.0392366358988, 339.67665602373785, 194.95216891010708, 0, 19.121114664645898, 98.96921454462125, 221.19988307094673, 612.5365342926455, -9.70166231897148, -36.95362476494803, 0.0026102846947251676, 5.387840956945715, 73.09777045780729}

149 / 289

[]float64{0, -20.880177346940613, -40.523179715477866, -83.02078250425632, -155.40661563645983, -288.9021657738531, -607.1974070007388, -100000, 0, 32.4624561860882, 45.193014447102115, 66.0750307384344, 157.75034993184386, 413.263468400728, 10000, 20000, 586.2262229780748, 505.5207595251566, 342.6289677288422, 194.76452676703917, 0, 19.121114664645898, 98.96921454462125, 222.759824200857, 612.5365342926455, -9.70166231897148, -36.95362476494803, 0.0026102846947251676, 5.376082336603002, 73.09777045780729}

150 / 290

[]float64{0, -20.880177346940613, -40.18479002294373, -82.30311715175311, -155.40661563645983, -288.9021657738531, -612.4897929855281, -100000, 0, 32.614603819525755, 45.541970754505975, 66.0750307384344, 157.75034993184386, 413.263468400728, 10000, 20000, 586.2262229780748, 507.5101992110757, 342.6289677288422, 194.76452676703917, 0, 19.11818294522124, 98.2862020188589, 221.38408349557636, 612.5365342926455, -9.70166231897148, -36.74424919228099, 0.002581415344612813, 5.414943437867925, 73.5025788661894}

151 / 292

[]float64{0, -20.80992860246264, -39.90608754723583, -81.60103923361811, -155.40661563645983, -288.9021657738531, -614.0409229354419, -100000, 0, 32.433607675760044, 45.34111495331473, 65.61008053136833, 158.45372854053096, 413.263468400728, 10000, 20000, 589.4603825920285, 506.76084965943926, 342.33013904063273, 194.76452676703917, 0, 19.077561948722284, 98.2862020188589, 221.93256584750782, 612.5365342926455, -9.800679880630113, -36.74424919228099, 0.002581415344612813, 5.446911960287178, 73.35227215098895}

152 / 293

[]float64{0, -20.80992860246264, -39.53973239686991, -81.50246863507586, -155.93079444027765, -289.23796777428583, -614.5346962394407, -100000, 0, 32.30082505350642, 45.12214408862102, 65.61008053136833, 156.60239035239982, 413.263468400728, 10000, 20000, 589.4603825920285, 506.1123687112676, 344.8402195215042, 194.76452676703917, 0, 19.077561948722284, 98.2862020188589, 222.64556765567144, 612.5365342926455, -9.800679880630113, -36.74424919228099, 0.002582788992910993, 5.446911960287178, 72.91389999925025}

153 / 295

